{"learner":{"attributes":{"best_iteration":"99","best_ntree_limit":"100","scikit_learn":"{\"n_estimators\": 100, \"objective\": null, \"max_depth\": null, \"max_leaves\": null, \"max_bin\": null, \"grow_policy\": null, \"learning_rate\": null, \"verbosity\": null, \"booster\": null, \"tree_method\": null, \"gamma\": null, \"min_child_weight\": null, \"max_delta_step\": null, \"subsample\": null, \"sampling_method\": null, \"colsample_bytree\": null, \"colsample_bylevel\": null, \"colsample_bynode\": null, \"reg_alpha\": null, \"reg_lambda\": null, \"scale_pos_weight\": null, \"base_score\": null, \"missing\": NaN, \"num_parallel_tree\": null, \"random_state\": null, \"n_jobs\": null, \"monotone_constraints\": null, \"interaction_constraints\": null, \"importance_type\": null, \"gpu_id\": null, \"validate_parameters\": null, \"predictor\": null, \"enable_categorical\": false, \"feature_types\": null, \"max_cat_to_onehot\": null, \"max_cat_threshold\": null, \"eval_metric\": null, \"early_stopping_rounds\": null, \"callbacks\": null, \"_estimator_type\": \"regressor\"}"},"feature_names":["0","1","2","3","4","5","6","7","8","9","10","11","12"],"feature_types":["float","float","float","float","float","float","float","float","float","float","float","float","float"],"gradient_booster":{"model":{"gbtree_model_param":{"num_parallel_tree":"1","num_trees":"100","size_leaf_vector":"0"},"tree_info":[0,0,0,0,0,0,0,0,0,0,0,0,0,0,0,0,0,0,0,0,0,0,0,0,0,0,0,0,0,0,0,0,0,0,0,0,0,0,0,0,0,0,0,0,0,0,0,0,0,0,0,0,0,0,0,0,0,0,0,0,0,0,0,0,0,0,0,0,0,0,0,0,0,0,0,0,0,0,0,0,0,0,0,0,0,0,0,0,0,0,0,0,0,0,0,0,0,0,0,0],"trees":[{"base_weights":[-3.723216E-1,-3.886017E-1,-2.9155308E-1,-3.2301545E-1,-4.0280557E-1,-3.121857E-1,-2.4839489E-1,-2.8659788E-1,-3.3951098E-1,-4.1181892E-1,-3.0532542E-1,-3.248283E-1,-2.6113382E-1,-8.064892E-2,-2.2692937E-1,-2.120491E-1,-2.9295638E-1,-3.46474E-1,-8.137818E-2,-4.209734E-1,-3.24956E-1,-2.4106246E-1,-3.3674788E-1,-3.3601004E-1,-2.7225465E-1,-8.3546646E-2,-7.146942E-2,-6.966928E-2,-5.505732E-2,-6.921639E-2,-4.4591278E-2,-2.9363692E-1,-3.307069E-2,-1.05733E-1,-2.987791E-1,-3.8835555E-1,-4.32594E-1,-2.592097E-1,-1.09642185E-1,-5.3308513E-2,-2.5382456E-1,-3.0778113E-1,-1.105654E-1,-1.0563104E-1,-9.4592854E-2,-8.343111E-2,-4.608559E-2,-8.9015044E-2,-6.921958E-2,-7.571995E-2,-9.822001E-2,-1.17380604E-1,-9.52516E-2,-1.1569184E-1,-1.3065103E-1,-5.5596422E-2,-8.1563674E-2,-7.849094E-2,-6.0813095E-2,-9.9357806E-2,-8.486119E-2],"categories":[],"categories_nodes":[],"categories_segments":[],"categories_sizes":[],"default_left":[0,0,0,0,0,0,0,0,0,0,0,0,0,0,0,0,0,0,0,0,0,0,0,0,0,0,0,0,0,0,0,0,0,0,0,0,0,0,0,0,0,0,0,0,0,0,0,0,0,0,0,0,0,0,0,0,0,0,0,0,0],"id":0,"left_children":[1,3,5,7,9,11,13,15,17,19,21,23,25,-1,27,29,31,33,-1,35,37,39,41,43,45,-1,-1,-1,-1,-1,-1,47,-1,-1,49,51,53,55,-1,-1,57,59,-1,-1,-1,-1,-1,-1,-1,-1,-1,-1,-1,-1,-1,-1,-1,-1,-1,-1,-1],"loss_changes":[1.1393555E1,6.6517334E0,1.2332306E0,6.842499E-1,5.128479E0,5.554428E-1,1.4998436E-1,1.331749E-1,3.289566E-1,4.213623E0,9.486656E-1,3.735199E-1,1.3943672E-2,0E0,1.283741E-2,8.331299E-3,1.4511108E-2,1.2360382E-1,0E0,1.7067261E0,1.3064804E0,9.3185425E-2,1.9979095E-1,1.048584E-1,5.7201385E-2,0E0,0E0,0E0,0E0,0E0,0E0,4.1923523E-3,0E0,0E0,4.4796944E-2,1.4596558E-1,3.2904053E-1,1.4058113E-1,0E0,0E0,2.8648376E-3,1.3622284E-2,0E0,0E0,0E0,0E0,0E0,0E0,0E0,0E0,0E0,0E0,0E0,0E0,0E0,0E0,0E0,0E0,0E0,0E0,0E0],"parents":[2147483647,0,0,1,1,2,2,3,3,4,4,5,5,6,6,7,7,8,8,9,9,10,10,11,11,12,12,14,14,15,15,16,16,17,17,19,19,20,20,21,21,22,22,23,23,24,24,31,31,34,34,35,35,36,36,37,37,40,40,41,41],"right_children":[2,4,6,8,10,12,14,16,18,20,22,24,26,-1,28,30,32,34,-1,36,38,40,42,44,46,-1,-1,-1,-1,-1,-1,48,-1,-1,50,52,54,56,-1,-1,58,60,-1,-1,-1,-1,-1,-1,-1,-1,-1,-1,-1,-1,-1,-1,-1,-1,-1,-1,-1],"split_conditions":[9.83327E-2,-1.0711125E-1,1.9172728E-1,-1.6253974E-1,1.1502191E-1,1.9571002E-1,2.2803237E-1,-2.3441447E-1,2.5823994E-2,1.18158154E-1,-1.1780715E-1,2.0972541E-1,1.6311117E-1,-8.064892E-2,2.6918763E-1,-5.5288658E-2,-3.0278478E-2,9.784114E-3,-8.137818E-2,-5.2225634E-2,-1.0300497E-1,-2.1499895E-1,-6.31004E-2,1.4762089E-1,2.4920739E-1,-8.3546646E-2,-7.146942E-2,-6.966928E-2,-5.505732E-2,-6.921639E-2,-4.4591278E-2,1.875811E-1,-3.307069E-2,-1.05733E-1,-1.5910684E-1,1.8263872E-1,-1.1609301E-1,-2.0423356E-1,-1.09642185E-1,-5.3308513E-2,2.2803237E-1,1.6311117E-1,-1.105654E-1,-1.0563104E-1,-9.4592854E-2,-8.343111E-2,-4.608559E-2,-8.9015044E-2,-6.921958E-2,-7.571995E-2,-9.822001E-2,-1.17380604E-1,-9.52516E-2,-1.1569184E-1,-1.3065103E-1,-5.5596422E-2,-8.1563674E-2,-7.849094E-2,-6.0813095E-2,-9.9357806E-2,-8.486119E-2],"split_indices":[0,0,0,0,6,6,0,0,7,7,7,7,5,0,7,1,4,6,0,0,5,7,8,0,8,0,0,0,0,0,0,8,0,0,7,5,6,5,0,0,6,6,0,0,0,0,0,0,0,0,0,0,0,0,0,0,0,0,0,0,0],"split_type":[0,0,0,0,0,0,0,0,0,0,0,0,0,0,0,0,0,0,0,0,0,0,0,0,0,0,0,0,0,0,0,0,0,0,0,0,0,0,0,0,0,0,0,0,0,0,0,0,0,0,0,0,0,0,0,0,0,0,0,0,0],"sum_hessian":[8.75E3,7.279E3,1.471E3,1.3E3,5.979E3,9.91E2,4.8E2,4.11E2,8.89E2,5.47E3,5.09E2,7.9E2,2.01E2,2.4E2,2.4E2,3.5E1,3.76E2,8.03E2,8.6E1,4.945E3,5.25E2,1.7E2,3.39E2,6.47E2,1.43E2,1.08E2,9.3E1,2.1E2,3E1,2.5E1,1E1,3.74E2,2E0,7.08E2,9.5E1,1.308E3,3.637E3,2.03E2,3.22E2,3.1E1,1.39E2,1.83E2,1.56E2,3.55E2,2.92E2,1.35E2,8E0,3.53E2,2.1E1,4E1,5.5E1,1.252E3,5.6E1,2.2E2,3.417E3,3.2E1,1.71E2,1.17E2,2.2E1,8.8E1,9.5E1],"tree_param":{"num_deleted":"0","num_feature":"13","num_nodes":"61","size_leaf_vector":"0"}},{"base_weights":[-2.6091644E-1,-2.7300584E-1,-2.0708469E-1,-2.3242281E-1,-2.8507724E-1,-2.2254646E-1,-1.7690909E-1,-2.0700926E-1,-2.4742508E-1,-2.9253793E-1,-2.2077803E-1,-2.3487997E-1,-1.8867025E-1,-1.8597905E-1,-1.4875276E-1,-1.7567171E-1,-2.1560545E-1,-2.5118324E-1,-5.4782163E-2,-3.012849E-1,-2.3681398E-1,-1.8450563E-1,-2.554248E-1,-2.4768484E-1,-1.969556E-1,-4.293557E-2,-1.9360793E-1,-1.8946129E-1,-4.2917132E-2,-4.6605766E-2,-3.7908018E-2,-5.4255195E-2,-1.1688328E-1,-2.1975093E-1,-5.05385E-2,-2.196836E-1,-2.578973E-1,-2.6799017E-1,-3.044628E-1,-1.9224487E-1,-2.627006E-1,-1.9330744E-1,-4.0746544E-2,-2.755684E-1,-6.617722E-2,-7.834232E-2,-7.019435E-2,-1.614896E-1,-6.373742E-2,-4.8055556E-2,-6.076329E-2,-5.823755E-2,-4.7159802E-2,-1.0235552E-2,-3.618759E-2,-6.7867555E-2,-5.7682645E-2,-7.287424E-2,-5.421117E-2,-7.833944E-2,-6.8705946E-2,-8.1542894E-2,-6.0910247E-2,-8.464041E-2,-9.316428E-2,-6.604669E-2,-4.9242605E-2,-7.37443E-2,-8.208753E-2,-5.0077703E-2,-6.517193E-2,-7.1216606E-2,-8.893291E-2,-3.2840095E-2,-5.068739E-2],"categories":[],"categories_nodes":[],"categories_segments":[],"categories_sizes":[],"default_left":[0,0,0,0,0,0,0,0,0,0,0,0,0,0,0,0,0,0,0,0,0,0,0,0,0,0,0,0,0,0,0,0,0,0,0,0,0,0,0,0,0,0,0,0,0,0,0,0,0,0,0,0,0,0,0,0,0,0,0,0,0,0,0,0,0,0,0,0,0,0,0,0,0,0,0],"id":1,"left_children":[1,3,5,7,9,11,13,15,17,19,21,23,25,27,29,31,33,35,-1,37,39,41,43,45,47,-1,49,51,-1,-1,-1,-1,53,55,-1,57,59,61,63,65,67,69,-1,71,-1,-1,-1,73,-1,-1,-1,-1,-1,-1,-1,-1,-1,-1,-1,-1,-1,-1,-1,-1,-1,-1,-1,-1,-1,-1,-1,-1,-1,-1,-1],"loss_changes":[5.638489E0,3.4330444E0,7.1134186E-1,5.751953E-1,2.5743408E0,3.985672E-1,1.1279297E-1,1.2806511E-1,2.045517E-1,2.3296814E0,6.7674446E-1,3.2660294E-1,3.7067413E-2,3.4475327E-2,9.121895E-4,2.0877361E-2,5.659294E-2,1.4827728E-1,0E0,3.6849976E-1,7.259636E-1,9.5869064E-2,1.44104E-1,4.4742584E-2,7.56526E-2,0E0,4.4315338E-2,2.6359558E-2,0E0,0E0,0E0,0E0,2.2035837E-4,3.4236908E-2,0E0,1.1638069E-1,1.4259338E-2,3.8841248E-2,4.3899536E-1,1.6074085E-1,1.0772705E-2,1.1463642E-1,0E0,7.388115E-2,0E0,0E0,0E0,6.7585707E-3,0E0,0E0,0E0,0E0,0E0,0E0,0E0,0E0,0E0,0E0,0E0,0E0,0E0,0E0,0E0,0E0,0E0,0E0,0E0,0E0,0E0,0E0,0E0,0E0,0E0,0E0,0E0],"parents":[2147483647,0,0,1,1,2,2,3,3,4,4,5,5,6,6,7,7,8,8,9,9,10,10,11,11,12,12,13,13,14,14,15,15,16,16,17,17,19,19,20,20,21,21,22,22,23,23,24,24,26,26,27,27,32,32,33,33,35,35,36,36,37,37,38,38,39,39,40,40,41,41,43,43,47,47],"right_children":[2,4,6,8,10,12,14,16,18,20,22,24,26,28,30,32,34,36,-1,38,40,42,44,46,48,-1,50,52,-1,-1,-1,-1,54,56,-1,58,60,62,64,66,68,70,-1,72,-1,-1,-1,74,-1,-1,-1,-1,-1,-1,-1,-1,-1,-1,-1,-1,-1,-1,-1,-1,-1,-1,-1,-1,-1,-1,-1,-1,-1,-1,-1],"split_conditions":[8.8383675E-2,-9.31686E-2,1.8263872E-1,-1.4405742E-1,1.3981761E-1,1.6967918E-1,2.4920739E-1,-1.9721068E-1,4.720691E-2,9.082764E-2,-9.911924E-2,1.9172728E-1,-1.4632444E-1,2.3537266E-1,2.8030252E-1,-5.5288658E-2,1.7612115E-1,-1.4149883E-1,-5.4782163E-2,-1.1295576E-1,-8.899875E-2,2.2024517E-1,1.5854945E-3,1.2669116E-1,-1.389487E-1,-4.293557E-2,-1.4632444E-1,2.4124481E-1,-4.2917132E-2,-4.6605766E-2,-3.7908018E-2,-5.4255195E-2,-2.1499895E-1,1.18158154E-1,-5.05385E-2,1.1502191E-1,3.7971844E-3,1.0678823E-1,-6.775525E-2,1.9961421E-1,-5.368326E-2,-1.1780715E-1,-4.0746544E-2,-6.775525E-2,-6.617722E-2,-7.834232E-2,-7.019435E-2,-2.0423356E-1,-6.373742E-2,-4.8055556E-2,-6.076329E-2,-5.823755E-2,-4.7159802E-2,-1.0235552E-2,-3.618759E-2,-6.7867555E-2,-5.7682645E-2,-7.287424E-2,-5.421117E-2,-7.833944E-2,-6.8705946E-2,-8.1542894E-2,-6.0910247E-2,-8.464041E-2,-9.316428E-2,-6.604669E-2,-4.9242605E-2,-7.37443E-2,-8.208753E-2,-5.0077703E-2,-6.517193E-2,-7.1216606E-2,-8.893291E-2,-3.2840095E-2,-5.068739E-2],"split_indices":[0,0,0,0,5,6,0,0,7,7,7,7,7,6,0,1,8,7,0,6,5,6,3,0,5,0,8,7,0,0,0,0,6,5,0,5,7,8,7,8,6,8,0,7,0,0,0,5,0,0,0,0,0,0,0,0,0,0,0,0,0,0,0,0,0,0,0,0,0,0,0,0,0,0,0],"split_type":[0,0,0,0,0,0,0,0,0,0,0,0,0,0,0,0,0,0,0,0,0,0,0,0,0,0,0,0,0,0,0,0,0,0,0,0,0,0,0,0,0,0,0,0,0,0,0,0,0,0,0,0,0,0,0,0,0,0,0,0,0,0,0,0,0,0,0,0,0,0,0,0,0,0,0],"sum_hessian":[8.75E3,7.142E3,1.608E3,1.642E3,5.5E3,1.059E3,5.49E2,6.15E2,1.027E3,4.925E3,5.75E2,7.72E2,2.87E2,4.11E2,1.38E2,1.37E2,4.78E2,9.68E2,5.9E1,4.253E3,6.72E2,2.84E2,2.91E2,5.73E2,1.99E2,3.1E1,2.56E2,3.77E2,3.4E1,1.02E2,3.6E1,1.24E2,1.3E1,4.36E2,4.2E1,1.76E2,7.92E2,3.78E2,3.875E3,2.5E2,4.22E2,2.38E2,4.6E1,1.8E2,1.11E2,2.8E2,2.93E2,6.4E1,1.35E2,5.8E1,1.98E2,3.25E2,5.2E1,1E0,1.2E1,3.47E2,8.9E1,1.07E2,6.9E1,7.05E2,8.7E1,3.54E2,2.4E1,8.4E2,3.035E3,1.22E2,1.28E2,1.75E2,2.47E2,1.17E2,1.21E2,6.8E1,1.12E2,1E1,5.4E1],"tree_param":{"num_deleted":"0","num_feature":"13","num_nodes":"75","size_leaf_vector":"0"}},{"base_weights":[-1.8289974E-1,-1.9186124E-1,-1.4681026E-1,-1.544614E-1,-1.9876218E-1,-1.5851764E-1,-1.269411E-1,-1.2908743E-1,-1.6015454E-1,-2.039675E-1,-1.5688872E-1,-1.6641182E-1,-1.2347218E-1,-1.359083E-1,-1.11084536E-1,-1.1227238E-1,-1.3673683E-1,-1.6370861E-1,-1.2711081E-1,-2.0807758E-1,-1.4977129E-1,-1.2465749E-1,-1.7763111E-1,-1.2430701E-1,-1.7170417E-1,-3.8538605E-2,-3.0314475E-2,-1.3782357E-1,-2.925695E-2,-1.16763555E-1,-2.8663043E-2,-3.4888245E-2,-1.997008E-2,-2.9151719E-2,-4.1825898E-2,-1.6865571E-1,-1.4315403E-1,-2.7049525E-2,-4.107194E-2,-1.8858473E-1,-2.1404734E-1,-1.21261135E-1,-1.7344695E-1,-7.622274E-2,-1.2946531E-1,-1.5750101E-1,-6.0196914E-2,-4.0595163E-2,-8.998266E-2,-3.703686E-2,-1.740516E-1,-1.4046443E-1,-3.1166812E-2,-3.562064E-2,-2.5053628E-2,-4.8782732E-2,-5.372569E-2,-3.785332E-2,-5.0758153E-2,-5.807531E-2,-5.2253015E-2,-6.619441E-2,-5.7895575E-2,-2.5386805E-2,-3.9600056E-2,-4.6712376E-2,-5.650546E-2,-4.8517184E-3,-2.3393359E-2,-3.5746895E-2,-4.5387592E-2,-4.4449534E-2,-5.273362E-2,-7.7595594E-3,-2.7419824E-2,-5.2888595E-2,-4.050967E-2,-3.5849575E-2,-4.294917E-2],"categories":[],"categories_nodes":[],"categories_segments":[],"categories_sizes":[],"default_left":[0,0,0,0,0,0,0,0,0,0,0,0,0,0,0,0,0,0,0,0,0,0,0,0,0,0,0,0,0,0,0,0,0,0,0,0,0,0,0,0,0,0,0,0,0,0,0,0,0,0,0,0,0,0,0,0,0,0,0,0,0,0,0,0,0,0,0,0,0,0,0,0,0,0,0,0,0,0,0],"id":2,"left_children":[1,3,5,7,9,11,13,15,17,19,21,23,25,27,29,31,33,35,37,39,41,43,45,47,49,-1,-1,51,-1,53,-1,-1,-1,-1,-1,55,57,-1,-1,59,61,63,65,67,69,71,-1,-1,73,-1,75,77,-1,-1,-1,-1,-1,-1,-1,-1,-1,-1,-1,-1,-1,-1,-1,-1,-1,-1,-1,-1,-1,-1,-1,-1,-1,-1,-1],"loss_changes":[2.802063E0,1.7777405E0,3.8579178E-1,1.3764954E-1,1.256607E0,2.8211403E-1,7.7610016E-2,1.1145115E-2,8.382988E-2,1.139389E0,4.1776466E-1,1.7697906E-1,9.956837E-3,1.6848087E-2,1.0113955E-2,5.1258206E-3,9.942055E-4,5.730629E-2,2.058947E-2,5.277405E-1,2.3141766E-1,5.090952E-2,1.5286922E-1,2.6749253E-2,6.775665E-2,0E0,0E0,2.0357609E-2,0E0,1.3620853E-3,0E0,0E0,0E0,0E0,0E0,1.1241913E-2,5.0265312E-2,0E0,0E0,4.933548E-2,4.7598267E-1,5.6898832E-2,2.4079323E-2,1.4791936E-3,3.5075188E-2,1.0984421E-2,0E0,0E0,1.7940998E-4,0E0,4.1769028E-2,3.2100677E-3,0E0,0E0,0E0,0E0,0E0,0E0,0E0,0E0,0E0,0E0,0E0,0E0,0E0,0E0,0E0,0E0,0E0,0E0,0E0,0E0,0E0,0E0,0E0,0E0,0E0,0E0,0E0],"parents":[2147483647,0,0,1,1,2,2,3,3,4,4,5,5,6,6,7,7,8,8,9,9,10,10,11,11,12,12,13,13,14,14,15,15,16,16,17,17,18,18,19,19,20,20,21,21,22,22,23,23,24,24,27,27,29,29,35,35,36,36,39,39,40,40,41,41,42,42,43,43,44,44,45,45,48,48,50,50,51,51],"right_children":[2,4,6,8,10,12,14,16,18,20,22,24,26,28,30,32,34,36,38,40,42,44,46,48,50,-1,-1,52,-1,54,-1,-1,-1,-1,-1,56,58,-1,-1,60,62,64,66,68,70,72,-1,-1,74,-1,76,78,-1,-1,-1,-1,-1,-1,-1,-1,-1,-1,-1,-1,-1,-1,-1,-1,-1,-1,-1,-1,-1,-1,-1,-1,-1,-1,-1],"split_conditions":[8.066571E-2,-1.1609301E-1,1.7354615E-1,-1.8362255E-1,8.4175594E-2,1.2326992E-1,2.2803237E-1,-2.1499895E-1,1.6665392E-1,1.875811E-1,-9.911924E-2,-1.279668E-1,2.1548384E-1,2.577997E-1,2.6918763E-1,-3.7109386E-2,-7.438527E-2,8.612356E-2,-2.1499895E-1,-6.31004E-2,-6.1686236E-2,-2.3441447E-1,-4.0979445E-2,2.4124481E-1,-1.263129E-1,-3.8538605E-2,-3.0314475E-2,9.3790956E-2,-2.925695E-2,2.8030252E-1,-2.8663043E-2,-3.4888245E-2,-1.997008E-2,-2.9151719E-2,-4.1825898E-2,-1.3193071E-1,-1.11179836E-1,-2.7049525E-2,-4.107194E-2,6.644523E-2,5.240009E-2,-1.7896841E-1,-1.5287058E-2,-1.11179836E-1,-1.0603239E-1,-4.8473354E-2,-6.0196914E-2,-4.0595163E-2,8.264879E-2,-3.703686E-2,2.2803237E-1,-1.21858895E-1,-3.1166812E-2,-3.562064E-2,-2.5053628E-2,-4.8782732E-2,-5.372569E-2,-3.785332E-2,-5.0758153E-2,-5.807531E-2,-5.2253015E-2,-6.619441E-2,-5.7895575E-2,-2.5386805E-2,-3.9600056E-2,-4.6712376E-2,-5.650546E-2,-4.8517184E-3,-2.3393359E-2,-3.5746895E-2,-4.5387592E-2,-4.4449534E-2,-5.273362E-2,-7.7595594E-3,-2.7419824E-2,-5.2888595E-2,-4.050967E-2,-3.5849575E-2,-4.294917E-2],"split_indices":[0,0,0,0,6,5,0,0,8,8,7,5,5,7,0,1,5,5,6,0,5,7,8,7,8,0,0,5,0,7,0,0,0,0,0,0,7,0,0,5,7,5,5,0,8,7,0,0,0,0,7,5,0,0,0,0,0,0,0,0,0,0,0,0,0,0,0,0,0,0,0,0,0,0,0,0,0,0,0],"split_type":[0,0,0,0,0,0,0,0,0,0,0,0,0,0,0,0,0,0,0,0,0,0,0,0,0,0,0,0,0,0,0,0,0,0,0,0,0,0,0,0,0,0,0,0,0,0,0,0,0,0,0,0,0,0,0,0,0,0,0,0,0,0,0,0,0,0,0,0,0,0,0,0,0,0,0,0,0,0,0],"sum_hessian":[8.75E3,7.006E3,1.744E3,1.095E3,5.911E3,1.093E3,6.51E2,2.05E2,8.9E2,5.254E3,6.57E2,8.89E2,2.04E2,4.11E2,2.4E2,6.9E1,1.36E2,8E2,9E1,4.881E3,3.73E2,2.6E2,3.97E2,1.02E2,7.87E2,1.63E2,4.1E1,3.89E2,2.2E1,1.71E2,6.9E1,6.2E1,7E0,1.1E1,1.25E2,6.39E2,1.61E2,2.1E1,6.9E1,1.152E3,3.729E3,1.72E2,2.01E2,2.5E1,2.35E2,2.16E2,1.81E2,7.5E1,2.7E1,3.9E1,7.48E2,3.58E2,3.1E1,1.59E2,1.2E1,4.15E2,2.24E2,1.01E2,6E1,8.46E2,3.06E2,2.832E3,8.97E2,4.1E1,1.31E2,9.7E1,1.04E2,1E0,2.4E1,1.64E2,7.1E1,1.49E2,6.7E1,1E0,2.6E1,7.04E2,4.4E1,4.6E1,3.12E2],"tree_param":{"num_deleted":"0","num_feature":"13","num_nodes":"79","size_leaf_vector":"0"}},{"base_weights":[-1.2820786E-1,-1.3279179E-1,-9.230213E-2,-1.3629897E-1,-9.303141E-2,-9.737163E-2,-7.267711E-2,-1.1616904E-1,-1.4378412E-1,-7.312875E-2,-1.0297445E-1,-8.3552025E-2,-1.0258638E-1,-7.691393E-2,-1.896773E-2,-1.03973925E-1,-1.2504737E-1,-1.4787647E-1,-1.2342927E-1,-7.7312104E-2,-1.4612309E-2,-1.0801086E-1,-8.128476E-2,-2.5900133E-2,-2.1776006E-2,-1.1065396E-1,-9.249516E-2,-1.5772656E-2,-2.3458341E-2,-8.348691E-2,-1.0682512E-1,-1.2725581E-1,-8.9692436E-2,-1.5523958E-1,-1.3381653E-1,-1.1025864E-1,-1.4045452E-1,-8.164451E-2,-1.8309E-2,-9.963682E-2,-3.4428407E-2,-2.502636E-2,-1.5248393E-2,-4.123959E-3,-1.1092309E-1,-8.175264E-3,-2.794676E-2,-2.5908962E-2,-1.6199607E-2,-3.2958098E-2,-2.5493544E-2,-3.922211E-2,-3.3153858E-2,-2.9804865E-2,-2.096998E-2,-3.347699E-2,-4.70797E-2,-3.4347773E-2,-4.2138956E-2,-2.5871793E-2,-3.5713274E-2,-4.5144543E-2,-3.4298312E-2,-2.0818647E-2,-2.601486E-2,-3.0497082E-2,-2.0785516E-2,-3.3933595E-2,-2.8425623E-2],"categories":[],"categories_nodes":[],"categories_segments":[],"categories_sizes":[],"default_left":[0,0,0,0,0,0,0,0,0,0,0,0,0,0,0,0,0,0,0,0,0,0,0,0,0,0,0,0,0,0,0,0,0,0,0,0,0,0,0,0,0,0,0,0,0,0,0,0,0,0,0,0,0,0,0,0,0,0,0,0,0,0,0,0,0,0,0,0,0],"id":3,"left_children":[1,3,5,7,9,11,13,15,17,19,21,23,25,27,-1,29,31,33,35,37,-1,39,41,-1,-1,43,45,-1,-1,47,49,51,53,55,57,59,61,63,-1,65,-1,-1,-1,-1,67,-1,-1,-1,-1,-1,-1,-1,-1,-1,-1,-1,-1,-1,-1,-1,-1,-1,-1,-1,-1,-1,-1,-1,-1],"loss_changes":[1.4280548E0,1.0691681E0,9.181595E-2,1.0571594E0,1.1753845E-1,4.814434E-2,3.4661293E-3,1.9672012E-1,4.1415405E-1,1.8096924E-2,3.6991596E-2,4.7433376E-4,3.592539E-2,2.2101402E-4,0E0,3.909588E-2,7.572365E-2,4.2613983E-1,1.8071747E-1,7.785201E-3,0E0,7.6155663E-3,1.1606216E-3,0E0,0E0,6.560087E-3,8.583307E-3,0E0,0E0,4.242301E-3,3.827381E-2,4.6693802E-2,6.244004E-3,1.913681E-1,1.7542076E-1,9.4824314E-2,8.1823826E-2,2.6795268E-3,0E0,2.6444197E-3,0E0,0E0,0E0,0E0,2.2006035E-4,0E0,0E0,0E0,0E0,0E0,0E0,0E0,0E0,0E0,0E0,0E0,0E0,0E0,0E0,0E0,0E0,0E0,0E0,0E0,0E0,0E0,0E0,0E0,0E0],"parents":[2147483647,0,0,1,1,2,2,3,3,4,4,5,5,6,6,7,7,8,8,9,9,10,10,11,11,12,12,13,13,15,15,16,16,17,17,18,18,19,19,21,21,22,22,25,25,26,26,29,29,30,30,31,31,32,32,33,33,34,34,35,35,36,36,37,37,39,39,44,44],"right_children":[2,4,6,8,10,12,14,16,18,20,22,24,26,28,-1,30,32,34,36,38,-1,40,42,-1,-1,44,46,-1,-1,48,50,52,54,56,58,60,62,64,-1,66,-1,-1,-1,-1,68,-1,-1,-1,-1,-1,-1,-1,-1,-1,-1,-1,-1,-1,-1,-1,-1,-1,-1,-1,-1,-1,-1,-1,-1],"split_conditions":[1.3981761E-1,1.7354615E-1,2.3537266E-1,-8.093665E-2,-1.3429873E-1,-1.263129E-1,2.6918763E-1,-1.2981343E-1,6.644523E-2,2.6918763E-1,1.9963989E-1,1.9172728E-1,1.3026279E-1,3.5251833E-2,-1.896773E-2,-2.0423356E-1,4.720691E-2,4.248138E-2,-3.453963E-2,2.577997E-1,-1.4612309E-2,-6.9211386E-2,2.8030252E-1,-2.5900133E-2,-2.1776006E-2,-1.4405264E-1,-9.31686E-2,-1.5772656E-2,-2.3458341E-2,-5.5288658E-2,1.4354597E-1,3.7971844E-3,8.4175594E-2,-1.5910684E-1,-7.007268E-2,-2.4358674E-3,1.3375854E-1,-1.279668E-1,-1.8309E-2,2.577997E-1,-3.4428407E-2,-2.502636E-2,-1.5248393E-2,-4.123959E-3,3.0128164E-3,-8.175264E-3,-2.794676E-2,-2.5908962E-2,-1.6199607E-2,-3.2958098E-2,-2.5493544E-2,-3.922211E-2,-3.3153858E-2,-2.9804865E-2,-2.096998E-2,-3.347699E-2,-4.70797E-2,-3.4347773E-2,-4.2138956E-2,-2.5871793E-2,-3.5713274E-2,-4.5144543E-2,-3.4298312E-2,-2.0818647E-2,-2.601486E-2,-3.0497082E-2,-2.0785516E-2,-3.3933595E-2,-2.8425623E-2],"split_indices":[6,7,6,0,5,8,6,0,6,8,2,5,4,0,0,0,7,7,8,7,0,5,0,0,0,3,0,0,0,1,8,6,7,6,6,0,0,6,0,8,0,0,0,0,7,0,0,0,0,0,0,0,0,0,0,0,0,0,0,0,0,0,0,0,0,0,0,0,0],"split_type":[0,0,0,0,0,0,0,0,0,0,0,0,0,0,0,0,0,0,0,0,0,0,0,0,0,0,0,0,0,0,0,0,0,0,0,0,0,0,0,0,0,0,0,0,0,0,0,0,0,0,0,0,0,0,0,0,0,0,0,0,0,0,0,0,0,0,0,0,0],"sum_hessian":[8.75E3,7.757E3,9.93E2,7.126E3,6.31E2,7.86E2,2.07E2,1.936E3,5.19E3,2.13E2,4.18E2,2.2E2,5.66E2,1.38E2,6.9E1,8.21E2,1.115E3,4.316E3,8.74E2,1.8E2,3.3E1,3.36E2,8.2E1,1.7E2,5E1,3.09E2,2.57E2,9E0,1.29E2,1.04E2,7.17E2,1.047E3,6.8E1,2.826E3,1.49E3,4.97E2,3.77E2,1.39E2,4.1E1,1.57E2,1.79E2,7.5E1,7E0,1E0,3.08E2,3E0,2.54E2,9.3E1,1.1E1,6.26E2,9.1E1,8.61E2,1.86E2,4.3E1,2.5E1,1.08E2,2.718E3,3.86E2,1.104E3,1.36E2,3.61E2,2.69E2,1.08E2,4.5E1,9.4E1,1.45E2,1.2E1,2.66E2,4.2E1],"tree_param":{"num_deleted":"0","num_feature":"13","num_nodes":"69","size_leaf_vector":"0"}},{"base_weights":[-8.985246E-2,-9.488437E-2,-7.185245E-2,-8.473492E-2,-1.0334312E-1,-7.60268E-2,-5.6476977E-2,-6.599158E-2,-8.760954E-2,-1.0714942E-1,-8.2440436E-2,-8.0816135E-2,-6.3994005E-2,-5.8427192E-2,-1.2239181E-2,-2.3329994E-2,-5.0143752E-2,-7.008403E-2,-9.16465E-2,-8.40616E-2,-1.1299832E-1,-7.2553106E-2,-1.13737956E-1,-6.5378934E-2,-8.632341E-2,-1.5361901E-2,-6.720008E-2,-5.9979375E-2,-4.207864E-2,-1.4558017E-2,-5.2139655E-2,-8.294896E-2,-5.6841876E-2,-9.5589854E-2,-8.140505E-2,-8.924003E-2,-5.3787585E-2,-1.1769008E-1,-9.4613165E-2,-5.08339E-2,-7.657259E-2,-3.7863757E-2,-2.7475672E-2,-6.9689974E-2,-4.6836518E-2,-9.0176694E-2,-7.873819E-2,-4.6357304E-2,-6.934344E-2,-6.1779033E-2,-1.540292E-2,-3.6489265E-3,-1.2780232E-2,-7.920092E-3,3.8298192E-3,-1.2817479E-2,-1.6639903E-2,-2.8655488E-2,-2.3558153E-2,-1.2898678E-2,-1.8562745E-2,-2.6527692E-2,-2.9911175E-2,-2.1507688E-2,-3.1398732E-2,-3.490638E-2,-2.5439987E-2,-1.2886207E-2,-2.0008123E-2,-2.8045481E-2,-3.6012117E-2,-2.9704137E-2,-2.679594E-2,-1.7127788E-2,-1.1486446E-2,-2.0433147E-2,-2.6967889E-2,-8.901665E-3,-2.1188824E-2,-7.7530276E-3,-1.4920964E-2,-2.7342465E-2,-1.8521888E-2,-1.5657695E-2,-2.3927616E-2,-3.060101E-3,-1.4136221E-2,-1.7740678E-2,-2.1298252E-2,-1.4423637E-2,-1.8805912E-2],"categories":[],"categories_nodes":[],"categories_segments":[],"categories_sizes":[],"default_left":[0,0,0,0,0,0,0,0,0,0,0,0,0,0,0,0,0,0,0,0,0,0,0,0,0,0,0,0,0,0,0,0,0,0,0,0,0,0,0,0,0,0,0,0,0,0,0,0,0,0,0,0,0,0,0,0,0,0,0,0,0,0,0,0,0,0,0,0,0,0,0,0,0,0,0,0,0,0,0,0,0,0,0,0,0,0,0,0,0,0,0],"id":4,"left_children":[1,3,5,7,9,11,13,15,17,19,21,23,25,27,-1,-1,29,31,33,35,37,39,41,43,45,-1,47,49,51,53,55,57,59,61,63,65,67,69,71,73,75,-1,-1,77,79,81,83,85,87,89,-1,-1,-1,-1,-1,-1,-1,-1,-1,-1,-1,-1,-1,-1,-1,-1,-1,-1,-1,-1,-1,-1,-1,-1,-1,-1,-1,-1,-1,-1,-1,-1,-1,-1,-1,-1,-1,-1,-1,-1,-1],"loss_changes":[7.8580475E-1,5.781212E-1,1.1868E-1,1.6194725E-1,2.874565E-1,8.150196E-2,1.0245323E-2,7.4103E-2,1.8432045E-1,4.154625E-1,1.7060947E-1,8.549404E-2,1.4311075E-2,6.7384243E-3,0E0,0E0,1.2096554E-2,8.199811E-2,8.0581665E-2,9.5534325E-2,2.0520401E-1,3.4694195E-2,2.6299596E-2,1.9598126E-2,1.590252E-2,0E0,1.2108445E-2,1.972556E-3,2.8543174E-5,3.8964043E-3,2.9859245E-3,6.727338E-3,1.50437355E-2,3.757572E-2,1.3142109E-1,5.574608E-2,1.055792E-2,1.0221672E-1,3.1528473E-3,3.4675002E-3,3.569579E-2,0E0,0E0,6.550908E-3,2.184838E-3,8.503437E-3,3.2330751E-3,4.8547238E-4,1.0086298E-3,3.3009052E-4,0E0,0E0,0E0,0E0,0E0,0E0,0E0,0E0,0E0,0E0,0E0,0E0,0E0,0E0,0E0,0E0,0E0,0E0,0E0,0E0,0E0,0E0,0E0,0E0,0E0,0E0,0E0,0E0,0E0,0E0,0E0,0E0,0E0,0E0,0E0,0E0,0E0,0E0,0E0,0E0,0E0],"parents":[2147483647,0,0,1,1,2,2,3,3,4,4,5,5,6,6,7,7,8,8,9,9,10,10,11,11,12,12,13,13,16,16,17,17,18,18,19,19,20,20,21,21,22,22,23,23,24,24,26,26,27,27,28,28,29,29,30,30,31,31,32,32,33,33,34,34,35,35,36,36,37,37,38,38,39,39,40,40,43,43,44,44,45,45,46,46,47,47,48,48,49,49],"right_children":[2,4,6,8,10,12,14,16,18,20,22,24,26,28,-1,-1,30,32,34,36,38,40,42,44,46,-1,48,50,52,54,56,58,60,62,64,66,68,70,72,74,76,-1,-1,78,80,82,84,86,88,90,-1,-1,-1,-1,-1,-1,-1,-1,-1,-1,-1,-1,-1,-1,-1,-1,-1,-1,-1,-1,-1,-1,-1,-1,-1,-1,-1,-1,-1,-1,-1,-1,-1,-1,-1,-1,-1,-1,-1,-1,-1],"split_conditions":[7.240292E-2,-3.453963E-2,1.9961421E-1,-1.4893694E-1,7.240292E-2,1.5331115E-1,2.4920739E-1,7.37047E-2,-1.3704091E-1,-7.007268E-2,-3.1234235E-2,-8.899875E-2,-1.3704091E-1,2.6918763E-1,-1.2239181E-2,-2.3329994E-2,-2.3441447E-1,7.668406E-2,7.240292E-2,1.875811E-1,4.4680893E-2,-1.3429873E-1,4.8515152E-2,2.4124481E-1,1.3981761E-1,-1.5361901E-2,-1.5481369E-1,2.577997E-1,2.042347E-1,-1.045924E-1,-1.5144776E-1,-7.5124046E-3,-1.3429873E-1,-9.458342E-2,2.1521095E-2,-4.722523E-2,-1.5144776E-1,-9.31686E-2,5.9815988E-2,2.3537266E-1,-7.294112E-2,-3.7863757E-2,-2.7475672E-2,-1.21858895E-1,-1.279668E-1,2.2024517E-1,5.4014185E-3,4.46443E-2,-1.1609301E-1,3.9481085E-2,-1.540292E-2,-3.6489265E-3,-1.2780232E-2,-7.920092E-3,3.8298192E-3,-1.2817479E-2,-1.6639903E-2,-2.8655488E-2,-2.3558153E-2,-1.2898678E-2,-1.8562745E-2,-2.6527692E-2,-2.9911175E-2,-2.1507688E-2,-3.1398732E-2,-3.490638E-2,-2.5439987E-2,-1.2886207E-2,-2.0008123E-2,-2.8045481E-2,-3.6012117E-2,-2.9704137E-2,-2.679594E-2,-1.7127788E-2,-1.1486446E-2,-2.0433147E-2,-2.6967889E-2,-8.901665E-3,-2.1188824E-2,-7.7530276E-3,-1.4920964E-2,-2.7342465E-2,-1.8521888E-2,-1.5657695E-2,-2.3927616E-2,-3.060101E-3,-1.4136221E-2,-1.7740678E-2,-2.1298252E-2,-1.4423637E-2,-1.8805912E-2],"split_indices":[0,0,0,7,6,6,6,5,6,6,7,5,8,7,0,0,7,8,5,7,0,7,0,7,0,0,7,0,0,9,0,8,5,6,8,8,5,7,0,5,8,0,0,6,6,8,6,3,8,6,0,0,0,0,0,0,0,0,0,0,0,0,0,0,0,0,0,0,0,0,0,0,0,0,0,0,0,0,0,0,0,0,0,0,0,0,0,0,0,0,0],"split_type":[0,0,0,0,0,0,0,0,0,0,0,0,0,0,0,0,0,0,0,0,0,0,0,0,0,0,0,0,0,0,0,0,0,0,0,0,0,0,0,0,0,0,0,0,0,0,0,0,0,0,0,0,0,0,0,0,0,0,0,0,0,0,0,0,0,0,0,0,0,0,0,0,0,0,0,0,0,0,0,0,0,0,0,0,0,0,0,0,0,0,0],"sum_hessian":[8.75E3,6.835E3,1.915E3,3.112E3,3.723E3,1.503E3,4.12E2,4.17E2,2.695E3,3.146E3,5.77E2,1.071E3,4.32E2,3.64E2,4.8E1,2.37E2,1.8E2,5.08E2,2.187E3,6.39E2,2.507E3,4.41E2,1.36E2,2.85E2,7.86E2,9E1,3.42E2,3.3E2,3.4E1,1E1,1.7E2,2.55E2,2.53E2,1.573E3,6.14E2,5.44E2,9.5E1,1.993E3,5.14E2,7.1E1,3.7E2,8.4E1,5.2E1,2.29E2,5.6E1,5.14E2,2.72E2,3.4E1,3.08E2,2.68E2,6.2E1,1E0,3.3E1,7E0,3E0,4.8E1,1.22E2,6.1E1,1.94E2,7E1,1.83E2,5.82E2,9.91E2,4.36E2,1.78E2,7.3E1,4.71E2,5.4E1,4.1E1,1.8E2,1.813E3,2.71E2,2.43E2,4.5E1,2.6E1,2.3E2,1.4E2,6E0,2.23E2,8E0,4.8E1,4.95E2,1.9E1,1.2E1,2.6E2,1E0,3.3E1,4.8E1,2.6E2,2E1,2.48E2],"tree_param":{"num_deleted":"0","num_feature":"13","num_nodes":"91","size_leaf_vector":"0"}},{"base_weights":[-6.2998675E-2,-6.6536695E-2,-5.03511E-2,-5.335461E-2,-6.981945E-2,-5.4881796E-2,-4.313417E-2,-6.0916614E-2,-4.295776E-2,-5.75704E-2,-7.514259E-2,-5.8818895E-2,-4.245186E-2,-4.675569E-2,-3.78558E-2,-2.1589288E-2,-5.785742E-2,-3.6603346E-2,-4.7986478E-2,-7.642302E-2,-5.3256508E-2,-7.803019E-2,-6.40088E-2,-4.0084798E-2,-6.1888643E-2,4.326284E-3,-4.3130722E-2,-3.2139465E-2,-4.8027344E-2,-3.947903E-2,-8.670574E-3,-1.2344862E-2,-5.8842134E-2,-3.9763566E-2,-2.842908E-2,-4.2107124E-2,-5.2382465E-2,-7.9738736E-2,-5.9411623E-2,-4.4536524E-2,-5.9843473E-2,-6.839525E-2,-8.263918E-2,-5.483376E-2,-6.656858E-2,-2.2268316E-2,-4.3572478E-2,-6.422115E-2,-5.3576108E-2,4.502496E-3,-2.3393543E-3,-3.837151E-2,-4.7005456E-2,-3.2551806E-2,-2.532439E-3,-4.9666516E-2,-3.7711676E-2,-3.1138387E-2,-4.1141912E-2,-1.5362374E-2,-1.849886E-2,-9.2255E-3,-1.3031198E-2,-3.3480555E-3,-8.846405E-3,-6.188562E-3,-1.4160485E-2,-2.3971431E-2,-1.4405068E-2,-2.1280948E-2,-2.5581941E-2,-1.5401449E-2,-2.694031E-2,-6.719253E-3,-1.4175116E-2,-1.7179383E-2,-2.389758E-2,-1.1105331E-2,-2.086469E-2,-2.0605806E-2,-2.5594294E-2,-2.0177614E-2,-1.5223484E-2,-2.02499E-2,-1.2590917E-2,-1.9923658E-3,-7.032109E-3,-5.2193482E-3,-1.3408801E-2,-1.4727472E-2,-1.9659339E-2,-1.4918539E-2,-1.884991E-2,-3.6950149E-3,-1.1790093E-2,-1.3292208E-2,-2.236985E-2,-2.780541E-3,-9.882333E-3,-1.0206189E-2,-1.5114072E-2,-4.7465293E-3,-1.1460652E-2,-2.6233213E-3,-9.430535E-3,-1.303058E-2,-1.0760753E-2],"categories":[],"categories_nodes":[],"categories_segments":[],"categories_sizes":[],"default_left":[0,0,0,0,0,0,0,0,0,0,0,0,0,0,0,0,0,0,0,0,0,0,0,0,0,0,0,0,0,0,0,0,0,0,0,0,0,0,0,0,0,0,0,0,0,0,0,0,0,0,0,0,0,0,0,0,0,0,0,0,0,0,0,0,0,0,0,0,0,0,0,0,0,0,0,0,0,0,0,0,0,0,0,0,0,0,0,0,0,0,0,0,0,0,0,0,0,0,0,0,0,0,0,0,0,0,0],"id":5,"left_children":[1,3,5,7,9,11,13,15,17,19,21,23,25,27,29,-1,31,33,35,37,39,41,43,45,47,49,51,53,55,57,-1,-1,59,61,63,65,67,69,71,73,75,77,79,81,83,85,87,89,91,-1,-1,93,95,97,-1,99,101,103,105,-1,-1,-1,-1,-1,-1,-1,-1,-1,-1,-1,-1,-1,-1,-1,-1,-1,-1,-1,-1,-1,-1,-1,-1,-1,-1,-1,-1,-1,-1,-1,-1,-1,-1,-1,-1,-1,-1,-1,-1,-1,-1,-1,-1,-1,-1,-1,-1],"loss_changes":[3.88237E-1,2.920475E-1,6.031418E-2,1.0485768E-1,3.5227013E-1,5.4956198E-2,1.2452126E-2,2.2502184E-2,1.674521E-2,1.3101578E-1,1.1746597E-1,4.8644543E-2,9.268761E-3,6.578803E-3,3.3355057E-3,0E0,7.828951E-3,5.586028E-3,6.064892E-3,1.2579083E-2,7.516384E-2,1.2845802E-1,1.4903784E-2,6.9834143E-3,1.1333942E-2,7.6458463E-4,3.3966303E-3,9.65409E-5,4.89074E-3,2.2972226E-3,0E0,0E0,9.4611645E-3,4.789114E-3,1.0606945E-3,1.4564276E-2,1.7670155E-2,6.3244104E-3,8.638546E-3,3.4209967E-2,3.4734726E-2,3.301096E-2,7.021141E-2,5.6299567E-3,1.1206627E-2,2.6558805E-4,2.3395866E-3,8.476019E-3,3.0372143E-3,0E0,0E0,2.7102977E-3,7.924765E-3,3.0063093E-5,0E0,2.1049976E-3,2.9049814E-5,3.7435442E-5,1.0055602E-3,0E0,0E0,0E0,0E0,0E0,0E0,0E0,0E0,0E0,0E0,0E0,0E0,0E0,0E0,0E0,0E0,0E0,0E0,0E0,0E0,0E0,0E0,0E0,0E0,0E0,0E0,0E0,0E0,0E0,0E0,0E0,0E0,0E0,0E0,0E0,0E0,0E0,0E0,0E0,0E0,0E0,0E0,0E0,0E0,0E0,0E0,0E0,0E0],"parents":[2147483647,0,0,1,1,2,2,3,3,4,4,5,5,6,6,7,7,8,8,9,9,10,10,11,11,12,12,13,13,14,14,16,16,17,17,18,18,19,19,20,20,21,21,22,22,23,23,24,24,25,25,26,26,27,27,28,28,29,29,32,32,33,33,34,34,35,35,36,36,37,37,38,38,39,39,40,40,41,41,42,42,43,43,44,44,45,45,46,46,47,47,48,48,51,51,52,52,53,53,55,55,56,56,57,57,58,58],"right_children":[2,4,6,8,10,12,14,16,18,20,22,24,26,28,30,-1,32,34,36,38,40,42,44,46,48,50,52,54,56,58,-1,-1,60,62,64,66,68,70,72,74,76,78,80,82,84,86,88,90,92,-1,-1,94,96,98,-1,100,102,104,106,-1,-1,-1,-1,-1,-1,-1,-1,-1,-1,-1,-1,-1,-1,-1,-1,-1,-1,-1,-1,-1,-1,-1,-1,-1,-1,-1,-1,-1,-1,-1,-1,-1,-1,-1,-1,-1,-1,-1,-1,-1,-1,-1,-1,-1,-1,-1,-1],"split_conditions":[7.238389E-2,-1.0049193E-1,1.6311117E-1,6.644523E-2,-8.093665E-2,9.3790956E-2,2.1548384E-1,-4.8473354E-2,-1.4405742E-1,-8.67231E-3,4.248138E-2,-1.21858895E-1,-1.0300497E-1,-1.3704091E-1,6.447725E-2,-2.1589288E-2,-2.0423356E-1,2.1548384E-1,-6.6297725E-2,-2.4358674E-3,-9.31686E-2,-3.45541E-2,-7.294112E-2,-1.23553224E-1,1.6311117E-1,-1.3704091E-1,-7.159956E-2,2.6918763E-1,7.870314E-2,-1.08287275E-1,-8.670574E-3,-1.2344862E-2,-1.2981343E-1,-1.413463E-1,-1.3692251E-1,-1.08287275E-1,9.511704E-4,-8.899875E-2,4.9605224E-2,-2.0423356E-1,6.926164E-2,-1.8917267E-1,-6.0138106E-2,4.9605224E-2,1.9961421E-1,-2.9220305E-2,7.522572E-2,-1.0466782E-1,-1.946558E-2,4.502496E-3,-2.3393543E-3,1.0678823E-1,-3.453963E-2,7.522572E-2,-2.532439E-3,-1.6253974E-1,8.2629554E-2,1.0758051E-2,2.577997E-1,-1.5362374E-2,-1.849886E-2,-9.2255E-3,-1.3031198E-2,-3.3480555E-3,-8.846405E-3,-6.188562E-3,-1.4160485E-2,-2.3971431E-2,-1.4405068E-2,-2.1280948E-2,-2.5581941E-2,-1.5401449E-2,-2.694031E-2,-6.719253E-3,-1.4175116E-2,-1.7179383E-2,-2.389758E-2,-1.1105331E-2,-2.086469E-2,-2.0605806E-2,-2.5594294E-2,-2.0177614E-2,-1.5223484E-2,-2.02499E-2,-1.2590917E-2,-1.9923658E-3,-7.032109E-3,-5.2193482E-3,-1.3408801E-2,-1.4727472E-2,-1.9659339E-2,-1.4918539E-2,-1.884991E-2,-3.6950149E-3,-1.1790093E-2,-1.3292208E-2,-2.236985E-2,-2.780541E-3,-9.882333E-3,-1.0206189E-2,-1.5114072E-2,-4.7465293E-3,-1.1460652E-2,-2.6233213E-3,-9.430535E-3,-1.303058E-2,-1.0760753E-2],"split_indices":[3,7,0,5,6,5,0,5,7,8,0,5,11,5,5,0,2,5,12,0,5,1,8,6,7,0,7,4,5,5,0,0,8,2,3,8,6,0,5,6,5,0,7,6,7,1,3,8,5,0,0,6,8,3,0,8,12,6,0,0,0,0,0,0,0,0,0,0,0,0,0,0,0,0,0,0,0,0,0,0,0,0,0,0,0,0,0,0,0,0,0,0,0,0,0,0,0,0,0,0,0,0,0,0,0,0,0],"split_type":[0,0,0,0,0,0,0,0,0,0,0,0,0,0,0,0,0,0,0,0,0,0,0,0,0,0,0,0,0,0,0,0,0,0,0,0,0,0,0,0,0,0,0,0,0,0,0,0,0,0,0,0,0,0,0,0,0,0,0,0,0,0,0,0,0,0,0,0,0,0,0,0,0,0,0,0,0,0,0,0,0,0,0,0,0,0,0,0,0,0,0,0,0,0,0,0,0,0,0,0,0,0,0,0,0,0,0],"sum_hessian":[8.75E3,6.834E3,1.916E3,1.366E3,5.468E3,1.173E3,7.43E2,7.88E2,5.78E2,1.66E3,3.808E3,8.88E2,2.85E2,4.36E2,3.07E2,1.66E2,6.22E2,2.59E2,3.19E2,3.06E2,1.354E3,3.019E3,7.89E2,1.27E2,7.61E2,4E0,2.81E2,3.7E1,3.99E2,2.57E2,5E1,3.7E1,5.85E2,1.84E2,7.5E1,1.41E2,1.78E2,2.53E2,5.3E1,5.86E2,7.68E2,9.82E2,2.037E3,1.77E2,6.12E2,2.2E1,1.05E2,5.89E2,1.72E2,2E0,2E0,1.31E2,1.5E2,3.6E1,1E0,3.41E2,5.8E1,4.6E1,2.11E2,1.63E2,4.22E2,5.6E1,1.28E2,5E0,7E1,2.8E1,1.13E2,2.2E1,1.56E2,1.03E2,1.5E2,4.4E1,9E0,6.5E1,5.21E2,6.83E2,8.5E1,3.6E1,9.46E2,3.32E2,1.705E3,4E1,1.37E2,5.88E2,2.4E1,2E0,2E1,5E0,1E2,5E1,5.39E2,1.26E2,4.6E1,5E0,1.26E2,1.39E2,1.1E1,1E0,3.5E1,1.7E1,3.24E2,2E0,5.6E1,1E0,4.5E1,1.42E2,6.9E1],"tree_param":{"num_deleted":"0","num_feature":"13","num_nodes":"107","size_leaf_vector":"0"}},{"base_weights":[-4.4179585E-2,-4.6919562E-2,-3.59595E-2,-4.1586656E-2,-5.2029654E-2,-3.93426E-2,-3.0633375E-2,-3.4136195E-2,-4.45721E-2,-5.448239E-2,-3.8440954E-2,-4.169741E-2,-2.9925905E-2,-3.213011E-2,-2.3256212E-2,-2.055935E-2,-3.5207827E-2,-4.6489496E-2,-3.357914E-2,-5.8182597E-2,-4.0649865E-2,-4.18798E-2,-2.1510307E-2,-3.3535015E-2,-4.521165E-2,-3.7370775E-2,-2.7538572E-2,-2.4510141E-2,-3.404569E-2,-8.820047E-3,-2.4127474E-2,-2.4276847E-2,-5.683775E-4,-3.6716405E-2,-2.8158002E-2,-4.7822405E-2,-2.9449748E-2,-2.4098746E-2,-4.6423968E-2,-1.3995025E-2,-5.8982555E-2,-3.1961687E-2,-6.0320348E-2,-3.819941E-2,-5.811274E-2,-2.396197E-2,-6.6648233E-3,-1.7433517E-2,-3.5356384E-2,-3.565506E-2,-4.605991E-2,-4.11896E-2,-2.2404559E-2,-2.998476E-2,-1.977272E-2,-2.9932424E-2,-2.1877663E-2,-3.5871837E-2,-2.9850256E-2,-3.3827748E-3,-4.0742294E-3,-2.8344302E-2,-2.1439994E-2,-5.300274E-3,-8.318754E-3,3.4222992E-3,-1.2313057E-3,-7.826485E-3,-1.1436319E-2,-6.1596627E-3,-9.827449E-3,-8.78752E-3,-1.4474102E-2,-7.1213753E-3,-1.2446481E-2,-8.50289E-3,-4.1169543E-3,-3.0846319E-3,-1.4707494E-2,4.391231E-3,-9.3230205E-3,-1.8733203E-2,-1.5382861E-2,-9.144742E-3,-1.756344E-2,-2.0494077E-2,-1.5854448E-2,-1.9013457E-2,-1.10896025E-2,-1.7554006E-2,-4.1500125E-3,-1.1983698E-2,-6.5284544E-3,-3.5043064E-5,-3.086889E-3,-8.201659E-4,-6.114165E-3,-1.1121655E-2,-7.464587E-3,-1.0863049E-2,-3.6338682E-3,-1.2945569E-2,-1.4675171E-2,-6.472927E-3,-1.3183422E-2,-7.3416843E-3,9.815276E-4,-1.3598983E-2,-8.485392E-3,-6.3972403E-3,-1.8429548E-4,-2.9900598E-3,-9.188781E-3,-6.8474053E-3,-4.7399793E-3,-7.610258E-3,-1.0994915E-2,-8.980213E-3,-2.2656084E-3,-1.7040935E-3,2.4245978E-4,-8.852469E-3,-3.5203565E-3,-7.330522E-4,-6.4884294E-3],"categories":[],"categories_nodes":[],"categories_segments":[],"categories_sizes":[],"default_left":[0,0,0,0,0,0,0,0,0,0,0,0,0,0,0,0,0,0,0,0,0,0,0,0,0,0,0,0,0,0,0,0,0,0,0,0,0,0,0,0,0,0,0,0,0,0,0,0,0,0,0,0,0,0,0,0,0,0,0,0,0,0,0,0,0,0,0,0,0,0,0,0,0,0,0,0,0,0,0,0,0,0,0,0,0,0,0,0,0,0,0,0,0,0,0,0,0,0,0,0,0,0,0,0,0,0,0,0,0,0,0,0,0,0,0,0,0,0,0,0,0,0,0,0,0],"id":6,"left_children":[1,3,5,7,9,11,13,15,17,19,21,23,25,27,29,31,33,35,37,39,41,43,45,47,49,51,53,55,57,59,61,63,65,67,69,71,73,75,77,79,81,83,85,87,89,91,93,95,97,99,101,103,105,107,109,111,113,115,117,119,-1,121,123,-1,-1,-1,-1,-1,-1,-1,-1,-1,-1,-1,-1,-1,-1,-1,-1,-1,-1,-1,-1,-1,-1,-1,-1,-1,-1,-1,-1,-1,-1,-1,-1,-1,-1,-1,-1,-1,-1,-1,-1,-1,-1,-1,-1,-1,-1,-1,-1,-1,-1,-1,-1,-1,-1,-1,-1,-1,-1,-1,-1,-1,-1],"loss_changes":[1.9540787E-1,1.7660618E-1,3.829193E-2,6.998968E-2,1.094265E-1,2.8399706E-2,8.7044835E-3,1.271987E-2,4.6749115E-2,1.4258575E-1,2.908343E-2,2.9090285E-2,3.787443E-3,9.514511E-3,1.6486868E-3,5.188348E-3,8.059144E-3,4.2858124E-2,4.0771455E-2,7.807255E-2,1.0078341E-1,2.3290575E-2,3.0795522E-3,8.9147985E-3,4.380822E-3,2.677828E-3,3.3774227E-3,1.4291555E-3,3.250301E-3,2.1291245E-4,9.675324E-4,8.563213E-4,5.549848E-4,9.470642E-3,4.764773E-3,1.2796402E-2,8.916877E-3,8.418284E-3,1.3126701E-2,2.050763E-2,5.5270195E-2,1.4691383E-2,7.319808E-3,8.563578E-3,5.5643916E-4,1.8037483E-3,3.31092E-4,1.4604917E-3,4.307449E-3,4.10825E-4,3.5309792E-3,1.6996488E-3,8.764388E-4,2.8137863E-3,1.5622005E-3,3.2080337E-4,2.2645667E-4,2.2406578E-3,1.0462105E-4,6.2364335E-5,0E0,6.396957E-4,2.6517734E-4,0E0,0E0,0E0,0E0,0E0,0E0,0E0,0E0,0E0,0E0,0E0,0E0,0E0,0E0,0E0,0E0,0E0,0E0,0E0,0E0,0E0,0E0,0E0,0E0,0E0,0E0,0E0,0E0,0E0,0E0,0E0,0E0,0E0,0E0,0E0,0E0,0E0,0E0,0E0,0E0,0E0,0E0,0E0,0E0,0E0,0E0,0E0,0E0,0E0,0E0,0E0,0E0,0E0,0E0,0E0,0E0,0E0,0E0,0E0,0E0,0E0,0E0],"parents":[2147483647,0,0,1,1,2,2,3,3,4,4,5,5,6,6,7,7,8,8,9,9,10,10,11,11,12,12,13,13,14,14,15,15,16,16,17,17,18,18,19,19,20,20,21,21,22,22,23,23,24,24,25,25,26,26,27,27,28,28,29,29,30,30,31,31,32,32,33,33,34,34,35,35,36,36,37,37,38,38,39,39,40,40,41,41,42,42,43,43,44,44,45,45,46,46,47,47,48,48,49,49,50,50,51,51,52,52,53,53,54,54,55,55,56,56,57,57,58,58,59,59,61,61,62,62],"right_children":[2,4,6,8,10,12,14,16,18,20,22,24,26,28,30,32,34,36,38,40,42,44,46,48,50,52,54,56,58,60,62,64,66,68,70,72,74,76,78,80,82,84,86,88,90,92,94,96,98,100,102,104,106,108,110,112,114,116,118,120,-1,122,124,-1,-1,-1,-1,-1,-1,-1,-1,-1,-1,-1,-1,-1,-1,-1,-1,-1,-1,-1,-1,-1,-1,-1,-1,-1,-1,-1,-1,-1,-1,-1,-1,-1,-1,-1,-1,-1,-1,-1,-1,-1,-1,-1,-1,-1,-1,-1,-1,-1,-1,-1,-1,-1,-1,-1,-1,-1,-1,-1,-1,-1,-1],"split_conditions":[6.2075622E-2,-3.1234235E-2,1.5331115E-1,-1.24543644E-1,7.520145E-2,1.0940281E-1,2.0972541E-1,-2.1499895E-1,3.5251833E-2,6.447725E-2,2.3537266E-1,0E0,6.447725E-2,-1.0711125E-1,-5.533618E-2,-5.5288658E-2,1.0085377E-1,1.9961421E-1,-3.871312E-2,-2.0423356E-1,-3.6126826E-2,9.511704E-4,2.3537266E-1,-1.08287275E-1,-1.0466782E-1,1.3026279E-1,2.042347E-1,1.9961421E-1,2.1548384E-1,1.5938129E-1,2.9623395E-2,8.1813E-3,5.7472873E-2,-1.8362255E-1,-6.9211386E-2,-1.6569385E-1,-1.6345551E-2,-4.97315E-2,-1.6253974E-1,-9.31686E-2,2.8602805E-2,3.0128164E-3,3.0849803E-2,-2.0423356E-1,2.2803237E-1,-1.1609301E-1,-1.6253974E-1,-1.4149883E-1,2.3537266E-1,-1.0603239E-1,3.0128164E-3,1.5639234E-1,1.5639234E-1,3.0849803E-2,-9.165909E-2,1.2317613E-1,6.2075622E-2,-1.4405742E-1,3.0591294E-1,1.5639234E-1,-4.0742294E-3,1.791347E-1,-5.7957698E-2,-5.300274E-3,-8.318754E-3,3.4222992E-3,-1.2313057E-3,-7.826485E-3,-1.1436319E-2,-6.1596627E-3,-9.827449E-3,-8.78752E-3,-1.4474102E-2,-7.1213753E-3,-1.2446481E-2,-8.50289E-3,-4.1169543E-3,-3.0846319E-3,-1.4707494E-2,4.391231E-3,-9.3230205E-3,-1.8733203E-2,-1.5382861E-2,-9.144742E-3,-1.756344E-2,-2.0494077E-2,-1.5854448E-2,-1.9013457E-2,-1.10896025E-2,-1.7554006E-2,-4.1500125E-3,-1.1983698E-2,-6.5284544E-3,-3.5043064E-5,-3.086889E-3,-8.201659E-4,-6.114165E-3,-1.1121655E-2,-7.464587E-3,-1.0863049E-2,-3.6338682E-3,-1.2945569E-2,-1.4675171E-2,-6.472927E-3,-1.3183422E-2,-7.3416843E-3,9.815276E-4,-1.3598983E-2,-8.485392E-3,-6.3972403E-3,-1.8429548E-4,-2.9900598E-3,-9.188781E-3,-6.8474053E-3,-4.7399793E-3,-7.610258E-3,-1.0994915E-2,-8.980213E-3,-2.2656084E-3,-1.7040935E-3,2.4245978E-4,-8.852469E-3,-3.5203565E-3,-7.330522E-4,-6.4884294E-3],"split_indices":[0,0,0,0,7,5,6,0,6,6,8,6,1,5,7,1,8,8,8,6,7,5,7,6,8,12,5,7,0,0,7,8,5,7,5,8,5,0,7,5,7,8,0,5,8,4,6,6,7,8,5,6,11,4,7,9,6,8,2,0,0,5,1,0,0,0,0,0,0,0,0,0,0,0,0,0,0,0,0,0,0,0,0,0,0,0,0,0,0,0,0,0,0,0,0,0,0,0,0,0,0,0,0,0,0,0,0,0,0,0,0,0,0,0,0,0,0,0,0,0,0,0,0,0,0],"split_type":[0,0,0,0,0,0,0,0,0,0,0,0,0,0,0,0,0,0,0,0,0,0,0,0,0,0,0,0,0,0,0,0,0,0,0,0,0,0,0,0,0,0,0,0,0,0,0,0,0,0,0,0,0,0,0,0,0,0,0,0,0,0,0,0,0,0,0,0,0,0,0,0,0,0,0,0,0,0,0,0,0,0,0,0,0,0,0,0,0,0,0,0,0,0,0,0,0,0,0,0,0,0,0,0,0,0,0,0,0,0,0,0,0,0,0,0,0,0,0,0,0,0,0,0,0],"sum_hessian":[8.75E3,6.559E3,2.191E3,3.214E3,3.345E3,1.336E3,8.55E2,9.23E2,2.291E3,2.831E3,5.14E2,1.066E3,2.7E2,7.08E2,1.47E2,6.9E1,8.54E2,1.948E3,3.43E2,2.231E3,6E2,4.26E2,8.8E1,3.24E2,7.42E2,6.2E1,2.08E2,1.45E2,5.63E2,9E0,1.38E2,5.8E1,1.1E1,7E2,1.54E2,1.805E3,1.43E2,1.99E2,1.44E2,4E1,2.191E3,4.18E2,1.82E2,3.5E2,7.6E1,7.5E1,1.3E1,3.4E1,2.9E2,6.4E1,6.78E2,4.8E1,1.4E1,1.56E2,5.2E1,4.4E1,1.01E2,3.87E2,1.76E2,5E0,4E0,5E1,8.8E1,2.2E1,3.6E1,2E0,9E0,8.4E1,6.16E2,6E1,9.4E1,4.2E1,1.763E3,9.9E1,4.4E1,1.4E2,5.9E1,1E1,1.34E2,1.5E1,2.5E1,1.507E3,6.84E2,3.98E2,2E1,8.4E1,9.8E1,1.4E1,3.36E2,7.5E1,1E0,7E0,6.8E1,5E0,8E0,6E0,2.8E1,2.47E2,4.3E1,6.2E1,2E0,3.44E2,3.34E2,7E0,4.1E1,1.3E1,1E0,1.3E1,1.43E2,4.8E1,4E0,2E0,4.2E1,8.5E1,1.6E1,2.9E1,3.58E2,1.75E2,1E0,3E0,2E0,4.6E1,4E0,1E0,8.7E1],"tree_param":{"num_deleted":"0","num_feature":"13","num_nodes":"125","size_leaf_vector":"0"}},{"base_weights":[-3.0982448E-2,-3.2941468E-2,-2.5221772E-2,-2.7523134E-2,-3.5519954E-2,-9.676677E-3,-2.5804551E-2,-2.1947628E-2,-2.9628776E-2,-2.643961E-2,-3.7292004E-2,-3.470022E-3,-1.3785853E-2,-2.7891615E-2,-2.0756021E-2,-1.8360415E-2,-2.4376106E-2,-3.1127488E-2,-2.103549E-2,-4.243358E-2,-2.0009572E-2,-3.9827723E-2,-2.8559078E-2,-2.4865728E-2,-5.973496E-4,-5.9754443E-3,-1.1908133E-2,-2.5070043E-2,-3.1389672E-2,-2.2505302E-2,-1.8206444E-2,-2.0784114E-2,-1.3640688E-2,-1.6290186E-2,-2.6096094E-2,-3.3832163E-2,-2.5966965E-2,-1.7828811E-2,-4.4484645E-2,-2.8962E-2,-4.6428166E-2,-1.728957E-2,-2.7773717E-2,-4.2069014E-2,-3.293974E-2,-2.4484914E-2,-4.0801063E-2,-8.478523E-3,-2.2016533E-3,-2.958525E-3,1.563564E-3,-3.665128E-3,-1.3254982E-2,-2.839173E-2,-2.2255993E-2,-3.1776432E-2,6.321404E-4,-1.796335E-4,-2.2626149E-2,-2.582113E-2,-1.6996376E-2,-1.3245093E-3,-6.5268804E-3,-2.228062E-3,-7.051815E-3,-6.6472203E-3,-2.5942004E-3,-5.8068894E-3,-8.520255E-3,-1.0537508E-2,-6.289638E-3,-5.819625E-3,-1.0779511E-2,-5.6013963E-3,1.14902716E-4,-1.3599967E-2,-3.3632433E-3,-4.1422847E-4,-9.598769E-3,-1.4467882E-2,-8.236762E-3,-3.7318522E-3,-6.528654E-3,-1.0150008E-2,-3.3410976E-3,-4.045249E-3,-1.285596E-2,-8.253145E-3,-1.0911966E-2,-6.129276E-3,-1.0040924E-2,-1.3115909E-2,-6.1743716E-3,1.404186E-3,-1.8104671E-3,3.8772228E-4,-1.7719872E-3,3.5284908E-4,-4.1183797E-3,-8.026392E-3,-1.0930836E-2,-1.1454201E-3,-6.759561E-3,-7.4282787E-3,-1.0086137E-2,5.167291E-3,-1.9707277E-3,-1.3524503E-3,1.2716153E-3,-8.185706E-3,-6.521379E-3,-4.436552E-3,-8.760401E-3,-4.444376E-3,-5.8164946E-3],"categories":[],"categories_nodes":[],"categories_segments":[],"categories_sizes":[],"default_left":[0,0,0,0,0,0,0,0,0,0,0,0,0,0,0,0,0,0,0,0,0,0,0,0,0,0,0,0,0,0,0,0,0,0,0,0,0,0,0,0,0,0,0,0,0,0,0,0,0,0,0,0,0,0,0,0,0,0,0,0,0,0,0,0,0,0,0,0,0,0,0,0,0,0,0,0,0,0,0,0,0,0,0,0,0,0,0,0,0,0,0,0,0,0,0,0,0,0,0,0,0,0,0,0,0,0,0,0,0,0,0,0,0,0,0],"id":7,"left_children":[1,3,5,7,9,11,13,15,17,19,21,23,25,27,29,31,33,35,37,39,41,43,45,47,49,-1,51,53,55,57,59,61,63,65,67,69,71,73,75,77,79,81,83,85,87,89,91,-1,-1,-1,93,95,97,99,101,103,105,107,109,111,113,-1,-1,-1,-1,-1,-1,-1,-1,-1,-1,-1,-1,-1,-1,-1,-1,-1,-1,-1,-1,-1,-1,-1,-1,-1,-1,-1,-1,-1,-1,-1,-1,-1,-1,-1,-1,-1,-1,-1,-1,-1,-1,-1,-1,-1,-1,-1,-1,-1,-1,-1,-1,-1,-1],"loss_changes":[9.792614E-2,9.021139E-2,1.9907236E-2,2.4109483E-2,7.011938E-2,2.0435099E-3,2.2011518E-2,4.622519E-3,1.9024014E-2,7.371122E-2,8.068609E-2,2.0748833E-3,3.2703392E-4,1.4156342E-2,2.4044514E-3,2.4504587E-3,4.359126E-3,1.7252445E-2,1.6501494E-2,9.794712E-3,1.04803145E-2,4.278183E-2,4.064727E-2,3.0677533E-5,6.360261E-4,0E0,3.9550243E-4,7.2479844E-3,8.342564E-3,9.941906E-4,1.975283E-3,2.386406E-3,4.9747527E-3,2.6334599E-3,3.830731E-3,1.3386607E-2,2.882117E-2,3.1372532E-3,2.5413185E-4,4.139751E-3,4.065931E-3,8.124262E-3,1.3031267E-2,4.772854E-2,1.2178719E-2,2.2227198E-2,1.1316121E-2,0E0,0E0,0E0,6.4405205E-4,8.541982E-5,2.482026E-4,4.06906E-3,2.258867E-3,7.7575445E-3,1.1885042E-3,7.648379E-5,9.2990696E-4,8.361023E-4,9.078458E-4,0E0,0E0,0E0,0E0,0E0,0E0,0E0,0E0,0E0,0E0,0E0,0E0,0E0,0E0,0E0,0E0,0E0,0E0,0E0,0E0,0E0,0E0,0E0,0E0,0E0,0E0,0E0,0E0,0E0,0E0,0E0,0E0,0E0,0E0,0E0,0E0,0E0,0E0,0E0,0E0,0E0,0E0,0E0,0E0,0E0,0E0,0E0,0E0,0E0,0E0,0E0,0E0,0E0,0E0],"parents":[2147483647,0,0,1,1,2,2,3,3,4,4,5,5,6,6,7,7,8,8,9,9,10,10,11,11,12,12,13,13,14,14,15,15,16,16,17,17,18,18,19,19,20,20,21,21,22,22,23,23,24,24,26,26,27,27,28,28,29,29,30,30,31,31,32,32,33,33,34,34,35,35,36,36,37,37,38,38,39,39,40,40,41,41,42,42,43,43,44,44,45,45,46,46,50,50,51,51,52,52,53,53,54,54,55,55,56,56,57,57,58,58,59,59,60,60],"right_children":[2,4,6,8,10,12,14,16,18,20,22,24,26,28,30,32,34,36,38,40,42,44,46,48,50,-1,52,54,56,58,60,62,64,66,68,70,72,74,76,78,80,82,84,86,88,90,92,-1,-1,-1,94,96,98,100,102,104,106,108,110,112,114,-1,-1,-1,-1,-1,-1,-1,-1,-1,-1,-1,-1,-1,-1,-1,-1,-1,-1,-1,-1,-1,-1,-1,-1,-1,-1,-1,-1,-1,-1,-1,-1,-1,-1,-1,-1,-1,-1,-1,-1,-1,-1,-1,-1,-1,-1,-1,-1,-1,-1,-1,-1,-1,-1],"split_conditions":[6.116002E-2,-7.438527E-2,-1.6908981E-1,-1.4632444E-1,-8.225434E-2,9.080875E-2,1.5331115E-1,-1.7896841E-1,3.7971844E-3,9.073665E-3,6.2075622E-2,8.264879E-2,2.2803237E-1,-2.4343546E-2,2.1548384E-1,-5.368326E-2,-7.159956E-2,4.5777403E-2,1.1630965E-2,-1.4149883E-1,-6.1686236E-2,2.5823994E-2,9.511704E-4,4.100506E-2,1.0758051E-2,-5.9754443E-3,2.4124481E-1,1.18158154E-1,2.2803237E-1,-5.1077243E-2,8.264879E-2,-6.31004E-2,3.5251833E-2,3.9481085E-2,-3.7281215E-2,-1.1965703E-2,-6.7475257E-3,-2.9041776E-2,-7.8387484E-2,-1.8362255E-1,8.612356E-2,-1.6345551E-2,2.9522972E-2,-1.8917267E-1,-6.0138106E-2,-3.6126826E-2,2.2803237E-1,-8.478523E-3,-2.2016533E-3,-2.958525E-3,6.650596E-2,-1.9721068E-1,8.264879E-2,9.83327E-2,-4.5495614E-2,-6.1686236E-2,-1.4405742E-1,-1.11179836E-1,6.761684E-2,-4.0962823E-2,-1.1780715E-1,-1.3245093E-3,-6.5268804E-3,-2.228062E-3,-7.051815E-3,-6.6472203E-3,-2.5942004E-3,-5.8068894E-3,-8.520255E-3,-1.0537508E-2,-6.289638E-3,-5.819625E-3,-1.0779511E-2,-5.6013963E-3,1.14902716E-4,-1.3599967E-2,-3.3632433E-3,-4.1422847E-4,-9.598769E-3,-1.4467882E-2,-8.236762E-3,-3.7318522E-3,-6.528654E-3,-1.0150008E-2,-3.3410976E-3,-4.045249E-3,-1.285596E-2,-8.253145E-3,-1.0911966E-2,-6.129276E-3,-1.0040924E-2,-1.3115909E-2,-6.1743716E-3,1.404186E-3,-1.8104671E-3,3.8772228E-4,-1.7719872E-3,3.5284908E-4,-4.1183797E-3,-8.026392E-3,-1.0930836E-2,-1.1454201E-3,-6.759561E-3,-7.4282787E-3,-1.0086137E-2,5.167291E-3,-1.9707277E-3,-1.3524503E-3,1.2716153E-3,-8.185706E-3,-6.521379E-3,-4.436552E-3,-8.760401E-3,-4.444376E-3,-5.8164946E-3],"split_indices":[4,0,5,0,7,3,6,0,7,6,7,7,7,5,6,7,8,5,5,7,8,0,5,0,0,0,7,0,5,3,2,8,6,5,5,7,8,4,0,8,5,0,12,6,8,6,8,0,0,0,3,5,4,0,6,8,11,0,1,2,8,0,0,0,0,0,0,0,0,0,0,0,0,0,0,0,0,0,0,0,0,0,0,0,0,0,0,0,0,0,0,0,0,0,0,0,0,0,0,0,0,0,0,0,0,0,0,0,0,0,0,0,0,0,0],"split_type":[0,0,0,0,0,0,0,0,0,0,0,0,0,0,0,0,0,0,0,0,0,0,0,0,0,0,0,0,0,0,0,0,0,0,0,0,0,0,0,0,0,0,0,0,0,0,0,0,0,0,0,0,0,0,0,0,0,0,0,0,0,0,0,0,0,0,0,0,0,0,0,0,0,0,0,0,0,0,0,0,0,0,0,0,0,0,0,0,0,0,0,0,0,0,0,0,0,0,0,0,0,0,0,0,0,0,0,0,0,0,0,0,0,0,0],"sum_hessian":[8.75E3,6.526E3,2.224E3,2.108E3,4.418E3,8.1E1,2.143E3,5.81E2,1.527E3,7.24E2,3.694E3,3.3E1,4.8E1,1.513E3,6.3E2,2.38E2,3.43E2,1.298E3,2.29E2,2.06E2,5.18E2,2.86E3,8.34E2,3E0,3E1,9E0,3.9E1,8.42E2,6.71E2,3.69E2,2.61E2,1.55E2,8.3E1,6.2E1,2.81E2,8.48E2,4.5E2,2.03E2,2.6E1,4.9E1,1.57E2,3.86E2,1.32E2,2.154E3,7.06E2,6.28E2,2.06E2,2E0,1E0,5E0,2.5E1,6E0,3.3E1,3.82E2,4.6E2,6.63E2,8E0,2E0,3.67E2,3.3E1,2.28E2,9E0,1.46E2,5.2E1,3.1E1,3.4E1,2.8E1,7.4E1,2.07E2,7.69E2,7.9E1,2.73E2,1.77E2,1.94E2,9E0,2.5E1,1E0,5E0,4.4E1,1.42E2,1.5E1,1.87E2,1.99E2,9.6E1,3.6E1,5.8E1,2.096E3,2.77E2,4.29E2,4.35E2,1.93E2,1.79E2,2.7E1,1.8E1,7E0,2E0,4E0,1E0,3.2E1,3.21E2,6.1E1,7E0,4.53E2,1.41E2,5.22E2,2E0,6E0,1E0,1E0,5.4E1,3.13E2,9E0,2.4E1,1.23E2,1.05E2],"tree_param":{"num_deleted":"0","num_feature":"13","num_nodes":"115","size_leaf_vector":"0"}},{"base_weights":[-2.1725329E-2,-2.315706E-2,-1.7428063E-2,-1.9840715E-2,-2.5959121E-2,-1.8148731E-2,-1.0579371E-2,-1.6746689E-2,-2.1351831E-2,-2.7717441E-2,-2.0335054E-2,-1.3477946E-2,-1.9381683E-2,-2.8479882E-4,-1.153801E-2,-1.8090114E-2,-1.2687039E-2,-2.2839412E-2,-1.5585751E-2,-2.1090677E-2,-3.142421E-2,-1.614187E-2,-3.713634E-2,2.8483802E-3,-1.3667348E-2,-1.4987871E-2,-2.0566186E-2,-4.152659E-3,2.9057048E-3,-8.112735E-3,-1.3509143E-2,-1.905766E-2,-8.664093E-3,-9.818283E-3,-2.1227485E-2,-2.6256116E-2,-1.657334E-2,-1.2130506E-2,-2.8365811E-2,-4.087753E-2,-1.8098917E-2,-3.4631524E-2,-2.5644869E-2,-1.2321101E-2,-2.4003278E-2,-3.883146E-2,-2.5277006E-2,-1.417603E-2,-5.8511985E-3,-5.859048E-3,-1.6991505E-2,-2.257949E-2,-1.6963888E-2,-1.946252E-3,-9.872795E-4,4.5137065E-3,7.33614E-5,-9.051314E-3,-1.999717E-3,-6.095183E-3,-1.442223E-2,-4.0193596E-3,-5.982624E-3,4.456267E-4,-3.6417376E-3,-1.5333327E-3,-4.2690383E-3,-5.24221E-3,-7.725749E-3,-5.0259526E-3,-8.072114E-3,-2.853714E-3,-7.1253646E-3,-9.154267E-3,-2.8250553E-3,-9.267101E-3,-5.471376E-3,-6.323474E-3,-1.31237395E-2,-4.544008E-3,-9.035671E-3,-1.335485E-2,-9.625531E-3,-8.421391E-3,-5.873358E-3,-1.8706804E-3,-5.340738E-3,-1.0524359E-2,-5.63342E-3,-9.399904E-3,-1.26224505E-2,-3.22081E-3,-8.052915E-3,-5.124793E-3,-3.8188822E-3,-5.512907E-3,-8.6218154E-4,-7.031779E-3,-1.1717126E-3,-9.265268E-3,-4.8720557E-3,-2.2408715E-3,-6.957001E-3,-5.3091072E-3,-1.3405422E-3,2.9803964E-4,-7.9167937E-4,9.730459E-6,1.8899185E-3,-1.2244955E-4,2.9992015E-4,-1.8316648E-3,-3.0838342E-3,3.8328412E-4,-1.2164981E-3,-3.9422126E-3,-7.0156914E-4,-5.0528315E-3,-3.4614431E-3],"categories":[],"categories_nodes":[],"categories_segments":[],"categories_sizes":[],"default_left":[0,0,0,0,0,0,0,0,0,0,0,0,0,0,0,0,0,0,0,0,0,0,0,0,0,0,0,0,0,0,0,0,0,0,0,0,0,0,0,0,0,0,0,0,0,0,0,0,0,0,0,0,0,0,0,0,0,0,0,0,0,0,0,0,0,0,0,0,0,0,0,0,0,0,0,0,0,0,0,0,0,0,0,0,0,0,0,0,0,0,0,0,0,0,0,0,0,0,0,0,0,0,0,0,0,0,0,0,0,0,0,0,0,0,0,0,0,0,0],"id":8,"left_children":[1,3,5,7,9,11,13,15,17,19,21,23,25,27,29,31,33,35,37,39,41,43,45,-1,47,49,51,53,55,57,59,61,63,65,67,69,71,73,75,77,79,81,83,85,87,89,91,93,95,97,99,101,103,-1,105,107,109,111,113,115,117,-1,-1,-1,-1,-1,-1,-1,-1,-1,-1,-1,-1,-1,-1,-1,-1,-1,-1,-1,-1,-1,-1,-1,-1,-1,-1,-1,-1,-1,-1,-1,-1,-1,-1,-1,-1,-1,-1,-1,-1,-1,-1,-1,-1,-1,-1,-1,-1,-1,-1,-1,-1,-1,-1,-1,-1,-1,-1],"loss_changes":[5.3436756E-2,6.0453653E-2,1.0622025E-2,1.3710737E-2,3.4571648E-2,1.1147082E-2,2.0790268E-3,5.1806867E-3,1.6953468E-2,6.575823E-2,5.9283793E-2,1.944162E-3,7.8366995E-3,2.4653442E-4,1.1934768E-3,6.6111237E-3,5.9166923E-3,3.386259E-2,1.8069893E-2,5.6859344E-2,3.1216502E-2,2.0189226E-2,2.4158508E-3,0E0,1.5630797E-3,6.046161E-3,8.5375905E-3,6.0111124E-5,4.9767405E-5,4.0074112E-4,7.312149E-4,3.1015873E-3,2.5221948E-3,3.852293E-3,6.0303323E-4,5.951464E-3,2.856183E-2,1.6175393E-2,1.6866103E-3,6.2901974E-3,2.9600143E-2,2.6535988E-2,8.60703E-3,1.52664855E-2,1.2191579E-2,2.2324473E-3,2.5833398E-4,1.41377E-3,9.540352E-4,2.0375403E-3,2.368845E-3,7.0774853E-3,3.99749E-3,0E0,1.8979188E-5,5.5821205E-5,2.6384212E-6,1.6515935E-4,7.9274745E-5,3.662799E-4,5.526375E-4,0E0,0E0,0E0,0E0,0E0,0E0,0E0,0E0,0E0,0E0,0E0,0E0,0E0,0E0,0E0,0E0,0E0,0E0,0E0,0E0,0E0,0E0,0E0,0E0,0E0,0E0,0E0,0E0,0E0,0E0,0E0,0E0,0E0,0E0,0E0,0E0,0E0,0E0,0E0,0E0,0E0,0E0,0E0,0E0,0E0,0E0,0E0,0E0,0E0,0E0,0E0,0E0,0E0,0E0,0E0,0E0,0E0,0E0],"parents":[2147483647,0,0,1,1,2,2,3,3,4,4,5,5,6,6,7,7,8,8,9,9,10,10,11,11,12,12,13,13,14,14,15,15,16,16,17,17,18,18,19,19,20,20,21,21,22,22,24,24,25,25,26,26,27,27,28,28,29,29,30,30,31,31,32,32,33,33,34,34,35,35,36,36,37,37,38,38,39,39,40,40,41,41,42,42,43,43,44,44,45,45,46,46,47,47,48,48,49,49,50,50,51,51,52,52,54,54,55,55,56,56,57,57,58,58,59,59,60,60],"right_children":[2,4,6,8,10,12,14,16,18,20,22,24,26,28,30,32,34,36,38,40,42,44,46,-1,48,50,52,54,56,58,60,62,64,66,68,70,72,74,76,78,80,82,84,86,88,90,92,94,96,98,100,102,104,-1,106,108,110,112,114,116,118,-1,-1,-1,-1,-1,-1,-1,-1,-1,-1,-1,-1,-1,-1,-1,-1,-1,-1,-1,-1,-1,-1,-1,-1,-1,-1,-1,-1,-1,-1,-1,-1,-1,-1,-1,-1,-1,-1,-1,-1,-1,-1,-1,-1,-1,-1,-1,-1,-1,-1,-1,-1,-1,-1,-1,-1,-1,-1],"split_conditions":[6.208535E-2,-3.871312E-2,2.2803237E-1,-1.21858895E-1,4.9605224E-2,-1.0049193E-1,8.612356E-2,-2.4343546E-2,1.2447304E-2,-3.871312E-2,9.511704E-4,-2.3249669E-2,-8.373099E-2,2.4124481E-1,-1.21858895E-1,1.4762089E-1,4.4680893E-2,5.615215E-2,2.034178E-2,-7.159956E-2,1.8105045E-2,-3.0278478E-2,4.9605224E-2,2.8483802E-3,1.9172728E-1,6.1188746E-2,1.2669116E-1,5.0697546E-2,4.337999E-2,2.6918763E-1,1.1528168E-1,-9.7977005E-2,-1.9721068E-1,1.3026279E-1,-1.6908981E-1,-1.5910684E-1,-3.327498E-2,3.2879137E-2,2.2024517E-1,-1.7896841E-1,-6.7475257E-3,-6.775525E-2,5.240009E-2,1.1502191E-1,3.197165E-2,-2.1283569E-2,2.2727448E-2,1.1502191E-1,-1.5447956E-3,-4.0104374E-2,2.2773338E-3,-3.871312E-2,2.4920739E-1,-1.946252E-3,6.5507375E-2,1.05980635E-2,5.8723513E-2,-1.7896841E-1,2.685919E-1,1.3981761E-1,1.8752226E-1,-4.0193596E-3,-5.982624E-3,4.456267E-4,-3.6417376E-3,-1.5333327E-3,-4.2690383E-3,-5.24221E-3,-7.725749E-3,-5.0259526E-3,-8.072114E-3,-2.853714E-3,-7.1253646E-3,-9.154267E-3,-2.8250553E-3,-9.267101E-3,-5.471376E-3,-6.323474E-3,-1.31237395E-2,-4.544008E-3,-9.035671E-3,-1.335485E-2,-9.625531E-3,-8.421391E-3,-5.873358E-3,-1.8706804E-3,-5.340738E-3,-1.0524359E-2,-5.63342E-3,-9.399904E-3,-1.26224505E-2,-3.22081E-3,-8.052915E-3,-5.124793E-3,-3.8188822E-3,-5.512907E-3,-8.6218154E-4,-7.031779E-3,-1.1717126E-3,-9.265268E-3,-4.8720557E-3,-2.2408715E-3,-6.957001E-3,-5.3091072E-3,-1.3405422E-3,2.9803964E-4,-7.9167937E-4,9.730459E-6,1.8899185E-3,-1.2244955E-4,2.9992015E-4,-1.8316648E-3,-3.0838342E-3,3.8328412E-4,-1.2164981E-3,-3.9422126E-3,-7.0156914E-4,-5.0528315E-3,-3.4614431E-3],"split_indices":[12,0,7,0,6,8,0,7,7,6,8,9,5,7,5,5,6,5,5,8,0,7,3,0,5,0,6,4,4,0,4,8,7,8,0,7,8,8,8,5,5,5,8,6,0,7,11,1,1,8,4,7,5,0,0,1,0,5,9,0,9,0,0,0,0,0,0,0,0,0,0,0,0,0,0,0,0,0,0,0,0,0,0,0,0,0,0,0,0,0,0,0,0,0,0,0,0,0,0,0,0,0,0,0,0,0,0,0,0,0,0,0,0,0,0,0,0,0,0],"split_type":[0,0,0,0,0,0,0,0,0,0,0,0,0,0,0,0,0,0,0,0,0,0,0,0,0,0,0,0,0,0,0,0,0,0,0,0,0,0,0,0,0,0,0,0,0,0,0,0,0,0,0,0,0,0,0,0,0,0,0,0,0,0,0,0,0,0,0,0,0,0,0,0,0,0,0,0,0,0,0,0,0,0,0,0,0,0,0,0,0,0,0,0,0,0,0,0,0,0,0,0,0,0,0,0,0,0,0,0,0,0,0,0,0,0,0,0,0,0,0],"sum_hessian":[8.75E3,6.56E3,2.19E3,3.008E3,3.552E3,1.98E3,2.1E2,9.91E2,2.017E3,2.703E3,8.49E2,4.16E2,1.564E3,1.8E1,1.92E2,7.42E2,2.49E2,1.601E3,4.16E2,9.72E2,1.731E3,6.81E2,1.68E2,3E0,4.13E2,3.35E2,1.229E3,8E0,1E1,7.2E1,1.2E2,6.72E2,7E1,1.88E2,6.1E1,1.034E3,5.67E2,3.29E2,8.7E1,1.26E2,8.46E2,1.11E3,6.21E2,4.6E2,2.21E2,1.45E2,2.3E1,3.87E2,2.6E1,6.1E1,2.74E2,7.85E2,4.44E2,4E0,4E0,6E0,4E0,6.2E1,1E1,1.4E1,1.06E2,9.3E1,5.79E2,1.8E1,5.2E1,9.2E1,9.6E1,3.6E1,2.5E1,6.8E1,9.66E2,2.87E2,2.8E2,4.1E1,2.88E2,6.8E1,1.9E1,1.7E1,1.09E2,6.81E2,1.65E2,2.24E2,8.86E2,4.41E2,1.8E2,2.19E2,2.41E2,6.9E1,1.52E2,4.7E1,9.8E1,3E0,2E1,1.25E2,2.62E2,4E0,2.2E1,5E0,5.6E1,1.2E1,2.62E2,3.1E1,7.54E2,4.19E2,2.5E1,2E0,2E0,2E0,4E0,3E0,1E0,2E1,4.2E1,4E0,6E0,4E0,1E1,5.5E1,5.1E1],"tree_param":{"num_deleted":"0","num_feature":"13","num_nodes":"119","size_leaf_vector":"0"}},{"base_weights":[-1.5239574E-2,-1.5974306E-2,-1.0594001E-2,-9.620118E-3,-1.6675383E-2,-1.15463585E-2,-8.186387E-3,-8.607864E-3,-2.2563767E-2,-1.2754578E-2,-1.8078437E-2,-4.580861E-3,-1.205625E-2,-8.600102E-3,-1.4332228E-3,-1.1331291E-2,2.269632E-3,-2.954928E-2,-1.3904396E-2,-1.76474E-2,-9.293361E-3,-1.9888824E-2,-1.5690811E-2,-6.687935E-3,6.623304E-3,-9.624615E-3,-1.3544104E-2,-1.2228323E-2,-7.6563396E-3,6.0122326E-4,-2.4191085E-3,-1.681876E-2,-7.862814E-3,5.1747803E-3,-9.128692E-3,-3.4134388E-3,-3.1358846E-2,-8.630352E-3,-4.6179714E-3,-1.3488799E-2,-2.0693371E-2,-5.9388936E-3,-1.1002982E-2,-2.2127219E-2,-1.5431071E-2,-1.3395168E-2,-2.157071E-2,3.603401E-3,-8.140189E-3,1.0453681E-2,-1.7356835E-3,-5.8877105E-3,-1.2388312E-2,-1.683402E-2,-1.1952012E-2,-1.4934381E-2,-7.866672E-3,-8.35539E-3,-2.245404E-3,3.3909578E-3,-8.4374595E-4,-2.4584217E-3,-5.979803E-3,-1.8798058E-3,-4.905518E-3,5.6079896E-3,-4.957704E-4,-3.471243E-3,-1.7056953E-3,-2.3029626E-3,7.669151E-4,-9.562733E-3,-2.6878004E-3,-2.8755562E-3,-2.9197635E-4,-9.266132E-4,-4.6413573E-3,-6.6076894E-3,-2.1759418E-3,-7.0265034E-4,-2.680013E-3,-7.11846E-4,-3.5660474E-3,-5.350115E-3,-8.226274E-3,-3.2414696E-3,-6.4866026E-3,-3.4043207E-3,-5.4216147E-3,-6.7469813E-3,-2.4004164E-3,1.649905E-4,1.7267951E-3,-2.8015245E-3,-9.0442816E-5,3.4341172E-3,6.7401456E-4,-1.2417175E-3,1.3353825E-4,-3.5495067E-4,-2.834216E-3,-1.1972471E-3,-4.0338337E-3,-4.46328E-3,-6.6700554E-3,-4.182797E-3,-2.7545276E-3,1.0020167E-3,-4.803738E-3,-2.5475111E-3,-1.0755659E-5,-2.8211682E-3,-1.5079521E-3,-9.257789E-4,1.2598872E-3,-3.8848224E-4,1.8172928E-3,3.8011195E-4,-6.172557E-4],"categories":[],"categories_nodes":[],"categories_segments":[],"categories_sizes":[],"default_left":[0,0,0,0,0,0,0,0,0,0,0,0,0,0,0,0,0,0,0,0,0,0,0,0,0,0,0,0,0,0,0,0,0,0,0,0,0,0,0,0,0,0,0,0,0,0,0,0,0,0,0,0,0,0,0,0,0,0,0,0,0,0,0,0,0,0,0,0,0,0,0,0,0,0,0,0,0,0,0,0,0,0,0,0,0,0,0,0,0,0,0,0,0,0,0,0,0,0,0,0,0,0,0,0,0,0,0,0,0,0,0,0,0,0,0,0,0,0,0],"id":9,"left_children":[1,3,5,7,9,11,13,15,17,19,21,23,25,27,29,31,33,35,37,39,41,43,45,47,49,51,53,55,57,59,-1,61,63,65,67,69,71,73,-1,75,77,79,81,83,85,87,89,91,93,95,97,99,101,103,105,107,109,111,113,115,117,-1,-1,-1,-1,-1,-1,-1,-1,-1,-1,-1,-1,-1,-1,-1,-1,-1,-1,-1,-1,-1,-1,-1,-1,-1,-1,-1,-1,-1,-1,-1,-1,-1,-1,-1,-1,-1,-1,-1,-1,-1,-1,-1,-1,-1,-1,-1,-1,-1,-1,-1,-1,-1,-1,-1,-1,-1,-1],"loss_changes":[2.970004E-2,3.3490896E-2,2.6524067E-3,9.67177E-3,3.7187934E-2,2.9849783E-3,9.45976E-4,2.0762559E-2,2.8556027E-3,3.0251503E-2,2.1330714E-2,1.4607769E-3,2.7531236E-3,1.0123868E-3,2.8812417E-4,1.0526329E-2,4.716288E-3,1.2644976E-3,7.1308576E-5,9.13243E-3,5.9792176E-3,2.8036714E-2,2.8921068E-2,7.9155946E-4,3.383251E-4,3.0873287E-3,2.3758262E-3,6.4970274E-4,9.609107E-4,7.138947E-5,0E0,5.637221E-3,4.5740325E-3,1.0460297E-2,1.7805328E-4,9.597409E-5,2.704747E-5,4.9161317E-5,0E0,6.487813E-3,7.4860454E-3,3.8348539E-3,5.2882954E-3,4.2490542E-2,2.7089253E-2,1.4723271E-2,7.378876E-3,4.284374E-5,4.198493E-4,3.1349948E-5,2.2807635E-5,2.1993797E-3,1.5008375E-3,1.3382845E-3,1.7193705E-3,8.2183257E-4,1.3184722E-4,7.520206E-4,1.8089321E-4,8.281916E-5,3.335113E-5,0E0,0E0,0E0,0E0,0E0,0E0,0E0,0E0,0E0,0E0,0E0,0E0,0E0,0E0,0E0,0E0,0E0,0E0,0E0,0E0,0E0,0E0,0E0,0E0,0E0,0E0,0E0,0E0,0E0,0E0,0E0,0E0,0E0,0E0,0E0,0E0,0E0,0E0,0E0,0E0,0E0,0E0,0E0,0E0,0E0,0E0,0E0,0E0,0E0,0E0,0E0,0E0,0E0,0E0,0E0,0E0,0E0,0E0],"parents":[2147483647,0,0,1,1,2,2,3,3,4,4,5,5,6,6,7,7,8,8,9,9,10,10,11,11,12,12,13,13,14,14,15,15,16,16,17,17,18,18,19,19,20,20,21,21,22,22,23,23,24,24,25,25,26,26,27,27,28,28,29,29,31,31,32,32,33,33,34,34,35,35,36,36,37,37,39,39,40,40,41,41,42,42,43,43,44,44,45,45,46,46,47,47,48,48,49,49,50,50,51,51,52,52,53,53,54,54,55,55,56,56,57,57,58,58,59,59,60,60],"right_children":[2,4,6,8,10,12,14,16,18,20,22,24,26,28,30,32,34,36,38,40,42,44,46,48,50,52,54,56,58,60,-1,62,64,66,68,70,72,74,-1,76,78,80,82,84,86,88,90,92,94,96,98,100,102,104,106,108,110,112,114,116,118,-1,-1,-1,-1,-1,-1,-1,-1,-1,-1,-1,-1,-1,-1,-1,-1,-1,-1,-1,-1,-1,-1,-1,-1,-1,-1,-1,-1,-1,-1,-1,-1,-1,-1,-1,-1,-1,-1,-1,-1,-1,-1,-1,-1,-1,-1,-1,-1,-1,-1,-1,-1,-1,-1,-1,-1,-1,-1],"split_conditions":[1.2030825E-1,-1.3429873E-1,2.0972541E-1,6.926164E-2,-8.225434E-2,-5.2225634E-2,1.0332046E-1,-2.4358674E-3,4.9605224E-2,3.0849803E-2,1.8105045E-2,1.5321122E-1,6.447725E-2,-1.389487E-1,-1.21858895E-1,4.9605224E-2,-5.2225634E-2,-2.3441447E-1,9.635756E-2,-1.24543644E-1,-1.1609301E-1,4.720691E-2,9.511704E-4,9.635756E-2,1.9961421E-1,1.5938129E-1,1.5041636E-1,2.6918763E-1,4.248138E-2,2.35504E-1,-2.4191085E-3,-1.6908981E-1,-6.471957E-2,9.3304476E-4,4.524948E-3,-1.1040702E-2,1.2669116E-1,-1.9721068E-1,-4.6179714E-3,-1.8362255E-1,1.1630965E-2,-3.453963E-2,-1.9721068E-1,-2.2244798E-2,-2.5493922E-2,0E0,2.2803237E-1,1.337403E-1,1.5041636E-1,1.0085377E-1,1.5041636E-1,1.4377806E-1,-1.7135012E-1,1.9571002E-1,4.4680893E-2,-5.3733747E-2,1.3026279E-1,2.577997E-1,2.4920739E-1,2.4210893E-1,1.0678823E-1,-2.4584217E-3,-5.979803E-3,-1.8798058E-3,-4.905518E-3,5.6079896E-3,-4.957704E-4,-3.471243E-3,-1.7056953E-3,-2.3029626E-3,7.669151E-4,-9.562733E-3,-2.6878004E-3,-2.8755562E-3,-2.9197635E-4,-9.266132E-4,-4.6413573E-3,-6.6076894E-3,-2.1759418E-3,-7.0265034E-4,-2.680013E-3,-7.11846E-4,-3.5660474E-3,-5.350115E-3,-8.226274E-3,-3.2414696E-3,-6.4866026E-3,-3.4043207E-3,-5.4216147E-3,-6.7469813E-3,-2.4004164E-3,1.649905E-4,1.7267951E-3,-2.8015245E-3,-9.0442816E-5,3.4341172E-3,6.7401456E-4,-1.2417175E-3,1.3353825E-4,-3.5495067E-4,-2.834216E-3,-1.1972471E-3,-4.0338337E-3,-4.46328E-3,-6.6700554E-3,-4.182797E-3,-2.7545276E-3,1.0020167E-3,-4.803738E-3,-2.5475111E-3,-1.0755659E-5,-2.8211682E-3,-1.5079521E-3,-9.257789E-4,1.2598872E-3,-3.8848224E-4,1.8172928E-3,3.8011195E-4,-6.172557E-4],"split_indices":[0,6,0,5,7,7,5,12,8,5,7,11,6,8,8,8,5,0,5,7,8,6,5,11,4,4,10,0,5,9,0,0,0,12,7,1,5,6,0,8,12,4,7,0,8,6,8,3,10,1,0,12,5,6,5,1,7,0,6,2,5,0,0,0,0,0,0,0,0,0,0,0,0,0,0,0,0,0,0,0,0,0,0,0,0,0,0,0,0,0,0,0,0,0,0,0,0,0,0,0,0,0,0,0,0,0,0,0,0,0,0,0,0,0,0,0,0,0,0],"split_type":[0,0,0,0,0,0,0,0,0,0,0,0,0,0,0,0,0,0,0,0,0,0,0,0,0,0,0,0,0,0,0,0,0,0,0,0,0,0,0,0,0,0,0,0,0,0,0,0,0,0,0,0,0,0,0,0,0,0,0,0,0,0,0,0,0,0,0,0,0,0,0,0,0,0,0,0,0,0,0,0,0,0,0,0,0,0,0,0,0,0,0,0,0,0,0,0,0,0,0,0,0,0,0,0,0,0,0,0,0,0,0,0,0,0,0,0,0,0,0],"sum_hessian":[8.75E3,7.553E3,1.197E3,7.52E2,6.801E3,8.55E2,3.42E2,6.99E2,5.3E1,1.795E3,5.006E3,5.9E1,7.96E2,3.22E2,2E1,5.59E2,1.4E2,2.8E1,2.5E1,7.42E2,1.053E3,2.843E3,2.163E3,5E1,9E0,3.05E2,4.91E2,6.4E1,2.58E2,1.6E1,4E0,2.15E2,3.44E2,1.12E2,2.8E1,2E0,2.6E1,7E0,1.8E1,3.16E2,4.26E2,3.57E2,6.96E2,1.89E3,9.53E2,1.558E3,6.05E2,6E0,4.4E1,6E0,3E0,1.31E2,1.74E2,1.57E2,3.34E2,3.8E1,2.6E1,2.28E2,3E1,5E0,1.1E1,5.8E1,1.57E2,2.91E2,5.3E1,3.7E1,7.5E1,1.5E1,1.3E1,1E0,1E0,2.5E1,1E0,6E0,1E0,5.1E1,2.65E2,3.87E2,3.9E1,1.63E2,1.94E2,6.5E1,6.31E2,1.046E3,8.44E2,5.47E2,4.06E2,1.086E3,4.72E2,5.66E2,3.9E1,3E0,3E0,3.8E1,6E0,5E0,1E0,1E0,2E0,5.7E1,7.4E1,2E1,1.54E2,1.18E2,3.9E1,1.92E2,1.42E2,2E0,3.6E1,2.4E1,2E0,1.72E2,5.6E1,2.7E1,3E0,2E0,3E0,4E0,7E0],"tree_param":{"num_deleted":"0","num_feature":"13","num_nodes":"119","size_leaf_vector":"0"}},{"base_weights":[-1.0683268E-2,-1.1518075E-2,-8.3737215E-3,-9.437882E-3,-1.3348806E-2,-3.9350246E-3,-8.773316E-3,-4.5744586E-3,-9.921133E-3,-9.686332E-3,-1.4506101E-2,-1.2787994E-2,-3.0674094E-3,-9.77858E-3,-7.033341E-3,-4.031884E-3,-1.3674127E-2,-1.01447925E-2,-5.674846E-4,-2.0791207E-2,-5.600323E-3,-1.0759424E-2,-1.8806167E-2,-5.2090115E-3,-1.8946089E-2,6.5317267E-4,-5.5423114E-3,-7.7638854E-3,-1.1683067E-2,-7.843227E-3,-3.870366E-3,-5.7949433E-3,-1.3408482E-4,-7.523397E-3,-5.4346775E-3,-5.6226472E-3,-1.0656631E-2,3.8969659E-3,-1.4483425E-2,-1.5518433E-2,-2.9713057E-2,-1.8303023E-3,-1.1216634E-2,-2.0140773E-2,-9.098053E-3,-2.3398098E-2,-1.3099455E-2,-6.117522E-3,3.0886085E-4,-9.165016E-3,-7.481383E-3,-1.0643237E-2,2.4358858E-3,-7.753777E-3,-3.6117327E-3,-5.7916506E-3,-1.1417351E-2,-1.2751673E-2,-5.974853E-3,-9.481411E-3,-6.623493E-3,3.2834944E-3,-4.413253E-3,7.6660805E-4,-1.9230801E-3,1.4182847E-3,-1.5333279E-3,1.4653504E-4,-3.0826263E-3,-2.4094812E-3,9.5840245E-5,-3.5345072E-3,-2.5814446E-3,7.1850107E-3,-1.4787157E-4,-6.8200235E-3,-1.6622505E-3,-2.132147E-3,-5.7045193E-3,-1.0060588E-2,-5.5848993E-3,-3.4167033E-3,1.2121521E-3,-4.327308E-3,-1.4431748E-5,-6.937128E-3,-3.6082393E-3,-4.3270322E-3,-2.075709E-3,-6.3452413E-3,-8.767855E-3,-1.4887701E-3,-4.501784E-3,-2.1188338E-3,7.489175E-5,-9.2968944E-4,-3.6528187E-3,-4.3263007E-3,3.503496E-3,4.079233E-3,-3.0918873E-4,-1.7935504E-3,-4.2238506E-3,-1.25189E-3,6.123975E-4,-2.5522732E-3,-1.0505421E-3,-6.9935573E-3,-2.9949367E-3,-4.832477E-3,-3.0418956E-3,-5.3586117E-3,-1.3465926E-3,-1.8518612E-3,-3.067677E-3,-7.5141096E-4,-2.100846E-3,1.6160549E-3,-6.8097824E-4,-2.0526594E-3,-9.2049927E-4],"categories":[],"categories_nodes":[],"categories_segments":[],"categories_sizes":[],"default_left":[0,0,0,0,0,0,0,0,0,0,0,0,0,0,0,0,0,0,0,0,0,0,0,0,0,0,0,0,0,0,0,0,0,0,0,0,0,0,0,0,0,0,0,0,0,0,0,0,0,0,0,0,0,0,0,0,0,0,0,0,0,0,0,0,0,0,0,0,0,0,0,0,0,0,0,0,0,0,0,0,0,0,0,0,0,0,0,0,0,0,0,0,0,0,0,0,0,0,0,0,0,0,0,0,0,0,0,0,0,0,0,0,0,0,0,0,0,0,0,0,0],"id":10,"left_children":[1,3,5,7,9,11,13,15,17,19,21,23,25,27,29,31,33,35,37,39,41,43,45,47,49,51,53,55,57,59,61,63,65,67,-1,69,71,73,75,77,79,81,83,85,87,89,91,93,-1,95,-1,97,99,101,103,105,107,109,111,113,115,117,119,-1,-1,-1,-1,-1,-1,-1,-1,-1,-1,-1,-1,-1,-1,-1,-1,-1,-1,-1,-1,-1,-1,-1,-1,-1,-1,-1,-1,-1,-1,-1,-1,-1,-1,-1,-1,-1,-1,-1,-1,-1,-1,-1,-1,-1,-1,-1,-1,-1,-1,-1,-1,-1,-1,-1,-1,-1,-1],"loss_changes":[1.6775668E-2,2.4342239E-2,4.0928125E-3,7.031232E-3,1.4334142E-2,1.4508823E-3,3.6638826E-3,1.2976746E-3,5.7222247E-3,3.7226878E-2,4.1573346E-2,6.947352E-4,1.6426573E-3,5.0891787E-3,1.9805394E-3,1.7859563E-3,2.7348287E-4,6.1293244E-3,4.0946985E-3,9.935379E-3,1.2747154E-2,2.1449998E-2,3.129652E-2,5.7308294E-5,2.9890426E-4,1.4758804E-3,4.2882212E-4,4.6822913E-3,4.144907E-3,1.1840463E-3,6.436566E-4,9.3610724E-4,2.0082942E-3,1.8140947E-4,0E0,3.9246827E-3,5.441159E-3,4.413325E-3,1.0544576E-3,4.0118247E-3,2.811253E-3,2.0360498E-2,8.669097E-3,4.755877E-3,1.3604701E-2,8.117795E-3,8.302502E-3,4.9911963E-5,0E0,5.3592637E-5,0E0,1.0116687E-3,2.451591E-3,4.6609086E-4,1.9570685E-4,2.6444E-3,3.6909487E-3,4.9393326E-3,1.8808455E-3,5.868841E-4,5.4647774E-4,1.5239757E-4,4.7228392E-4,0E0,0E0,0E0,0E0,0E0,0E0,0E0,0E0,0E0,0E0,0E0,0E0,0E0,0E0,0E0,0E0,0E0,0E0,0E0,0E0,0E0,0E0,0E0,0E0,0E0,0E0,0E0,0E0,0E0,0E0,0E0,0E0,0E0,0E0,0E0,0E0,0E0,0E0,0E0,0E0,0E0,0E0,0E0,0E0,0E0,0E0,0E0,0E0,0E0,0E0,0E0,0E0,0E0,0E0,0E0,0E0,0E0,0E0],"parents":[2147483647,0,0,1,1,2,2,3,3,4,4,5,5,6,6,7,7,8,8,9,9,10,10,11,11,12,12,13,13,14,14,15,15,16,16,17,17,18,18,19,19,20,20,21,21,22,22,23,23,24,24,25,25,26,26,27,27,28,28,29,29,30,30,31,31,32,32,33,33,35,35,36,36,37,37,38,38,39,39,40,40,41,41,42,42,43,43,44,44,45,45,46,46,47,47,49,49,51,51,52,52,53,53,54,54,55,55,56,56,57,57,58,58,59,59,60,60,61,61,62,62],"right_children":[2,4,6,8,10,12,14,16,18,20,22,24,26,28,30,32,34,36,38,40,42,44,46,48,50,52,54,56,58,60,62,64,66,68,-1,70,72,74,76,78,80,82,84,86,88,90,92,94,-1,96,-1,98,100,102,104,106,108,110,112,114,116,118,120,-1,-1,-1,-1,-1,-1,-1,-1,-1,-1,-1,-1,-1,-1,-1,-1,-1,-1,-1,-1,-1,-1,-1,-1,-1,-1,-1,-1,-1,-1,-1,-1,-1,-1,-1,-1,-1,-1,-1,-1,-1,-1,-1,-1,-1,-1,-1,-1,-1,-1,-1,-1,-1,-1,-1,-1,-1,-1],"split_conditions":[5.7472873E-2,-3.871312E-2,-1.3704091E-1,-1.7537986E-1,-4.8473354E-2,2.2773338E-3,1.5331115E-1,1.6665392E-1,1.0332046E-1,9.073665E-3,0E0,1.5321122E-1,9.821753E-2,8.8383675E-2,6.447725E-2,-5.368326E-2,-1.8360241E-1,-1.1609301E-1,-1.8480726E-2,-1.6345551E-2,1.1502191E-1,-4.8473354E-2,1.8105045E-2,1.6665392E-1,8.264879E-2,7.668406E-2,2.2024517E-1,9.784114E-3,1.5639234E-1,1.3026279E-1,-5.2225634E-2,-6.775525E-2,2.9623395E-2,-1.5481369E-1,-5.4346775E-3,8.4175594E-2,3.9481085E-2,2.042347E-1,2.3537266E-1,-1.4149883E-1,-6.8254652E-3,2.1521095E-2,2.3537266E-1,2.4788428E-2,-1.4150239E-2,6.381563E-3,-4.97315E-2,-8.755377E-3,3.0886085E-4,-1.8362255E-1,-7.481383E-3,6.926164E-2,1.3375854E-1,1.0940281E-1,2.577997E-1,6.926164E-2,-9.911924E-2,1.1502191E-1,1.717036E-2,-1.6253974E-1,-1.1780715E-1,2.042347E-1,2.9623395E-2,7.6660805E-4,-1.9230801E-3,1.4182847E-3,-1.5333279E-3,1.4653504E-4,-3.0826263E-3,-2.4094812E-3,9.5840245E-5,-3.5345072E-3,-2.5814446E-3,7.1850107E-3,-1.4787157E-4,-6.8200235E-3,-1.6622505E-3,-2.132147E-3,-5.7045193E-3,-1.0060588E-2,-5.5848993E-3,-3.4167033E-3,1.2121521E-3,-4.327308E-3,-1.4431748E-5,-6.937128E-3,-3.6082393E-3,-4.3270322E-3,-2.075709E-3,-6.3452413E-3,-8.767855E-3,-1.4887701E-3,-4.501784E-3,-2.1188338E-3,7.489175E-5,-9.2968944E-4,-3.6528187E-3,-4.3263007E-3,3.503496E-3,4.079233E-3,-3.0918873E-4,-1.7935504E-3,-4.2238506E-3,-1.25189E-3,6.123975E-4,-2.5522732E-3,-1.0505421E-3,-6.9935573E-3,-2.9949367E-3,-4.832477E-3,-3.0418956E-3,-5.3586117E-3,-1.3465926E-3,-1.8518612E-3,-3.067677E-3,-7.5141096E-4,-2.100846E-3,1.6160549E-3,-6.8097824E-4,-2.0526594E-3,-9.2049927E-4],"split_indices":[0,0,5,0,7,4,0,8,7,6,6,1,4,0,5,7,2,8,5,4,6,8,0,0,10,7,7,8,5,7,7,8,6,4,0,5,8,8,8,8,12,5,5,0,12,9,8,4,0,5,0,0,7,8,0,0,5,0,1,8,5,4,7,0,0,0,0,0,0,0,0,0,0,0,0,0,0,0,0,0,0,0,0,0,0,0,0,0,0,0,0,0,0,0,0,0,0,0,0,0,0,0,0,0,0,0,0,0,0,0,0,0,0,0,0,0,0,0,0,0,0],"split_type":[0,0,0,0,0,0,0,0,0,0,0,0,0,0,0,0,0,0,0,0,0,0,0,0,0,0,0,0,0,0,0,0,0,0,0,0,0,0,0,0,0,0,0,0,0,0,0,0,0,0,0,0,0,0,0,0,0,0,0,0,0,0,0,0,0,0,0,0,0,0,0,0,0,0,0,0,0,0,0,0,0,0,0,0,0,0,0,0,0,0,0,0,0,0,0,0,0,0,0,0,0,0,0,0,0,0,0,0,0,0,0,0,0,0,0,0,0,0,0,0,0],"sum_hessian":[8.75E3,6.424E3,2.326E3,3.01E3,3.414E3,1.93E2,2.133E3,2.73E2,2.737E3,8.22E2,2.592E3,1.6E1,1.77E2,1.349E3,7.84E2,2.59E2,1.4E1,2.673E3,6.4E1,2.2E2,6.02E2,1.387E3,1.205E3,8E0,8E0,7.1E1,1.06E2,6.58E2,6.91E2,6.23E2,1.61E2,1.78E2,8.1E1,7E0,7E0,2.73E2,2.4E3,4.9E1,1.5E1,1.4E2,8E1,3.61E2,2.41E2,2.07E2,1.18E3,6.66E2,5.39E2,7E0,1E0,4E0,4E0,9E0,6.2E1,4.8E1,5.8E1,4.29E2,2.29E2,5.81E2,1.1E2,2.63E2,3.6E2,1.1E1,1.5E2,1.2E1,1.66E2,4.1E1,4E1,2E0,5E0,1.94E2,7.9E1,1.547E3,8.53E2,8E0,4.1E1,7E0,8E0,4.2E1,9.8E1,5.8E1,2.2E1,1.37E2,2.24E2,1.87E2,5.4E1,1.5E2,5.7E1,3.41E2,8.39E2,4.84E2,1.82E2,1.03E2,4.36E2,6E0,1E0,2E0,2E0,8E0,1E0,1.4E1,4.8E1,3.9E1,9E0,5.3E1,5E0,1.95E2,2.34E2,2.3E1,2.06E2,2.52E2,3.29E2,1.1E1,9.9E1,5E1,2.13E2,3.1E1,3.29E2,8E0,3E0,5.2E1,9.8E1],"tree_param":{"num_deleted":"0","num_feature":"13","num_nodes":"121","size_leaf_vector":"0"}},{"base_weights":[-7.4946387E-3,-7.6776203E-3,5.7727135E-5,-3.2068042E-3,-7.942756E-3,-1.2176311E-2,1.0716488E-3,-1.3427734E-2,-2.3478374E-3,-4.8640054E-3,-8.325901E-3,-1.3308972E-3,-2.2855362E-2,1.9598E-3,-5.264074E-3,-1.7103145E-2,-5.326734E-3,3.0702425E-3,-3.5652886E-3,-5.8385814E-3,-7.035874E-4,-9.252527E-3,-6.2565412E-3,1.8995673E-3,-4.424821E-3,-7.479603E-3,-1.2478263E-3,3.2396503E-3,-3.8833888E-3,-1.0189868E-2,-2.1643103E-3,-2.1163618E-2,-3.518114E-3,1.0104016E-3,-7.213778E-3,5.236189E-4,6.6500753E-3,-4.7306838E-3,1.7506679E-3,-5.527903E-3,-1.5080685E-2,-1.9054592E-3,1.4050351E-2,-2.8059315E-3,-9.504984E-3,-6.94833E-3,-4.5405123E-3,-2.153805E-3,-5.640872E-4,1.1810496E-3,8.181612E-3,-1.164865E-2,-1.5537798E-3,2.443079E-4,-1.1667191E-2,1.4703133E-3,-4.927849E-3,-1.5308111E-3,-6.623041E-3,8.409748E-4,-2.5487419E-3,1.6455672E-3,-5.4799643E-4,-6.5164675E-4,2.9738892E-3,-6.103515E-3,-1.3508783E-3,1.7097079E-3,-3.3868186E-4,-1.9164354E-3,-4.136823E-4,-5.307188E-3,-6.4403104E-4,-7.735052E-4,3.9222697E-3,6.4373533E-3,1.3907001E-3,-7.707063E-5,-3.9605354E-3,-7.4833427E-3,-2.8205619E-3,-1.6530749E-3,-2.4554671E-3,5.2715768E-5,-1.4564092E-3,3.6598742E-4,-4.6962648E-4,1.6518546E-3,-3.3914272E-4,8.512471E-3,9.568842E-4,-6.775886E-4,-4.48588E-3,8.9593104E-4,-1.0455998E-3,-3.7957265E-3,-7.155866E-4,3.0935818E-4,-1.6689975E-3],"categories":[],"categories_nodes":[],"categories_segments":[],"categories_sizes":[],"default_left":[0,0,0,0,0,0,0,0,0,0,0,0,0,0,0,0,0,0,0,0,0,0,0,0,0,0,0,0,0,0,0,0,0,0,0,0,0,0,0,0,0,0,0,0,0,0,0,0,0,0,0,0,0,0,0,0,0,0,0,0,0,0,0,0,0,0,0,0,0,0,0,0,0,0,0,0,0,0,0,0,0,0,0,0,0,0,0,0,0,0,0,0,0,0,0,0,0,0,0],"id":11,"left_children":[1,3,5,7,9,11,13,15,17,19,21,23,25,27,29,31,33,35,37,39,41,43,45,-1,47,-1,-1,49,51,53,55,57,-1,-1,59,61,63,65,67,69,71,73,75,77,79,81,83,-1,85,87,89,91,93,-1,95,-1,97,-1,-1,-1,-1,-1,-1,-1,-1,-1,-1,-1,-1,-1,-1,-1,-1,-1,-1,-1,-1,-1,-1,-1,-1,-1,-1,-1,-1,-1,-1,-1,-1,-1,-1,-1,-1,-1,-1,-1,-1,-1,-1],"loss_changes":[1.2093842E-2,1.0102332E-2,2.5931548E-3,4.1826046E-3,9.473026E-3,1.8226812E-3,1.0963428E-3,1.0105534E-3,2.9396797E-3,3.6248006E-3,1.3692677E-2,2.4139023E-4,2.068961E-4,1.2839101E-3,3.4439703E-4,2.9755058E-4,2.3759165E-4,7.440697E-4,2.2571362E-3,1.9983426E-3,3.0590033E-3,8.031011E-3,2.6050732E-3,0E0,7.039175E-5,0E0,0E0,1.4146307E-3,5.426913E-4,1.5581242E-4,3.3655766E-4,7.8014564E-5,0E0,0E0,1.6507902E-4,5.8141496E-4,1.0002553E-3,9.6815685E-4,7.568354E-4,2.5001988E-3,7.384275E-4,1.6363828E-3,8.071379E-4,4.978483E-3,7.3497295E-3,2.7663484E-3,9.5066614E-4,0E0,9.055453E-6,1.0059898E-3,4.042494E-3,1.8341787E-4,2.2965047E-4,0E0,4.297879E-5,0E0,5.1178824E-5,0E0,0E0,0E0,0E0,0E0,0E0,0E0,0E0,0E0,0E0,0E0,0E0,0E0,0E0,0E0,0E0,0E0,0E0,0E0,0E0,0E0,0E0,0E0,0E0,0E0,0E0,0E0,0E0,0E0,0E0,0E0,0E0,0E0,0E0,0E0,0E0,0E0,0E0,0E0,0E0,0E0,0E0],"parents":[2147483647,0,0,1,1,2,2,3,3,4,4,5,5,6,6,7,7,8,8,9,9,10,10,11,11,12,12,13,13,14,14,15,15,16,16,17,17,18,18,19,19,20,20,21,21,22,22,24,24,27,27,28,28,29,29,30,30,31,31,34,34,35,35,36,36,37,37,38,38,39,39,40,40,41,41,42,42,43,43,44,44,45,45,46,46,48,48,49,49,50,50,51,51,52,52,54,54,56,56],"right_children":[2,4,6,8,10,12,14,16,18,20,22,24,26,28,30,32,34,36,38,40,42,44,46,-1,48,-1,-1,50,52,54,56,58,-1,-1,60,62,64,66,68,70,72,74,76,78,80,82,84,-1,86,88,90,92,94,-1,96,-1,98,-1,-1,-1,-1,-1,-1,-1,-1,-1,-1,-1,-1,-1,-1,-1,-1,-1,-1,-1,-1,-1,-1,-1,-1,-1,-1,-1,-1,-1,-1,-1,-1,-1,-1,-1,-1,-1,-1,-1,-1,-1,-1],"split_conditions":[2.3537266E-1,-1.5481369E-1,-1.3700475E-1,-8.225434E-2,-1.2451124E-1,-1.0042267E-1,1.2447304E-2,1.4774188E-2,-3.7109386E-2,1.3375854E-1,5.3794593E-2,-2.3441447E-1,1.5872022E-3,7.668406E-2,-6.1686236E-2,-4.578816E-4,-1.1780715E-1,3.2879137E-2,1.791347E-1,-4.857409E-3,-1.0466782E-1,-1.6908981E-1,1.6665392E-1,1.8995673E-3,-1.4633778E-1,-7.479603E-3,-1.2478263E-3,2.26821E-2,-3.1234235E-2,-6.471957E-2,-3.7281215E-2,-6.470786E-2,-3.518114E-3,1.0104016E-3,1.5904775E-2,-1.0181002E-1,-9.455434E-2,-8.093668E-2,-1.5371471E-2,-1.1040702E-2,-1.4917371E-3,-3.996087E-2,-1.162395E-1,4.4680893E-2,-2.3441447E-1,8.612356E-2,1.1528168E-1,-2.153805E-3,-2.0423356E-1,-1.5910684E-1,-4.412133E-2,8.4175594E-2,8.0650665E-2,2.443079E-4,-3.453963E-2,1.4703133E-3,-5.9023682E-2,-1.5308111E-3,-6.623041E-3,8.409748E-4,-2.5487419E-3,1.6455672E-3,-5.4799643E-4,-6.5164675E-4,2.9738892E-3,-6.103515E-3,-1.3508783E-3,1.7097079E-3,-3.3868186E-4,-1.9164354E-3,-4.136823E-4,-5.307188E-3,-6.4403104E-4,-7.735052E-4,3.9222697E-3,6.4373533E-3,1.3907001E-3,-7.707063E-5,-3.9605354E-3,-7.4833427E-3,-2.8205619E-3,-1.6530749E-3,-2.4554671E-3,5.2715768E-5,-1.4564092E-3,3.6598742E-4,-4.6962648E-4,1.6518546E-3,-3.3914272E-4,8.512471E-3,9.568842E-4,-6.775886E-4,-4.48588E-3,8.9593104E-4,-1.0455998E-3,-3.7957265E-3,-7.155866E-4,3.0935818E-4,-1.6689975E-3],"split_indices":[8,8,4,5,11,2,5,12,1,5,0,6,1,2,1,9,7,5,5,6,0,6,0,0,3,0,0,1,4,0,3,3,0,0,12,1,1,9,4,7,8,1,10,5,5,0,4,0,1,5,4,2,4,0,9,0,1,0,0,0,0,0,0,0,0,0,0,0,0,0,0,0,0,0,0,0,0,0,0,0,0,0,0,0,0,0,0,0,0,0,0,0,0,0,0,0,0,0,0],"split_type":[0,0,0,0,0,0,0,0,0,0,0,0,0,0,0,0,0,0,0,0,0,0,0,0,0,0,0,0,0,0,0,0,0,0,0,0,0,0,0,0,0,0,0,0,0,0,0,0,0,0,0,0,0,0,0,0,0,0,0,0,0,0,0,0,0,0,0,0,0,0,0,0,0,0,0,0,0,0,0,0,0,0,0,0,0,0,0,0,0,0,0,0,0,0,0,0,0,0,0],"sum_hessian":[8.75E3,8.543E3,2.07E2,4.79E2,8.064E3,1.5E1,1.92E2,3.6E1,4.43E2,8.94E2,7.17E3,8E0,7E0,1.69E2,2.3E1,2.4E1,1.2E1,8.1E1,3.62E2,7.24E2,1.7E2,4.95E3,2.22E3,2E0,6E0,6E0,1E0,1.39E2,3E1,8E0,1.5E1,1.2E1,1.2E1,2E0,1E1,4.8E1,3.3E1,2.97E2,6.5E1,7.02E2,2.2E1,1.58E2,1.2E1,1.87E2,4.763E3,1.58E3,6.4E2,3E0,3E0,9.9E1,4E1,6E0,2.4E1,1E0,7E0,4E0,1.1E1,1E0,1.1E1,1E0,9E0,1.5E1,3.3E1,9E0,2.4E1,3E0,2.94E2,2.7E1,3.8E1,5.81E2,1.21E2,1.8E1,4E0,1.52E2,6E0,6E0,6E0,1.51E2,3.6E1,3E1,4.733E3,7.33E2,8.47E2,4E1,6E2,1E0,2E0,3.4E1,6.5E1,7E0,3.3E1,2E0,4E0,7E0,1.7E1,6E0,1E0,1E0,1E1],"tree_param":{"num_deleted":"0","num_feature":"13","num_nodes":"99","size_leaf_vector":"0"}},{"base_weights":[-5.250813E-3,-5.3938646E-3,6.5054966E-4,-5.527865E-3,3.0411263E-6,-2.855405E-3,3.9865947E-3,-5.8676284E-3,-3.4883558E-3,-6.4515388E-3,1.1271363E-3,4.215526E-3,-3.7564575E-3,9.197579E-3,-9.377985E-5,-3.7365137E-3,-6.347676E-3,5.7293E-4,-3.6851428E-3,-1.6110446E-3,-2.016658E-2,1.8917611E-3,-3.8580291E-3,9.1983593E-4,2.2073733E-3,2.0692295E-3,-4.7539338E-3,-5.042851E-3,1.0283127E-2,1.1297583E-3,-5.184041E-3,-5.330642E-4,-4.2966413E-3,4.514457E-3,-6.4197197E-3,-5.144091E-3,1.7771274E-3,-7.2559984E-3,-3.4155364E-3,-3.8781876E-3,1.0694217E-2,-6.6112126E-3,-1.0606528E-3,3.0624433E-3,-2.8897568E-3,-7.607018E-3,-1.5080962E-3,1.9763906E-3,-8.1292394E-4,4.403614E-3,-1.4602907E-3,-5.0537144E-3,4.425148E-3,-1.8279195E-3,-2.8383138E-4,1.6351622E-2,6.90611E-3,-2.037927E-3,4.646331E-3,-3.5432756E-3,-2.6775734E-3,-1.1794103E-3,1.3146531E-3,-2.9568988E-4,-1.515211E-3,5.136676E-3,-1.223653E-3,-2.1315643E-3,-1.5842032E-3,1.2345449E-3,-2.9100648E-3,-1.2645751E-5,1.4970304E-3,-4.7551544E-5,-3.4108122E-3,-5.707977E-4,-1.2317664E-3,-1.6450882E-6,-3.051194E-3,-6.762855E-4,4.728544E-3,-2.649737E-4,1.2953244E-3,-2.6675093E-3,-3.280869E-4,2.0766222E-4,-2.6192842E-3,1.1174383E-3,-1.0688378E-3,1.0009736E-3,-7.2368234E-4,3.572915E-4,2.918399E-3,-8.902396E-4,-2.0571456E-3,1.6272628E-3,3.64054E-4,1.3750434E-3,5.342859E-3,1.1179188E-3,3.2332656E-3,-5.2489344E-5,-2.2007048E-3,8.2110305E-4,2.436854E-3,-1.7228824E-3,-1.6302722E-4],"categories":[],"categories_nodes":[],"categories_segments":[],"categories_sizes":[],"default_left":[0,0,0,0,0,0,0,0,0,0,0,0,0,0,0,0,0,0,0,0,0,0,0,0,0,0,0,0,0,0,0,0,0,0,0,0,0,0,0,0,0,0,0,0,0,0,0,0,0,0,0,0,0,0,0,0,0,0,0,0,0,0,0,0,0,0,0,0,0,0,0,0,0,0,0,0,0,0,0,0,0,0,0,0,0,0,0,0,0,0,0,0,0,0,0,0,0,0,0,0,0,0,0,0,0,0,0],"id":12,"left_children":[1,3,5,7,9,11,13,15,17,19,21,23,25,27,29,31,33,35,37,39,41,43,45,47,-1,49,51,53,55,57,59,61,63,65,67,69,71,73,75,77,79,-1,-1,81,83,85,87,89,-1,91,-1,93,95,-1,-1,97,99,101,103,-1,105,-1,-1,-1,-1,-1,-1,-1,-1,-1,-1,-1,-1,-1,-1,-1,-1,-1,-1,-1,-1,-1,-1,-1,-1,-1,-1,-1,-1,-1,-1,-1,-1,-1,-1,-1,-1,-1,-1,-1,-1,-1,-1,-1,-1,-1,-1],"loss_changes":[7.391095E-3,6.1789304E-3,2.4441562E-3,5.7566464E-3,1.5164287E-3,6.65706E-4,2.2759787E-3,7.285878E-3,9.5556583E-4,2.0255256E-3,6.857955E-4,1.17507836E-4,5.386367E-4,7.784143E-4,3.8577255E-4,2.3590643E-3,4.5912266E-3,3.9466933E-4,1.0707974E-3,7.11021E-4,1.7099339E-4,8.7648357E-4,1.9996482E-4,3.219948E-5,0E0,2.4814156E-4,2.369968E-4,1.1445161E-5,7.8878365E-4,5.6643866E-4,1.6769604E-4,3.307813E-3,2.7913284E-3,4.2951996E-3,4.4849217E-3,4.6178038E-4,2.7493938E-4,2.3045759E-3,1.0992708E-3,5.1168964E-4,2.980027E-4,0E0,0E0,6.2294374E-4,3.2446478E-4,8.999335E-5,1.8530266E-4,4.38652E-5,0E0,1.7657292E-4,0E0,2.655954E-4,3.0435076E-6,0E0,0E0,1.7572334E-4,3.291408E-4,2.6519352E-4,1.370745E-4,0E0,6.229867E-5,0E0,0E0,0E0,0E0,0E0,0E0,0E0,0E0,0E0,0E0,0E0,0E0,0E0,0E0,0E0,0E0,0E0,0E0,0E0,0E0,0E0,0E0,0E0,0E0,0E0,0E0,0E0,0E0,0E0,0E0,0E0,0E0,0E0,0E0,0E0,0E0,0E0,0E0,0E0,0E0,0E0,0E0,0E0,0E0,0E0,0E0],"parents":[2147483647,0,0,1,1,2,2,3,3,4,4,5,5,6,6,7,7,8,8,9,9,10,10,11,11,12,12,13,13,14,14,15,15,16,16,17,17,18,18,19,19,20,20,21,21,22,22,23,23,25,25,26,26,27,27,28,28,29,29,30,30,31,31,32,32,33,33,34,34,35,35,36,36,37,37,38,38,39,39,40,40,43,43,44,44,45,45,46,46,47,47,49,49,51,51,52,52,55,55,56,56,57,57,58,58,60,60],"right_children":[2,4,6,8,10,12,14,16,18,20,22,24,26,28,30,32,34,36,38,40,42,44,46,48,-1,50,52,54,56,58,60,62,64,66,68,70,72,74,76,78,80,-1,-1,82,84,86,88,90,-1,92,-1,94,96,-1,-1,98,100,102,104,-1,106,-1,-1,-1,-1,-1,-1,-1,-1,-1,-1,-1,-1,-1,-1,-1,-1,-1,-1,-1,-1,-1,-1,-1,-1,-1,-1,-1,-1,-1,-1,-1,-1,-1,-1,-1,-1,-1,-1,-1,-1,-1,-1,-1,-1,-1,-1],"split_conditions":[2.3537266E-1,2.3537266E-1,-7.742836E-2,1.2030825E-1,-1.1453001E-1,3.5251833E-2,1.9961421E-1,-1.0181002E-1,-5.368326E-2,-4.0979445E-2,1.2447304E-2,2.577997E-1,-1.7896841E-1,8.264879E-2,1.0332046E-1,-8.899875E-2,-2.1499895E-1,2.1548384E-1,8.612356E-2,-4.8473354E-2,7.3749376E-3,7.668406E-2,-6.1686236E-2,-2.3441447E-1,2.2073733E-3,-9.165909E-2,1.717036E-2,-8.225434E-2,-4.9717564E-2,2.577997E-1,8.066571E-2,3.9481085E-2,-7.007268E-2,-9.31686E-2,1.7201986E-2,8.8383675E-2,1.5041445E-1,-5.954179E-4,-6.0138106E-2,-1.5910684E-1,-6.1686236E-2,-6.6112126E-3,-1.0606528E-3,-4.97315E-2,-3.1234235E-2,-6.471957E-2,-3.7281215E-2,2.4920739E-1,-8.1292394E-4,2.4920739E-1,-1.4602907E-3,-1.6258E-1,-5.2225634E-2,-1.8279195E-3,-2.8383138E-4,9.83327E-2,3.6194198E-2,-1.279668E-1,6.555503E-2,-3.5432756E-3,7.112813E-2,-1.1794103E-3,1.3146531E-3,-2.9568988E-4,-1.515211E-3,5.136676E-3,-1.223653E-3,-2.1315643E-3,-1.5842032E-3,1.2345449E-3,-2.9100648E-3,-1.2645751E-5,1.4970304E-3,-4.7551544E-5,-3.4108122E-3,-5.707977E-4,-1.2317664E-3,-1.6450882E-6,-3.051194E-3,-6.762855E-4,4.728544E-3,-2.649737E-4,1.2953244E-3,-2.6675093E-3,-3.280869E-4,2.0766222E-4,-2.6192842E-3,1.1174383E-3,-1.0688378E-3,1.0009736E-3,-7.2368234E-4,3.572915E-4,2.918399E-3,-8.902396E-4,-2.0571456E-3,1.6272628E-3,3.64054E-4,1.3750434E-3,5.342859E-3,1.1179188E-3,3.2332656E-3,-5.2489344E-5,-2.2007048E-3,8.2110305E-4,2.436854E-3,-1.7228824E-3,-1.6302722E-4],"split_indices":[5,8,4,0,4,6,6,10,7,9,5,5,7,6,4,8,6,6,1,9,1,2,1,4,0,0,8,0,2,6,10,5,5,5,12,5,4,1,5,1,1,0,0,1,4,0,3,5,0,5,0,2,0,0,0,6,1,8,4,0,1,0,0,0,0,0,0,0,0,0,0,0,0,0,0,0,0,0,0,0,0,0,0,0,0,0,0,0,0,0,0,0,0,0,0,0,0,0,0,0,0,0,0,0,0,0,0],"split_type":[0,0,0,0,0,0,0,0,0,0,0,0,0,0,0,0,0,0,0,0,0,0,0,0,0,0,0,0,0,0,0,0,0,0,0,0,0,0,0,0,0,0,0,0,0,0,0,0,0,0,0,0,0,0,0,0,0,0,0,0,0,0,0,0,0,0,0,0,0,0,0,0,0,0,0,0,0,0,0,0,0,0,0,0,0,0,0,0,0,0,0,0,0,0,0,0,0,0,0,0,0,0,0,0,0,0,0],"sum_hessian":[8.75E3,8.543E3,2.07E2,8.336E3,2.07E2,1.01E2,1.06E2,7.144E3,1.192E3,3E1,1.77E2,1.1E1,9E1,4.6E1,6E1,1.315E3,5.829E3,5.5E1,1.137E3,2.3E1,7E0,1.54E2,2.3E1,6E0,5E0,1.3E1,7.7E1,3E0,4.3E1,4.9E1,1.1E1,1.96E2,1.119E3,3.8E1,5.791E3,9E0,4.6E1,7.8E1,1.059E3,2E1,3E0,6E0,1E0,1.24E2,3E1,8E0,1.5E1,5E0,1E0,1E1,3E0,7.5E1,2E0,2E0,1E0,1.4E1,2.9E1,2.6E1,2.3E1,2E0,9E0,1.16E2,8E1,2.08E2,9.11E2,1.5E1,2.3E1,3.612E3,2.179E3,3E0,6E0,3E1,1.6E1,2.9E1,4.9E1,3.33E2,7.26E2,1.3E1,7E0,1E0,2E0,3E1,9.4E1,6E0,2.4E1,1E0,7E0,4E0,1.1E1,4E0,1E0,7E0,3E0,3.6E1,3.9E1,1E0,1E0,2E0,1.2E1,1.7E1,1.2E1,2E1,6E0,1.6E1,7E0,3E0,6E0],"tree_param":{"num_deleted":"0","num_feature":"13","num_nodes":"107","size_leaf_vector":"0"}},{"base_weights":[-3.6768115E-3,-4.050514E-3,-1.9257105E-3,-3.2624844E-3,-5.449323E-3,-1.2395248E-3,-1.0929181E-2,-6.07665E-3,-1.5334854E-3,-2.2319285E-3,-7.9809595E-3,1.9059447E-3,-3.6202364E-3,-1.1598267E-2,2.4898376E-3,-8.24693E-3,-4.095562E-3,-2.1644766E-3,3.3609038E-3,-1.6734118E-4,-4.457332E-3,-5.7956865E-3,-9.838295E-3,4.9027186E-3,-1.2256941E-3,-1.3197921E-2,-2.17174E-3,-1.319288E-2,-6.031574E-3,-5.0567393E-4,4.998941E-3,-5.538579E-3,-1.06897205E-2,-4.1766168E-4,-4.9106902E-3,-5.038683E-4,-4.78411E-3,-5.835811E-3,6.877951E-3,-2.98474E-3,2.8666086E-3,-9.946762E-3,-2.616756E-3,-7.350214E-3,-3.407043E-3,-1.270377E-2,-5.4159123E-3,-1.3792866E-3,8.454837E-3,-1.8688231E-3,9.703938E-3,-1.022727E-2,-2.4876429E-2,-5.5706836E-3,-8.6480676E-4,-1.3601863E-2,5.5148976E-4,7.5877906E-4,-6.8859626E-3,1.7220632E-3,4.162699E-4,-1.810205E-3,2.890878E-3,3.9558418E-4,-3.4533045E-3,-2.1476755E-3,1.8747599E-3,-2.1346204E-3,-8.11396E-4,2.2661842E-4,-1.103403E-3,-3.0468584E-3,-5.9357483E-4,-1.1564812E-3,-3.1919188E-3,-8.643766E-4,3.105589E-3,-5.316395E-4,-2.9120045E-3,1.697822E-3,-1.9164728E-3,4.849137E-3,-3.2540422E-3,-1.3970393E-3,-4.9038377E-4,-1.994255E-3,-7.5531513E-3,-1.7495718E-3,8.1955496E-4,-1.2608861E-3,-4.316708E-3,-8.756926E-4,-2.0805856E-3,4.6225765E-4,-6.2848944E-3,3.5105513E-3,1.2084965E-3,-3.878842E-4,-3.9018143E-3,5.5076755E-3,5.428679E-4,-3.7103004E-3,-1.2280224E-3,-8.567216E-3,-6.279049E-4,-4.323724E-4,-4.29932E-3,2.4706344E-3,-4.2181398E-4,-3.5014972E-3,-5.8162375E-3,-3.3016189E-3,-1.1865715E-3],"categories":[],"categories_nodes":[],"categories_segments":[],"categories_sizes":[],"default_left":[0,0,0,0,0,0,0,0,0,0,0,0,0,0,0,0,0,0,0,0,0,0,0,0,0,0,0,0,0,0,0,0,0,0,0,0,0,0,0,0,0,0,0,0,0,0,0,0,0,0,0,0,0,0,0,0,0,0,0,0,0,0,0,0,0,0,0,0,0,0,0,0,0,0,0,0,0,0,0,0,0,0,0,0,0,0,0,0,0,0,0,0,0,0,0,0,0,0,0,0,0,0,0,0,0,0,0,0,0,0,0,0,0],"id":13,"left_children":[1,3,5,7,9,11,13,15,17,19,21,23,25,27,29,31,33,35,37,39,41,43,45,47,49,51,53,55,57,-1,59,61,63,65,67,69,71,73,75,77,79,81,83,85,87,89,91,93,95,97,99,101,103,105,107,109,-1,-1,111,-1,-1,-1,-1,-1,-1,-1,-1,-1,-1,-1,-1,-1,-1,-1,-1,-1,-1,-1,-1,-1,-1,-1,-1,-1,-1,-1,-1,-1,-1,-1,-1,-1,-1,-1,-1,-1,-1,-1,-1,-1,-1,-1,-1,-1,-1,-1,-1,-1,-1,-1,-1,-1,-1],"loss_changes":[5.7187825E-3,7.930927E-3,9.506832E-3,2.2445839E-2,2.1135457E-2,1.0737857E-2,1.0075318E-3,7.516168E-3,8.839861E-3,5.260003E-3,5.840391E-3,5.805824E-3,1.1291903E-2,8.436041E-4,7.128544E-5,5.4783337E-3,2.756074E-3,1.102096E-2,1.0617045E-2,5.094525E-3,5.541119E-3,2.46281E-3,9.866223E-3,7.0630205E-3,2.1479717E-3,3.4577083E-3,3.1491392E-3,5.1680487E-4,2.0027347E-4,0E0,2.7430797E-6,3.0579027E-3,4.3447614E-3,7.5951647E-3,3.643103E-3,6.206245E-3,1.4795214E-2,8.249362E-4,8.064979E-3,2.5014821E-3,7.454222E-3,3.4184158E-3,8.21884E-4,4.906051E-3,3.9756E-3,6.744407E-3,1.1558281E-3,6.604335E-3,2.8561847E-3,1.8239039E-3,1.128315E-3,1.0915883E-3,1.7013885E-3,7.1059163E-3,2.5432454E-3,6.447723E-4,0E0,0E0,2.3414835E-4,0E0,0E0,0E0,0E0,0E0,0E0,0E0,0E0,0E0,0E0,0E0,0E0,0E0,0E0,0E0,0E0,0E0,0E0,0E0,0E0,0E0,0E0,0E0,0E0,0E0,0E0,0E0,0E0,0E0,0E0,0E0,0E0,0E0,0E0,0E0,0E0,0E0,0E0,0E0,0E0,0E0,0E0,0E0,0E0,0E0,0E0,0E0,0E0,0E0,0E0,0E0,0E0,0E0,0E0],"parents":[2147483647,0,0,1,1,2,2,3,3,4,4,5,5,6,6,7,7,8,8,9,9,10,10,11,11,12,12,13,13,14,14,15,15,16,16,17,17,18,18,19,19,20,20,21,21,22,22,23,23,24,24,25,25,26,26,27,27,28,28,30,30,31,31,32,32,33,33,34,34,35,35,36,36,37,37,38,38,39,39,40,40,41,41,42,42,43,43,44,44,45,45,46,46,47,47,48,48,49,49,50,50,51,51,52,52,53,53,54,54,55,55,58,58],"right_children":[2,4,6,8,10,12,14,16,18,20,22,24,26,28,30,32,34,36,38,40,42,44,46,48,50,52,54,56,58,-1,60,62,64,66,68,70,72,74,76,78,80,82,84,86,88,90,92,94,96,98,100,102,104,106,108,110,-1,-1,112,-1,-1,-1,-1,-1,-1,-1,-1,-1,-1,-1,-1,-1,-1,-1,-1,-1,-1,-1,-1,-1,-1,-1,-1,-1,-1,-1,-1,-1,-1,-1,-1,-1,-1,-1,-1,-1,-1,-1,-1,-1,-1,-1,-1,-1,-1,-1,-1,-1,-1,-1,-1,-1,-1],"split_conditions":[9.3790956E-2,9.511704E-4,8.8383675E-2,0E0,-2.2244798E-2,-2.2285981E-2,2.1548384E-1,-1.1948857E-2,0E0,-4.0104374E-2,2.2320875E-3,1.8263872E-1,4.100506E-2,2.034178E-2,-1.0711527E-1,-7.590514E-2,-5.368326E-2,-3.871312E-2,-2.7613979E-2,-1.11179836E-1,-1.4148205E-2,7.112813E-2,5.5175055E-2,-1.0711125E-1,7.37047E-2,1.5041636E-1,4.5474702E-3,9.83327E-2,-1.1295576E-1,-5.0567393E-4,-6.471957E-2,-6.7475257E-3,-1.7896841E-1,-5.9023682E-2,5.5182245E-2,1.18158154E-1,4.249961E-2,-9.037633E-2,5.0697546E-2,-3.0278478E-2,7.870314E-2,-2.5478141E-2,1.03449814E-1,6.381563E-3,-5.9600286E-3,-2.7613979E-2,7.37047E-2,1.3616742E-2,-4.281378E-2,-1.0980847E-2,1.3026279E-1,4.9605224E-2,1.3616742E-2,-5.671941E-2,1.2030825E-1,-6.779426E-2,5.5148976E-4,7.5877906E-4,-6.471957E-2,1.7220632E-3,4.162699E-4,-1.810205E-3,2.890878E-3,3.9558418E-4,-3.4533045E-3,-2.1476755E-3,1.8747599E-3,-2.1346204E-3,-8.11396E-4,2.2661842E-4,-1.103403E-3,-3.0468584E-3,-5.9357483E-4,-1.1564812E-3,-3.1919188E-3,-8.643766E-4,3.105589E-3,-5.316395E-4,-2.9120045E-3,1.697822E-3,-1.9164728E-3,4.849137E-3,-3.2540422E-3,-1.3970393E-3,-4.9038377E-4,-1.994255E-3,-7.5531513E-3,-1.7495718E-3,8.1955496E-4,-1.2608861E-3,-4.316708E-3,-8.756926E-4,-2.0805856E-3,4.6225765E-4,-6.2848944E-3,3.5105513E-3,1.2084965E-3,-3.878842E-4,-3.9018143E-3,5.5076755E-3,5.428679E-4,-3.7103004E-3,-1.2280224E-3,-8.567216E-3,-6.279049E-4,-4.323724E-4,-4.29932E-3,2.4706344E-3,-4.2181398E-4,-3.5014972E-3,-5.8162375E-3,-3.3016189E-3,-1.1865715E-3],"split_indices":[5,5,8,8,8,11,5,9,5,7,6,5,6,7,1,0,6,6,7,7,7,8,0,0,4,5,4,6,4,0,0,7,8,8,12,7,9,10,8,4,6,9,1,9,0,7,7,6,8,9,6,8,6,8,6,2,0,0,4,0,0,0,0,0,0,0,0,0,0,0,0,0,0,0,0,0,0,0,0,0,0,0,0,0,0,0,0,0,0,0,0,0,0,0,0,0,0,0,0,0,0,0,0,0,0,0,0,0,0,0,0,0,0],"split_type":[0,0,0,0,0,0,0,0,0,0,0,0,0,0,0,0,0,0,0,0,0,0,0,0,0,0,0,0,0,0,0,0,0,0,0,0,0,0,0,0,0,0,0,0,0,0,0,0,0,0,0,0,0,0,0,0,0,0,0,0,0,0,0,0,0,0,0,0,0,0,0,0,0,0,0,0,0,0,0,0,0,0,0,0,0,0,0,0,0,0,0,0,0,0,0,0,0,0,0,0,0,0,0,0,0,0,0,0,0,0,0,0,0],"sum_hessian":[8.75E3,7.21E3,1.54E3,4.614E3,2.596E3,1.432E3,1.08E2,1.755E3,2.859E3,1.144E3,1.452E3,6.17E2,8.15E2,1.03E2,5E0,8.36E2,9.19E2,2.533E3,3.26E2,5.94E2,5.5E2,6.69E2,7.83E2,3.15E2,3.02E2,1.06E2,7.09E2,7.9E1,2.4E1,2E0,3E0,3.98E2,4.38E2,1.67E2,7.52E2,1.551E3,9.82E2,9E1,2.36E2,3.08E2,2.86E2,1.37E2,4.13E2,4.04E2,2.65E2,4.74E2,3.09E2,1.14E2,2.01E2,2.86E2,1.6E1,8.6E1,2E1,1.96E2,5.13E2,7.7E1,2E0,2E0,2.2E1,2E0,1E0,3.86E2,1.2E1,2.8E1,4.1E2,8.3E1,8.4E1,3.75E2,3.77E2,1.111E3,4.4E2,3.36E2,6.46E2,6.5E1,2.5E1,6.2E1,1.74E2,2.62E2,4.6E1,2.2E2,6.6E1,4E0,1.33E2,1.33E2,2.8E2,3.9E2,1.4E1,1.9E2,7.5E1,7.9E1,3.95E2,1.18E2,1.91E2,1E2,1.4E1,1.15E2,8.6E1,2.73E2,1.3E1,7E0,9E0,6.3E1,2.3E1,1.7E1,3E0,1.34E2,6.2E1,2.8E1,4.85E2,6E1,1.7E1,8E0,1.4E1],"tree_param":{"num_deleted":"0","num_feature":"13","num_nodes":"113","size_leaf_vector":"0"}},{"base_weights":[-2.5808313E-3,-7.896865E-4,-2.846039E-3,-7.2658462E-3,2.550227E-4,-2.1870276E-3,-3.6751118E-3,-9.7162E-3,-4.593841E-3,1.0955272E-3,-1.7707208E-3,-4.4719554E-3,-1.0757562E-3,-1.3869208E-3,-5.210086E-3,-4.48132E-3,-1.2872199E-2,-1.4376811E-2,-3.71479E-3,2.143671E-3,-1.0898772E-3,-4.7394843E-3,-1.9796395E-4,-6.1588073E-3,-1.8213853E-3,-1.5169164E-3,2.3461885E-3,-5.9735036E-4,-6.0016946E-3,-6.9041913E-3,-3.0271509E-3,-4.3203952E-4,-6.3022636E-3,-1.5108957E-2,-8.056352E-3,-4.833864E-3,-8.544708E-4,3.3148963E-3,-4.2888694E-3,1.1498111E-3,1.2149549E-2,-1.4311783E-2,-7.245921E-5,-8.907157E-3,-2.708528E-3,1.95959E-3,-3.5482445E-3,-4.5586685E-3,-9.64874E-3,7.5493213E-3,-2.3851949E-3,-4.6331354E-4,-3.6335823E-3,-3.3630796E-3,5.543081E-3,-4.673668E-3,5.403627E-4,-1.450631E-2,-2.3747375E-3,-4.4759625E-5,-7.602732E-3,-2.0155653E-3,-5.320106E-3,-6.496102E-4,4.1198844E-4,-2.432614E-3,-8.375934E-4,-2.6214484E-3,-5.0394256E-3,-1.8098876E-4,-2.5377837E-3,1.6068221E-3,2.865868E-4,-1.5850513E-3,-1.4657059E-4,2.6792873E-4,4.9055405E-3,2.83279E-4,5.5019204E-3,-6.679306E-3,-1.6957904E-3,-8.618787E-4,7.5694086E-4,-1.9552906E-3,-4.9530226E-3,-2.5399384E-4,-2.3500158E-3,1.1944317E-3,-3.821953E-4,-3.324247E-3,-6.1714393E-4,-1.7021687E-3,7.9264125E-4,-3.0138178E-3,5.666149E-3,-2.704655E-3,3.3244854E-3,1.6619208E-3,-9.4821054E-4,-5.2928017E-4,4.1406316E-4,-2.9314344E-3,-4.460644E-4,-3.186327E-3,-8.63828E-4,3.3283983E-3,-1.6742272E-4,-6.841073E-4,-2.7883882E-3,-7.052259E-4,6.0271064E-4,-7.9789717E-4,-4.8937374E-3,-4.1442845E-4,-3.3647548E-3,6.580547E-4,-9.035803E-4,-2.8576234E-3,-1.1744059E-3,-4.1620128E-4,-1.728608E-3,-1.2258195E-3,-2.5600297E-3],"categories":[],"categories_nodes":[],"categories_segments":[],"categories_sizes":[],"default_left":[0,0,0,0,0,0,0,0,0,0,0,0,0,0,0,0,0,0,0,0,0,0,0,0,0,0,0,0,0,0,0,0,0,0,0,0,0,0,0,0,0,0,0,0,0,0,0,0,0,0,0,0,0,0,0,0,0,0,0,0,0,0,0,0,0,0,0,0,0,0,0,0,0,0,0,0,0,0,0,0,0,0,0,0,0,0,0,0,0,0,0,0,0,0,0,0,0,0,0,0,0,0,0,0,0,0,0,0,0,0,0,0,0,0,0,0,0,0,0,0,0,0,0],"id":14,"left_children":[1,3,5,7,9,11,13,15,17,19,21,23,25,27,29,31,33,35,37,39,41,43,45,47,49,51,53,55,57,59,61,63,65,67,69,-1,-1,71,73,75,77,79,81,83,85,87,89,91,93,95,97,99,101,103,105,107,109,111,113,115,117,119,121,-1,-1,-1,-1,-1,-1,-1,-1,-1,-1,-1,-1,-1,-1,-1,-1,-1,-1,-1,-1,-1,-1,-1,-1,-1,-1,-1,-1,-1,-1,-1,-1,-1,-1,-1,-1,-1,-1,-1,-1,-1,-1,-1,-1,-1,-1,-1,-1,-1,-1,-1,-1,-1,-1,-1,-1,-1,-1,-1,-1],"loss_changes":[4.154697E-3,7.6470985E-3,4.1563846E-3,9.832997E-4,1.6603175E-3,1.0784147E-2,1.1843316E-2,1.2805387E-3,6.0877216E-4,1.5805725E-3,1.3344367E-3,6.2036384E-3,4.321089E-3,4.937257E-3,7.445611E-3,2.3322954E-4,4.168721E-4,7.4193114E-5,3.047802E-4,4.6201413E-3,3.012257E-3,8.138465E-4,1.3658943E-3,4.6971515E-3,2.881552E-3,5.649455E-3,5.987019E-3,5.377596E-3,6.073035E-3,5.44291E-3,2.0397333E-3,3.7395283E-5,1.1686608E-4,2.0833127E-4,4.8951246E-5,0E0,0E0,2.3781657E-5,2.506728E-4,1.6439946E-3,2.8959196E-3,9.759476E-4,1.5264458E-3,4.7374843E-4,6.4221566E-4,7.5691915E-4,8.083593E-4,4.7048246E-3,3.2056104E-3,1.9137757E-3,3.1641778E-3,4.062824E-3,1.1079798E-2,3.836397E-4,7.119113E-3,2.776831E-3,3.855938E-3,1.2190258E-3,1.2139804E-3,7.105902E-4,7.273458E-3,1.439489E-3,1.0357839E-3,0E0,0E0,0E0,0E0,0E0,0E0,0E0,0E0,0E0,0E0,0E0,0E0,0E0,0E0,0E0,0E0,0E0,0E0,0E0,0E0,0E0,0E0,0E0,0E0,0E0,0E0,0E0,0E0,0E0,0E0,0E0,0E0,0E0,0E0,0E0,0E0,0E0,0E0,0E0,0E0,0E0,0E0,0E0,0E0,0E0,0E0,0E0,0E0,0E0,0E0,0E0,0E0,0E0,0E0,0E0,0E0,0E0,0E0,0E0,0E0],"parents":[2147483647,0,0,1,1,2,2,3,3,4,4,5,5,6,6,7,7,8,8,9,9,10,10,11,11,12,12,13,13,14,14,15,15,16,16,17,17,18,18,19,19,20,20,21,21,22,22,23,23,24,24,25,25,26,26,27,27,28,28,29,29,30,30,31,31,32,32,33,33,34,34,37,37,38,38,39,39,40,40,41,41,42,42,43,43,44,44,45,45,46,46,47,47,48,48,49,49,50,50,51,51,52,52,53,53,54,54,55,55,56,56,57,57,58,58,59,59,60,60,61,61,62,62],"right_children":[2,4,6,8,10,12,14,16,18,20,22,24,26,28,30,32,34,36,38,40,42,44,46,48,50,52,54,56,58,60,62,64,66,68,70,-1,-1,72,74,76,78,80,82,84,86,88,90,92,94,96,98,100,102,104,106,108,110,112,114,116,118,120,122,-1,-1,-1,-1,-1,-1,-1,-1,-1,-1,-1,-1,-1,-1,-1,-1,-1,-1,-1,-1,-1,-1,-1,-1,-1,-1,-1,-1,-1,-1,-1,-1,-1,-1,-1,-1,-1,-1,-1,-1,-1,-1,-1,-1,-1,-1,-1,-1,-1,-1,-1,-1,-1,-1,-1,-1,-1,-1,-1,-1],"split_conditions":[-1.1450955E-1,-6.775525E-2,9.511704E-4,-4.578816E-4,-4.722523E-2,0E0,-4.0104374E-2,-4.7221743E-2,-6.0138106E-2,1.18158154E-1,8.066571E-2,1.3616742E-2,0E0,5.3794593E-2,3.2879137E-2,-1.0466782E-1,-5.0177216E-4,1.0758051E-2,-1.08287275E-1,3.827561E-2,-6.909038E-2,2.7617995E-2,2.35504E-1,-5.368326E-2,-1.7454434E-2,-2.2244798E-2,6.4842706E-3,3.832726E-2,1.5890567E-2,-1.4405742E-1,5.4014185E-3,-1.1780715E-1,-6.9211386E-2,-7.294112E-2,9.511704E-4,-4.833864E-3,-8.544708E-4,-1.1965703E-2,-7.8387484E-2,8.0650665E-2,-1.0049193E-1,2.0972541E-1,1.7612115E-1,2.7696764E-2,-1.2981343E-1,1.9557041E-1,2.4124481E-1,-1.1965703E-2,5.0689746E-2,-8.225434E-2,-5.2225634E-2,-1.7404202E-2,2.26821E-2,9.784114E-3,2.672187E-2,-8.372039E-2,-1.1780715E-1,6.447725E-2,1.4365599E-1,-1.5144776E-1,8.264879E-2,1.9571002E-1,2.7617995E-2,-6.496102E-4,4.1198844E-4,-2.432614E-3,-8.375934E-4,-2.6214484E-3,-5.0394256E-3,-1.8098876E-4,-2.5377837E-3,1.6068221E-3,2.865868E-4,-1.5850513E-3,-1.4657059E-4,2.6792873E-4,4.9055405E-3,2.83279E-4,5.5019204E-3,-6.679306E-3,-1.6957904E-3,-8.618787E-4,7.5694086E-4,-1.9552906E-3,-4.9530226E-3,-2.5399384E-4,-2.3500158E-3,1.1944317E-3,-3.821953E-4,-3.324247E-3,-6.1714393E-4,-1.7021687E-3,7.9264125E-4,-3.0138178E-3,5.666149E-3,-2.704655E-3,3.3244854E-3,1.6619208E-3,-9.4821054E-4,-5.2928017E-4,4.1406316E-4,-2.9314344E-3,-4.460644E-4,-3.186327E-3,-8.63828E-4,3.3283983E-3,-1.6742272E-4,-6.841073E-4,-2.7883882E-3,-7.052259E-4,6.0271064E-4,-7.9789717E-4,-4.8937374E-3,-4.1442845E-4,-3.3647548E-3,6.580547E-4,-9.035803E-4,-2.8576234E-3,-1.1744059E-3,-4.1620128E-4,-1.728608E-3,-1.2258195E-3,-2.5600297E-3],"split_indices":[8,5,5,9,7,8,7,3,6,6,2,0,5,1,0,12,0,0,7,12,3,5,4,6,7,6,7,5,4,9,8,5,6,6,0,0,0,0,5,4,7,5,5,4,8,1,0,3,1,5,6,1,0,8,3,3,7,6,2,0,8,6,5,0,0,0,0,0,0,0,0,0,0,0,0,0,0,0,0,0,0,0,0,0,0,0,0,0,0,0,0,0,0,0,0,0,0,0,0,0,0,0,0,0,0,0,0,0,0,0,0,0,0,0,0,0,0,0,0,0,0,0,0],"split_type":[0,0,0,0,0,0,0,0,0,0,0,0,0,0,0,0,0,0,0,0,0,0,0,0,0,0,0,0,0,0,0,0,0,0,0,0,0,0,0,0,0,0,0,0,0,0,0,0,0,0,0,0,0,0,0,0,0,0,0,0,0,0,0,0,0,0,0,0,0,0,0,0,0,0,0,0,0,0,0,0,0,0,0,0,0,0,0,0,0,0,0,0,0,0,0,0,0,0,0,0,0,0,0,0,0,0,0,0,0,0,0,0,0,0,0,0,0,0,0,0,0,0,0],"sum_hessian":[8.75E3,1.129E3,7.621E3,1.56E2,9.73E2,4.248E3,3.373E3,8E1,7.6E1,6.88E2,2.85E2,1.389E3,2.859E3,1.355E3,2.018E3,3.1E1,4.9E1,5E0,7.1E1,4.65E2,2.23E2,9.8E1,1.87E2,8.48E2,5.41E2,2.533E3,3.26E2,1.158E3,1.97E2,1.135E3,8.83E2,1E1,2.1E1,3.2E1,1.7E1,4E0,1E0,5E0,6.6E1,4.24E2,4.1E1,1.5E1,2.08E2,3.1E1,6.7E1,1.14E2,7.3E1,5.83E2,2.65E2,3E1,5.11E2,1.692E3,8.41E2,1.17E2,2.09E2,2.52E2,9.06E2,5.8E1,1.39E2,1.05E2,1.03E3,6.14E2,2.69E2,5E0,5E0,1.3E1,8E0,8E0,2.4E1,1E0,1.6E1,2E0,3E0,5.2E1,1.4E1,4.18E2,6E0,1.5E1,2.6E1,7E0,8E0,1E2,1.08E2,2.5E1,6E0,5E1,1.7E1,7E1,4.4E1,1.1E1,6.2E1,5.05E2,7.8E1,2.62E2,3E0,5E0,2.5E1,4.5E1,4.66E2,9.92E2,7E2,2.17E2,6.24E2,6E0,1.11E2,1.09E2,1E2,1.67E2,8.5E1,3.05E2,6.01E2,8E0,5E1,1.26E2,1.3E1,6E1,4.5E1,6.76E2,3.54E2,5.27E2,8.7E1,1.96E2,7.3E1],"tree_param":{"num_deleted":"0","num_feature":"13","num_nodes":"123","size_leaf_vector":"0"}},{"base_weights":[-1.8127679E-3,2.896105E-4,-1.9437233E-3,3.7388173E-3,-4.3167826E-4,6.2801028E-3,-1.9795776E-3,7.150603E-3,9.346123E-4,-2.3139447E-3,1.1226342E-3,1.0144809E-2,3.6657534E-3,-1.4031265E-4,-2.117685E-3,8.281741E-3,-2.4237125E-3,-2.995558E-3,2.8722088E-3,-1.4539673E-2,-1.7756664E-3,-3.8572918E-3,1.790824E-3,6.9700917E-3,3.4133636E-4,-5.331826E-4,8.508438E-3,-2.1705274E-3,2.8338805E-3,3.3901385E-3,1.0586287E-2,-1.8160746E-3,6.042182E-4,1.3010212E-3,-3.7248726E-3,4.050826E-3,-4.773936E-3,-1.4081768E-3,-5.852502E-3,2.7254953E-3,-2.6587455E-3,-8.664989E-3,3.2750543E-3,6.259144E-3,1.252685E-3,-2.0795034E-3,8.272182E-3,-3.2472955E-3,2.92022E-3,-9.5966825E-5,-5.9587155E-3,-8.4341376E-4,1.7205795E-2,-2.7600017E-3,-1.6466787E-3,-5.63471E-3,3.839133E-3,1.2009251E-3,3.7886205E-6,3.6898432E-3,4.848799E-4,-1.5090054E-3,-2.1338837E-4,5.849384E-4,2.620977E-3,-2.8118046E-4,-1.6496357E-3,1.6101251E-3,-2.1294313E-3,-1.1728385E-3,4.4084666E-4,-4.7506797E-3,-1.7991948E-3,1.0708972E-3,5.1632524E-6,2.9665863E-3,-2.4650495E-5,1.2190293E-3,3.193514E-6,9.34127E-4,3.1001556E-3,8.915514E-5,-1.3434958E-3,1.2437403E-3,-7.829927E-5,-1.5817961E-4,1.0898744E-3,-2.7866724E-3,-2.132585E-4,8.557397E-4,-1.3256416E-3,5.6511257E-3,2.6478367E-3,-9.994094E-4,-3.5151132E-4,-1.0917569E-3,-3.8024446E-4,2.7244093E-4,-2.2901488E-3,2.1180059E-3,2.5504644E-4],"categories":[],"categories_nodes":[],"categories_segments":[],"categories_sizes":[],"default_left":[0,0,0,0,0,0,0,0,0,0,0,0,0,0,0,0,0,0,0,0,0,0,0,0,0,0,0,0,0,0,0,0,0,0,0,0,0,0,0,0,0,0,0,0,0,0,0,0,0,0,0,0,0,0,0,0,0,0,0,0,0,0,0,0,0,0,0,0,0,0,0,0,0,0,0,0,0,0,0,0,0,0,0,0,0,0,0,0,0,0,0,0,0,0,0,0,0,0,0,0,0],"id":15,"left_children":[1,3,5,7,9,11,13,15,17,19,21,-1,23,25,27,29,31,33,35,37,39,41,43,45,47,49,51,53,55,57,59,-1,-1,-1,61,63,65,-1,-1,67,69,71,73,75,77,-1,79,81,83,85,87,89,91,93,95,97,99,-1,-1,-1,-1,-1,-1,-1,-1,-1,-1,-1,-1,-1,-1,-1,-1,-1,-1,-1,-1,-1,-1,-1,-1,-1,-1,-1,-1,-1,-1,-1,-1,-1,-1,-1,-1,-1,-1,-1,-1,-1,-1,-1,-1],"loss_changes":[2.409866E-3,1.2803812E-3,2.4414938E-3,8.4481086E-4,1.248916E-3,2.4676262E-3,2.0833984E-3,4.5326725E-4,3.893581E-4,1.2442854E-3,7.8555115E-4,0E0,3.7111077E-4,1.9548933E-3,2.0025559E-3,3.6993623E-4,9.273497E-5,1.0706211E-4,3.2574224E-4,2.9979122E-4,7.465744E-4,9.88503E-4,4.899068E-4,3.6506326E-4,1.7606677E-4,1.3040989E-3,2.0479215E-3,2.326861E-3,7.111914E-4,2.6862399E-5,3.4893723E-4,0E0,0E0,0E0,5.9352707E-5,2.7831347E-4,8.751202E-6,0E0,0E0,8.4254314E-4,8.1121165E-4,2.3021922E-4,1.1455806E-5,5.0715666E-4,6.4929354E-4,0E0,1.3798242E-4,3.6237587E-5,4.3969296E-5,8.221288E-4,7.0992764E-4,1.8438927E-4,1.1447351E-5,3.2186043E-3,3.0176053E-3,1.2465188E-4,6.967803E-4,0E0,0E0,0E0,0E0,0E0,0E0,0E0,0E0,0E0,0E0,0E0,0E0,0E0,0E0,0E0,0E0,0E0,0E0,0E0,0E0,0E0,0E0,0E0,0E0,0E0,0E0,0E0,0E0,0E0,0E0,0E0,0E0,0E0,0E0,0E0,0E0,0E0,0E0,0E0,0E0,0E0,0E0,0E0,0E0],"parents":[2147483647,0,0,1,1,2,2,3,3,4,4,5,5,6,6,7,7,8,8,9,9,10,10,12,12,13,13,14,14,15,15,16,16,17,17,18,18,19,19,20,20,21,21,22,22,23,23,24,24,25,25,26,26,27,27,28,28,29,29,30,30,34,34,35,35,36,36,39,39,40,40,41,41,42,42,43,43,44,44,46,46,47,47,48,48,49,49,50,50,51,51,52,52,53,53,54,54,55,55,56,56],"right_children":[2,4,6,8,10,12,14,16,18,20,22,-1,24,26,28,30,32,34,36,38,40,42,44,46,48,50,52,54,56,58,60,-1,-1,-1,62,64,66,-1,-1,68,70,72,74,76,78,-1,80,82,84,86,88,90,92,94,96,98,100,-1,-1,-1,-1,-1,-1,-1,-1,-1,-1,-1,-1,-1,-1,-1,-1,-1,-1,-1,-1,-1,-1,-1,-1,-1,-1,-1,-1,-1,-1,-1,-1,-1,-1,-1,-1,-1,-1,-1,-1,-1,-1,-1,-1],"split_conditions":[-1.5144776E-1,-3.7109386E-2,-2.3441447E-1,-1.7896841E-1,4.9605224E-2,-1.9721068E-1,-1.4632444E-1,2.034178E-2,3.7971844E-3,-7.1538925E-2,-2.3441447E-1,1.0144809E-2,2.4788428E-2,-5.9023682E-2,2.4920739E-1,-7.592284E-2,-5.7939827E-2,-2.3441447E-1,1.71825E-2,-4.5495614E-2,-2.1499895E-1,2.577997E-1,-2.0423356E-1,-1.7537986E-1,2.3774877E-2,1.6967918E-1,-9.165909E-2,9.511704E-4,-1.7132553E-1,-1.8362255E-1,1.8173872E-2,-1.8160746E-3,6.042182E-4,1.3010212E-3,-8.67231E-3,-1.4893694E-1,-8.4757276E-2,-1.4081768E-3,-5.852502E-3,3.9481085E-2,1.1502191E-1,2.3537266E-1,1.1502191E-1,2.3537266E-1,1.1215302E-1,-2.0795034E-3,9.784114E-3,2.9623395E-2,4.4680893E-2,8.8383675E-2,4.4680893E-2,-5.368326E-2,-4.5495614E-2,9.83327E-2,-2.9041776E-2,-1.8927096E-1,1.9571002E-1,1.2009251E-3,3.7886205E-6,3.6898432E-3,4.848799E-4,-1.5090054E-3,-2.1338837E-4,5.849384E-4,2.620977E-3,-2.8118046E-4,-1.6496357E-3,1.6101251E-3,-2.1294313E-3,-1.1728385E-3,4.4084666E-4,-4.7506797E-3,-1.7991948E-3,1.0708972E-3,5.1632524E-6,2.9665863E-3,-2.4650495E-5,1.2190293E-3,3.193514E-6,9.34127E-4,3.1001556E-3,8.915514E-5,-1.3434958E-3,1.2437403E-3,-7.829927E-5,-1.5817961E-4,1.0898744E-3,-2.7866724E-3,-2.132585E-4,8.557397E-4,-1.3256416E-3,5.6511257E-3,2.6478367E-3,-9.994094E-4,-3.5151132E-4,-1.0917569E-3,-3.8024446E-4,2.7244093E-4,-2.2901488E-3,2.1180059E-3,2.5504644E-4],"split_indices":[8,1,6,8,5,5,2,4,5,9,8,0,5,4,5,10,2,7,3,0,8,0,8,0,8,8,7,7,3,8,10,0,0,0,5,7,9,0,0,6,1,6,5,6,6,0,8,5,5,8,7,8,5,5,4,3,6,0,0,0,0,0,0,0,0,0,0,0,0,0,0,0,0,0,0,0,0,0,0,0,0,0,0,0,0,0,0,0,0,0,0,0,0,0,0,0,0,0,0,0,0],"split_type":[0,0,0,0,0,0,0,0,0,0,0,0,0,0,0,0,0,0,0,0,0,0,0,0,0,0,0,0,0,0,0,0,0,0,0,0,0,0,0,0,0,0,0,0,0,0,0,0,0,0,0,0,0,0,0,0,0,0,0,0,0,0,0,0,0,0,0,0,0,0,0,0,0,0,0,0,0,0,0,0,0,0,0,0,0,0,0,0,0,0,0,0,0,0,0,0,0,0,0,0,0],"sum_hessian":[8.75E3,5.13E2,8.237E3,8.8E1,4.25E2,3.5E1,8.202E3,3.9E1,4.9E1,1.92E2,2.33E2,2E0,3.3E1,5.73E2,7.629E3,3.5E1,4E0,1.6E1,3.3E1,7E0,1.85E2,2.7E1,2.06E2,1.6E1,1.7E1,5.49E2,2.4E1,7.549E3,8E1,1.2E1,2.3E1,2E0,2E0,1E0,1.5E1,2.9E1,4E0,3E0,4E0,3E1,1.55E2,1.6E1,1.1E1,2.1E1,1.85E2,1E0,1.5E1,7E0,1E1,5.09E2,4E1,1.2E1,1.2E1,3.55E3,3.999E3,8E0,7.2E1,1E1,2E0,1.9E1,4E0,1E1,5E0,2.1E1,8E0,1E0,3E0,2.4E1,6E0,1.19E2,3.6E1,3E0,1.3E1,1E1,1E0,1.3E1,8E0,5.6E1,1.29E2,5E0,1E1,2E0,5E0,7E0,3E0,4.57E2,5.2E1,2.4E1,1.6E1,6E0,6E0,9E0,3E0,2.61E3,9.4E2,6.38E2,3.361E3,2E0,6E0,3.4E1,3.8E1],"tree_param":{"num_deleted":"0","num_feature":"13","num_nodes":"101","size_leaf_vector":"0"}},{"base_weights":[-1.2677363E-3,-8.83259E-3,-1.2363454E-3,2.531079E-3,-1.2169749E-2,-1.2999997E-3,1.990591E-3,-9.438523E-3,1.3994466E-2,-1.5191026E-2,-9.357706E-4,-6.7726325E-4,-1.6285542E-3,-5.069876E-3,2.8136028E-3,-2.3304207E-4,-3.4229252E-3,1.2254181E-3,4.6352157E-3,-8.561459E-3,-1.9122152E-2,-1.3028288E-3,1.2955784E-3,-8.538152E-4,3.3252903E-3,-9.566482E-3,-1.530615E-3,-1.6049594E-4,-9.9614225E-3,3.634683E-3,-2.4814543E-3,-7.355528E-4,-2.934715E-3,-6.003751E-3,-1.2656909E-3,1.0553286E-3,-4.1822346E-5,-7.1262167E-4,-6.330439E-3,1.288881E-2,8.055224E-4,-1.3333426E-2,-2.554001E-3,3.003608E-3,-1.6463991E-3,-2.5974612E-3,2.7959615E-3,-1.1068121E-2,-1.6617627E-4,-1.3858221E-3,4.439551E-3,6.106427E-4,-6.672099E-3,-2.3782924E-4,2.7892524E-3,-8.217784E-4,-4.804427E-3,-5.2688767E-5,5.6114956E-3,-1.658024E-3,8.306266E-4,-1.7150879E-3,-5.009164E-3,-2.5019269E-3,2.0875824E-3,2.4408693E-3,-6.740793E-4,-2.4183213E-3,-4.338373E-4,-1.359737E-3,2.545059E-4,9.545401E-4,1.8789098E-4,-3.6135297E-3,-6.343916E-4,-8.981634E-4,1.6178571E-3,2.658224E-3,7.34935E-4,1.3185844E-3,-6.9124997E-4,-2.2993742E-3,-6.3968304E-4],"categories":[],"categories_nodes":[],"categories_segments":[],"categories_sizes":[],"default_left":[0,0,0,0,0,0,0,0,0,0,0,0,0,0,0,0,0,0,0,0,0,0,0,0,0,0,0,0,0,0,0,0,0,0,0,0,0,0,0,0,0,0,0,0,0,0,0,0,0,0,0,0,0,0,0,0,0,0,0,0,0,0,0,0,0,0,0,0,0,0,0,0,0,0,0,0,0,0,0,0,0,0,0],"id":16,"left_children":[1,3,5,7,9,11,13,15,17,19,21,23,25,27,29,-1,-1,-1,-1,31,33,-1,35,37,39,41,43,45,47,49,51,-1,-1,-1,-1,-1,-1,53,55,57,59,61,63,65,67,69,71,73,-1,75,77,79,81,-1,-1,-1,-1,-1,-1,-1,-1,-1,-1,-1,-1,-1,-1,-1,-1,-1,-1,-1,