{"learner":{"attributes":{"best_iteration":"99","best_ntree_limit":"100","scikit_learn":"{\"n_estimators\": 100, \"objective\": null, \"max_depth\": null, \"max_leaves\": null, \"max_bin\": null, \"grow_policy\": null, \"learning_rate\": null, \"verbosity\": null, \"booster\": null, \"tree_method\": null, \"gamma\": null, \"min_child_weight\": null, \"max_delta_step\": null, \"subsample\": null, \"sampling_method\": null, \"colsample_bytree\": null, \"colsample_bylevel\": null, \"colsample_bynode\": null, \"reg_alpha\": null, \"reg_lambda\": null, \"scale_pos_weight\": null, \"base_score\": null, \"missing\": NaN, \"num_parallel_tree\": null, \"random_state\": null, \"n_jobs\": null, \"monotone_constraints\": null, \"interaction_constraints\": null, \"importance_type\": null, \"gpu_id\": null, \"validate_parameters\": null, \"predictor\": null, \"enable_categorical\": false, \"feature_types\": null, \"max_cat_to_onehot\": null, \"max_cat_threshold\": null, \"eval_metric\": null, \"early_stopping_rounds\": null, \"callbacks\": null, \"_estimator_type\": \"regressor\"}"},"feature_names":["0"],"feature_types":["float"],"gradient_booster":{"model":{"gbtree_model_param":{"num_parallel_tree":"1","num_trees":"100","size_leaf_vector":"0"},"tree_info":[0,0,0,0,0,0,0,0,0,0,0,0,0,0,0,0,0,0,0,0,0,0,0,0,0,0,0,0,0,0,0,0,0,0,0,0,0,0,0,0,0,0,0,0,0,0,0,0,0,0,0,0,0,0,0,0,0,0,0,0,0,0,0,0,0,0,0,0,0,0,0,0,0,0,0,0,0,0,0,0,0,0,0,0,0,0,0,0,0,0,0,0,0,0,0,0,0,0,0,0],"trees":[{"base_weights":[-3.723216E-1,-3.8861623E-1,-2.9161292E-1,-3.2301018E-1,-4.0281582E-1,-3.122329E-1,-2.4839489E-1,-2.8659788E-1,-3.3952186E-1,-4.0655178E-1,-1.06563374E-1,-9.649401E-2,-8.995418E-2,-8.066345E-2,-2.2705446E-1,-6.361473E-2,-8.7886915E-2,-9.748226E-2,-1.0539724E-1,-1.1588507E-1,-4.1498962E-1,-6.97732E-2,-5.669729E-2,-1.2783644E-1,-1.20001785E-1],"categories":[],"categories_nodes":[],"categories_segments":[],"categories_sizes":[],"default_left":[0,0,0,0,0,0,0,0,0,0,0,0,0,0,0,0,0,0,0,0,0,0,0,0,0],"id":0,"left_children":[1,3,5,7,9,11,13,15,17,19,-1,-1,-1,-1,21,-1,-1,-1,-1,-1,23,-1,-1,-1,-1],"loss_changes":[1.1395264E1,6.6499023E0,1.2360153E0,6.8429565E-1,9.1900635E-1,1.9447327E-2,1.4920616E-1,1.331749E-1,3.882599E-2,7.866211E-1,0E0,0E0,0E0,0E0,6.9179535E-3,0E0,0E0,0E0,0E0,0E0,4.7937012E-1,0E0,0E0,0E0,0E0],"parents":[2147483647,0,0,1,1,2,2,3,3,4,4,5,5,6,6,7,7,8,8,9,9,14,14,20,20],"right_children":[2,4,6,8,10,12,14,16,18,20,-1,-1,-1,-1,22,-1,-1,-1,-1,-1,24,-1,-1,-1,-1],"split_conditions":[9.823151E-2,-1.0711527E-1,1.9172728E-1,-1.6253974E-1,7.240292E-2,1.477646E-1,2.2677633E-1,-2.3441447E-1,-1.2981343E-1,-4.106347E-2,-1.06563374E-1,-9.649401E-2,-8.995418E-2,-8.066345E-2,2.8383702E-1,-6.361473E-2,-8.7886915E-2,-9.748226E-2,-1.0539724E-1,-1.1588507E-1,1.4774188E-2,-6.97732E-2,-5.669729E-2,-1.2783644E-1,-1.20001785E-1],"split_indices":[0,0,0,0,0,0,0,0,0,0,0,0,0,0,0,0,0,0,0,0,0,0,0,0,0],"split_type":[0,0,0,0,0,0,0,0,0,0,0,0,0,0,0,0,0,0,0,0,0,0,0,0,0],"sum_hessian":[8.75E3,7.277E3,1.473E3,1.299E3,5.978E3,9.93E2,4.8E2,4.11E2,8.88E2,5.536E3,4.42E2,5.5E2,4.43E2,2.39E2,2.41E2,3.5E1,3.76E2,4.1E2,4.78E2,1.641E3,3.895E3,2.06E2,3.5E1,2.219E3,1.676E3],"tree_param":{"num_deleted":"0","num_feature":"1","num_nodes":"25","size_leaf_vector":"0"}},{"base_weights":[-2.6076433E-1,-2.7283478E-1,-2.0705752E-1,-2.3217988E-1,-2.8492033E-1,-2.2245897E-1,-1.770528E-1,-2.081338E-1,-7.392421E-2,-2.8897107E-1,-2.6543397E-1,-7.012266E-2,-6.475875E-2,-5.575263E-2,-4.482058E-2,-5.2445672E-2,-6.515699E-2,-8.260135E-2,-2.9609194E-1,-8.061091E-2,-7.315751E-2,-9.046941E-2,-8.5923806E-2],"categories":[],"categories_nodes":[],"categories_segments":[],"categories_sizes":[],"default_left":[0,0,0,0,0,0,0,0,0,0,0,0,0,0,0,0,0,0,0,0,0,0,0],"id":1,"left_children":[1,3,5,7,9,11,13,15,-1,17,19,-1,-1,-1,-1,-1,-1,-1,21,-1,-1,-1,-1],"loss_changes":[5.616455E0,3.4429932E0,7.0462036E-1,5.107193E-1,3.5751343E-1,2.8438568E-2,1.0614586E-1,1.4818382E-1,0E0,3.595276E-1,2.1209717E-3,0E0,0E0,0E0,0E0,0E0,0E0,0E0,7.1014404E-2,0E0,0E0,0E0,0E0],"parents":[2147483647,0,0,1,1,2,2,3,3,4,4,5,5,6,6,7,7,9,9,10,10,18,18],"right_children":[2,4,6,8,10,12,14,16,-1,18,20,-1,-1,-1,-1,-1,-1,-1,22,-1,-1,-1,-1],"split_conditions":[8.820364E-2,-9.322299E-2,1.8255456E-1,-1.4405264E-1,4.8496377E-2,1.1817056E-1,2.4933548E-1,-1.9733149E-1,-7.392421E-2,-3.1288195E-2,8.0650665E-2,-7.012266E-2,-6.475875E-2,-5.575263E-2,-4.482058E-2,-5.2445672E-2,-6.515699E-2,-8.260135E-2,1.2447304E-2,-8.061091E-2,-7.315751E-2,-9.046941E-2,-8.5923806E-2],"split_indices":[0,0,0,0,0,0,0,0,0,0,0,0,0,0,0,0,0,0,0,0,0,0,0],"split_type":[0,0,0,0,0,0,0,0,0,0,0,0,0,0,0,0,0,0,0,0,0,0,0],"sum_hessian":[8.75E3,7.141E3,1.609E3,1.641E3,5.5E3,1.059E3,5.5E2,6.16E2,1.025E3,4.542E3,9.58E2,3.78E2,6.81E2,4.13E2,1.37E2,1.36E2,4.8E2,1.572E3,2.97E3,8.22E2,1.36E2,1.878E3,1.092E3],"tree_param":{"num_deleted":"0","num_feature":"1","num_nodes":"23","size_leaf_vector":"0"}},{"base_weights":[-1.8263099E-1,-1.9106896E-1,-1.450865E-1,-1.6030109E-1,-1.9900791E-1,-1.5402333E-1,-1.1881192E-1,-1.3306943E-1,-1.6640064E-1,-2.0092453E-1,-5.419283E-2,-4.7815062E-2,-4.33685E-2,-3.858365E-2,-1.0853469E-1,-3.307096E-2,-4.210916E-2,-4.7301237E-2,-5.2313566E-2,-5.56694E-2,-2.0410639E-1,-3.4175422E-2,-2.896277E-2,-2.0701224E-1,-5.9054483E-2,-5.9504755E-2,-6.362999E-2],"categories":[],"categories_nodes":[],"categories_segments":[],"categories_sizes":[],"default_left":[0,0,0,0,0,0,0,0,0,0,0,0,0,0,0,0,0,0,0,0,0,0,0,0,0,0,0],"id":2,"left_children":[1,3,5,7,9,11,13,15,17,19,-1,-1,-1,-1,21,-1,-1,-1,-1,-1,23,-1,-1,25,-1,-1,-1],"loss_changes":[2.7445984E0,1.7126465E0,3.5974503E-1,2.2202682E-1,1.6337585E-1,3.7715912E-2,2.7637959E-2,3.0162811E-2,5.5870056E-2,2.1273804E-1,0E0,0E0,0E0,0E0,2.4302006E-3,0E0,0E0,0E0,0E0,0E0,4.864502E-2,0E0,0E0,9.04541E-2,0E0,0E0,0E0],"parents":[2147483647,0,0,1,1,2,2,3,3,4,4,5,5,6,6,7,7,8,8,9,9,14,14,20,20,23,23],"right_children":[2,4,6,8,10,12,14,16,18,20,-1,-1,-1,-1,22,-1,-1,-1,-1,-1,24,-1,-1,26,-1,-1,-1],"split_conditions":[8.820364E-2,-1.004929E-1,1.9961421E-1,-1.7537986E-1,6.312929E-2,1.5331115E-1,2.3537266E-1,-2.1474443E-1,-1.2799354E-1,-6.471957E-2,-5.419283E-2,-4.7815062E-2,-4.33685E-2,-3.858365E-2,2.685919E-1,-3.307096E-2,-4.210916E-2,-4.7301237E-2,-5.2313566E-2,-5.56694E-2,2.1521095E-2,-3.4175422E-2,-2.896277E-2,-2.2285981E-2,-5.9054483E-2,-5.9504755E-2,-6.362999E-2],"split_indices":[0,0,0,0,0,0,0,0,0,0,0,0,0,0,0,0,0,0,0,0,0,0,0,0,0,0,0],"split_type":[0,0,0,0,0,0,0,0,0,0,0,0,0,0,0,0,0,0,0,0,0,0,0,0,0,0,0],"sum_hessian":[8.75E3,7.141E3,1.609E3,1.469E3,5.672E3,1.197E3,4.12E2,2.73E2,1.196E3,5.127E3,5.45E2,7.54E2,4.43E2,2.05E2,2.07E2,7E1,2.03E2,5.81E2,6.15E2,8.9E2,4.237E3,1.37E2,7E1,3.006E3,1.231E3,1.127E3,1.879E3],"tree_param":{"num_deleted":"0","num_feature":"1","num_nodes":"27","size_leaf_vector":"0"}},{"base_weights":[-1.2791708E-1,-1.332442E-1,-9.8251075E-2,-1.09423E-1,-1.3781615E-1,-1.03871524E-1,-7.939309E-2,-8.966725E-2,-1.13431066E-1,-1.3991535E-1,-1.2382661E-1,-3.2177556E-2,-2.9035171E-2,-2.4406957E-2,-1.8640444E-2,-2.0118084E-2,-2.8163288E-2,-3.2764364E-2,-3.5719287E-2,-3.8293123E-2,-1.4275844E-1,-3.878554E-2,-3.542403E-2,-1.4401712E-1,-4.0292375E-2,-4.163478E-2,-4.397324E-2],"categories":[],"categories_nodes":[],"categories_segments":[],"categories_sizes":[],"default_left":[0,0,0,0,0,0,0,0,0,0,0,0,0,0,0,0,0,0,0,0,0,0,0,0,0,0,0],"id":3,"left_children":[1,3,5,7,9,11,13,15,17,19,21,-1,-1,-1,-1,-1,-1,-1,-1,-1,23,-1,-1,25,-1,-1,-1],"loss_changes":[1.369873E0,7.925873E-1,1.3335514E-1,8.4768295E-2,1.6527557E-1,1.4249802E-2,5.483389E-3,1.3407588E-2,1.0582924E-2,1.7014313E-1,1.04551315E-2,0E0,0E0,0E0,0E0,0E0,0E0,0E0,0E0,0E0,2.7198792E-2,0E0,0E0,3.0509949E-2,0E0,0E0,0E0],"parents":[2147483647,0,0,1,1,2,2,3,3,4,4,5,5,6,6,7,7,8,8,9,9,10,10,20,20,23,23],"right_children":[2,4,6,8,10,12,14,16,18,20,22,-1,-1,-1,-1,-1,-1,-1,-1,-1,24,-1,-1,26,-1,-1,-1],"split_conditions":[1.0940281E-1,-1.1116959E-1,2.1544984E-1,-1.8360241E-1,6.312929E-2,1.7354615E-1,2.8383702E-1,-2.3441447E-1,-1.3214025E-1,-7.007406E-2,8.0650665E-2,-3.2177556E-2,-2.9035171E-2,-2.4406957E-2,-1.8640444E-2,-2.0118084E-2,-2.8163288E-2,-3.2764364E-2,-3.5719287E-2,-3.8293123E-2,4.250815E-2,-3.878554E-2,-3.542403E-2,-2.2285981E-2,-4.0292375E-2,-4.163478E-2,-4.397324E-2],"split_indices":[0,0,0,0,0,0,0,0,0,0,0,0,0,0,0,0,0,0,0,0,0,0,0,0,0,0,0],"split_type":[0,0,0,0,0,0,0,0,0,0,0,0,0,0,0,0,0,0,0,0,0,0,0,0,0,0,0],"sum_hessian":[8.75E3,7.415E3,1.335E3,1.198E3,6.217E3,1.025E3,3.1E2,2.06E2,9.92E2,5.398E3,8.19E2,6.84E2,3.41E2,2.75E2,3.5E1,3.5E1,1.71E2,5.79E2,4.13E2,1.024E3,4.374E3,4.09E2,4.1E2,3.793E3,5.81E2,1.264E3,2.529E3],"tree_param":{"num_deleted":"0","num_feature":"1","num_nodes":"27","size_leaf_vector":"0"}},{"base_weights":[-8.959446E-2,-9.3318835E-2,-6.885378E-2,-8.050236E-2,-9.7551994E-2,-7.2528265E-2,-5.447885E-2,-6.739285E-2,-8.3818614E-2,-9.9939026E-2,-8.9074686E-2,-2.2435369E-2,-2.0022942E-2,-1.7061688E-2,-4.6767183E-2,-5.6450877E-2,-2.1369629E-2,-2.3575773E-2,-2.6047688E-2,-2.8735625E-2,-1.020324E-1,-2.7638648E-2,-2.4822678E-2,-1.4117496E-2,-3.9581493E-3,-1.4250307E-2,-1.8107664E-2,-1.05408415E-1,-2.9166538E-2,-3.0899292E-2,-3.402872E-2],"categories":[],"categories_nodes":[],"categories_segments":[],"categories_sizes":[],"default_left":[0,0,0,0,0,0,0,0,0,0,0,0,0,0,0,0,0,0,0,0,0,0,0,0,0,0,0,0,0,0,0],"id":4,"left_children":[1,3,5,7,9,11,13,15,17,19,21,-1,-1,-1,23,25,-1,-1,-1,-1,27,-1,-1,-1,-1,-1,-1,29,-1,-1,-1],"loss_changes":[6.6955566E-1,3.9450073E-1,6.661701E-2,7.464886E-2,1.0380554E-1,8.857727E-3,2.4345517E-3,1.1858225E-2,1.6306877E-2,2.7946472E-2,1.6223907E-2,0E0,0E0,0E0,7.3090196E-5,7.354021E-4,0E0,0E0,0E0,0E0,3.6346436E-2,0E0,0E0,0E0,0E0,0E0,0E0,2.0683289E-2,0E0,0E0,0E0],"parents":[2147483647,0,0,1,1,2,2,3,3,4,4,5,5,6,6,7,7,8,8,9,9,10,10,14,14,15,15,20,20,27,27],"right_children":[2,4,6,8,10,12,14,16,18,20,22,-1,-1,-1,24,26,-1,-1,-1,-1,28,-1,-1,-1,-1,-1,-1,30,-1,-1,-1],"split_conditions":[1.0940281E-1,-8.4773265E-2,2.2002923E-1,-1.656761E-1,4.8496377E-2,1.7917189E-1,2.685919E-1,-2.0481834E-1,-1.24543644E-1,-2.7613979E-2,8.0650665E-2,-2.2435369E-2,-2.0022942E-2,-1.7061688E-2,3.0591294E-1,-2.3441447E-1,-2.1369629E-2,-2.3575773E-2,-2.6047688E-2,-2.8735625E-2,9.8187225E-3,-2.7638648E-2,-2.4822678E-2,-1.4117496E-2,-3.9581493E-3,-1.4250307E-2,-1.8107664E-2,8.4109313E-4,-2.9166538E-2,-3.0899292E-2,-3.402872E-2],"split_indices":[0,0,0,0,0,0,0,0,0,0,0,0,0,0,0,0,0,0,0,0,0,0,0,0,0,0,0,0,0,0,0],"split_type":[0,0,0,0,0,0,0,0,0,0,0,0,0,0,0,0,0,0,0,0,0,0,0,0,0,0,0,0,0,0,0],"sum_hessian":[8.75E3,7.415E3,1.335E3,1.846E3,5.569E3,1.06E3,2.75E2,3.77E2,1.469E3,4.337E3,1.232E3,7.54E2,3.06E2,2.05E2,7E1,1.02E2,2.75E2,5.46E2,9.23E2,1.469E3,2.868E3,8.22E2,4.1E2,6.9E1,1E0,3.5E1,6.7E1,1.673E3,1.195E3,1.297E3,3.76E2],"tree_param":{"num_deleted":"0","num_feature":"1","num_nodes":"31","size_leaf_vector":"0"}},{"base_weights":[-6.275683E-2,-6.529273E-2,-4.7712214E-2,-5.511015E-2,-6.784363E-2,-5.0097555E-2,-3.7411857E-2,-4.607495E-2,-5.7405967E-2,-6.9020174E-2,-5.9606798E-2,-1.5634561E-2,-1.4086968E-2,-1.1526355E-2,-9.170706E-3,-1.0093967E-2,-1.4260318E-2,-1.6447201E-2,-1.801071E-2,-1.8846441E-2,-6.993943E-2,-1.8624188E-2,-5.7407938E-2,-7.1135305E-2,-6.624179E-2,-1.5353475E-2,-1.7785968E-2,-2.0472841E-2,-2.195834E-2,-1.784923E-2,-2.0050373E-2],"categories":[],"categories_nodes":[],"categories_segments":[],"categories_sizes":[],"default_left":[0,0,0,0,0,0,0,0,0,0,0,0,0,0,0,0,0,0,0,0,0,0,0,0,0,0,0,0,0,0,0],"id":5,"left_children":[1,3,5,7,9,11,13,15,17,19,21,-1,-1,-1,-1,-1,-1,-1,-1,-1,23,-1,25,27,29,-1,-1,-1,-1,-1,-1],"loss_changes":[3.307495E-1,1.9070816E-1,2.923131E-2,2.8573036E-2,5.3857803E-2,4.048586E-3,4.969239E-4,4.023552E-3,4.8294067E-3,2.5396347E-2,5.428791E-4,0E0,0E0,0E0,0E0,0E0,0E0,0E0,0E0,0E0,1.5380859E-2,0E0,1.799345E-3,1.5375137E-2,5.21183E-4,0E0,0E0,0E0,0E0,0E0,0E0],"parents":[2147483647,0,0,1,1,2,2,3,3,4,4,5,5,6,6,7,7,8,8,9,9,10,10,20,20,22,22,23,23,24,24],"right_children":[2,4,6,8,10,12,14,16,18,20,22,-1,-1,-1,-1,-1,-1,-1,-1,-1,24,-1,26,28,30,-1,-1,-1,-1,-1,-1],"split_conditions":[1.1528168E-1,-9.918358E-2,2.2677633E-1,-1.7132553E-1,6.756126E-2,1.7354615E-1,2.8383702E-1,-2.3441447E-1,-1.24543644E-1,-7.1580395E-2,8.414585E-2,-1.5634561E-2,-1.4086968E-2,-1.1526355E-2,-9.170706E-3,-1.0093967E-2,-1.4260318E-2,-1.6447201E-2,-1.801071E-2,-1.8846441E-2,2.865309E-2,-1.8624188E-2,9.080875E-2,-1.8472198E-2,3.197165E-2,-1.5353475E-2,-1.7785968E-2,-2.0472841E-2,-2.195834E-2,-1.784923E-2,-2.0050373E-2],"split_indices":[0,0,0,0,0,0,0,0,0,0,0,0,0,0,0,0,0,0,0,0,0,0,0,0,0,0,0,0,0,0,0],"split_type":[0,0,0,0,0,0,0,0,0,0,0,0,0,0,0,0,0,0,0,0,0,0,0,0,0,0,0,0,0,0,0],"sum_hessian":[8.75E3,7.485E3,1.265E3,1.504E3,5.981E3,1.024E3,2.41E2,3.09E2,1.195E3,5.227E3,7.54E2,6.14E2,4.1E2,2.06E2,3.5E1,3.5E1,2.74E2,6.14E2,5.81E2,6.84E2,4.543E3,3.42E2,4.12E2,3.419E3,1.124E3,1.02E2,3.1E2,1.436E3,1.983E3,9.9E1,1.025E3],"tree_param":{"num_deleted":"0","num_feature":"1","num_nodes":"31","size_leaf_vector":"0"}},{"base_weights":[-4.3959513E-2,-4.573293E-2,-3.3438373E-2,-3.9132927E-2,-4.7680102E-2,-3.526427E-2,-2.6761204E-2,-3.474319E-2,-1.2471203E-2,-4.871769E-2,-4.2424142E-2,-1.0902645E-2,-9.823307E-3,-8.537645E-3,-2.377014E-2,-8.137098E-3,-3.6199637E-2,-4.6434857E-2,-4.964129E-2,-9.91465E-3,-4.2774696E-2,-7.161075E-3,-1.9888224E-3,-3.6944807E-2,-9.2804115E-3,-4.735178E-2,-4.087704E-2,-5.2090216E-2,-4.7166176E-2,-1.6900636E-2,-4.2223822E-2,-1.0683542E-2,-1.3113574E-2,-1.3926171E-2,-1.6233737E-2,-1.2694101E-2,-9.875271E-3,-1.5085659E-2,-1.9477429E-2,-1.4046856E-2,-1.6394326E-2,-1.3148176E-2,-1.207974E-2],"categories":[],"categories_nodes":[],"categories_segments":[],"categories_sizes":[],"default_left":[0,0,0,0,0,0,0,0,0,0,0,0,0,0,0,0,0,0,0,0,0,0,0,0,0,0,0,0,0,0,0,0,0,0,0,0,0,0,0,0,0,0,0],"id":6,"left_children":[1,3,5,7,9,11,13,15,-1,17,19,-1,-1,-1,21,-1,23,25,27,-1,29,-1,-1,31,-1,33,35,37,39,-1,41,-1,-1,-1,-1,-1,-1,-1,-1,-1,-1,-1,-1],"loss_changes":[1.617508E-1,9.433937E-2,1.4491081E-2,1.6865253E-2,2.9432297E-2,1.5016794E-3,7.249713E-4,5.8652163E-3,0E0,7.850647E-3,1.7415285E-3,0E0,0E0,0E0,2.3644418E-5,0E0,8.776188E-4,5.2142143E-3,1.8242836E-2,0E0,4.508853E-3,0E0,0E0,2.4665594E-3,0E0,5.030155E-3,9.627044E-4,3.627348E-2,1.8308163E-3,0E0,1.0294914E-3,0E0,0E0,0E0,0E0,0E0,0E0,0E0,0E0,0E0,0E0,0E0,0E0],"parents":[2147483647,0,0,1,1,2,2,3,3,4,4,5,5,6,6,7,7,9,9,10,10,14,14,16,16,17,17,18,18,20,20,23,23,25,25,26,26,27,27,28,28,30,30],"right_children":[2,4,6,8,10,12,14,16,-1,18,20,-1,-1,-1,22,-1,24,26,28,-1,30,-1,-1,32,-1,34,36,38,40,-1,42,-1,-1,-1,-1,-1,-1,-1,-1,-1,-1,-1,-1],"split_conditions":[1.1528168E-1,-9.037633E-2,2.2002923E-1,-1.4405264E-1,6.116002E-2,1.7917189E-1,2.577941E-1,-2.0481834E-1,-1.2471203E-2,-3.453963E-2,6.2253684E-2,-1.0902645E-2,-9.823307E-3,-8.537645E-3,3.0591294E-1,-8.137098E-3,-1.4893694E-1,-4.281378E-2,5.44111E-3,-9.91465E-3,6.312929E-2,-7.161075E-3,-1.9888224E-3,-1.5481369E-1,-9.2804115E-3,-4.8481062E-2,-3.6086198E-2,8.4109313E-4,5.8723513E-2,-1.6900636E-2,8.414585E-2,-1.0683542E-2,-1.3113574E-2,-1.3926171E-2,-1.6233737E-2,-1.2694101E-2,-9.875271E-3,-1.5085659E-2,-1.9477429E-2,-1.4046856E-2,-1.6394326E-2,-1.3148176E-2,-1.207974E-2],"split_indices":[0,0,0,0,0,0,0,0,0,0,0,0,0,0,0,0,0,0,0,0,0,0,0,0,0,0,0,0,0,0,0,0,0,0,0,0,0,0,0,0,0,0,0],"split_type":[0,0,0,0,0,0,0,0,0,0,0,0,0,0,0,0,0,0,0,0,0,0,0,0,0,0,0,0,0,0,0,0,0,0,0,0,0,0,0,0,0,0,0],"sum_hessian":[8.75E3,7.485E3,1.265E3,1.71E3,5.775E3,9.9E2,2.75E2,6.16E2,1.094E3,4.816E3,9.59E2,6.84E2,3.06E2,1.7E2,1.05E2,1.02E2,5.14E2,1.402E3,3.414E3,3.8E1,9.21E2,1.04E2,1E0,4.45E2,6.9E1,1.197E3,2.05E2,1.706E3,1.708E3,3.2E1,8.89E2,3.77E2,6.8E1,1.059E3,1.38E2,1.7E2,3.5E1,1.5E3,2.06E2,1.64E3,6.8E1,4.77E2,4.12E2],"tree_param":{"num_deleted":"0","num_feature":"1","num_nodes":"43","size_leaf_vector":"0"}},{"base_weights":[-3.0801583E-2,-3.2042902E-2,-2.3437204E-2,-2.6435949E-2,-3.3215843E-2,-2.482265E-2,-1.9103043E-2,-2.112935E-2,-2.7415866E-2,-3.399963E-2,-3.02519E-2,-2.5839072E-2,-2.3597414E-2,-6.306733E-3,-5.2412916E-3,-4.776574E-3,-6.62893E-3,-7.893579E-3,-8.6334925E-3,-3.0564504E-2,-3.4756202E-2,-2.2254035E-2,-3.0694751E-2,-2.4223324E-2,-2.7154125E-2,-5.6812786E-3,-2.3949014E-2,-3.0849967E-2,-6.8128803E-3,-3.5411924E-2,-3.312649E-2,-8.019917E-3,-5.1097283E-3,-3.261366E-2,-2.8932078E-2,-2.6720896E-2,-2.5135567E-3,-2.9634686E-2,-7.638686E-3,-2.6748426E-2,-6.994258E-3,-1.0743147E-2,-9.112937E-3,-1.0089904E-2,-1.1511734E-2,-7.7879135E-3,-1.0141932E-2,-1.1521193E-2,-9.651887E-3,-5.623825E-3,-8.8441195E-3,-7.194513E-3,-8.738201E-3,-7.7566826E-3,-1.0847913E-2,-6.4920583E-3,-9.3277255E-3],"categories":[],"categories_nodes":[],"categories_segments":[],"categories_sizes":[],"default_left":[0,0,0,0,0,0,0,0,0,0,0,0,0,0,0,0,0,0,0,0,0,0,0,0,0,0,0,0,0,0,0,0,0,0,0,0,0,0,0,0,0,0,0,0,0,0,0,0,0,0,0,0,0,0,0,0,0],"id":7,"left_children":[1,3,5,7,9,11,13,15,17,19,21,23,25,-1,-1,-1,-1,-1,-1,27,29,31,33,35,37,-1,39,41,-1,43,45,-1,-1,47,49,51,-1,53,-1,55,-1,-1,-1,-1,-1,-1,-1,-1,-1,-1,-1,-1,-1,-1,-1,-1,-1],"loss_changes":[7.924652E-2,4.8354626E-2,7.1278214E-3,6.1807036E-3,1.3344765E-2,5.8078766E-4,6.0696155E-4,6.90639E-4,8.882284E-4,1.1633396E-2,3.93188E-3,4.3013692E-4,2.7553737E-4,0E0,0E0,0E0,0E0,0E0,0E0,1.2950301E-3,3.0970573E-3,1.2285858E-3,3.2236576E-3,9.23419E-3,3.953278E-4,0E0,1.05023384E-4,9.228587E-4,0E0,1.3639927E-2,4.7849417E-3,0E0,0E0,2.4956465E-4,3.0832887E-3,6.593764E-4,0E0,1.6542152E-3,0E0,8.5827336E-4,0E0,0E0,0E0,0E0,0E0,0E0,0E0,0E0,0E0,0E0,0E0,0E0,0E0,0E0,0E0,0E0,0E0],"parents":[2147483647,0,0,1,1,2,2,3,3,4,4,5,5,6,6,7,7,8,8,9,9,10,10,11,11,12,12,19,19,20,20,21,21,22,22,23,23,24,24,26,26,27,27,29,29,30,30,33,33,34,34,35,35,37,37,39,39],"right_children":[2,4,6,8,10,12,14,16,18,20,22,24,26,-1,-1,-1,-1,-1,-1,28,30,32,34,36,38,-1,40,42,-1,44,46,-1,-1,48,50,52,-1,54,-1,56,-1,-1,-1,-1,-1,-1,-1,-1,-1,-1,-1,-1,-1,-1,-1,-1,-1],"split_conditions":[1.1528168E-1,-1.0711527E-1,2.1544984E-1,-1.8360241E-1,4.8496377E-2,1.6294053E-1,2.4124481E-1,-2.3441447E-1,-1.2981343E-1,-7.1580395E-2,5.070835E-2,1.3649185E-1,1.6625318E-1,-6.306733E-3,-5.2412916E-3,-4.776574E-3,-6.62893E-3,-7.893579E-3,-8.6334925E-3,-7.296119E-2,1.0724642E-2,4.9589112E-2,7.240292E-2,1.3377117E-1,1.477646E-1,-5.6812786E-3,1.7354615E-1,-1.0466782E-1,-6.8128803E-3,-7.5124046E-3,1.3617377E-2,-8.019917E-3,-5.1097283E-3,5.2412827E-2,7.3741436E-2,1.2322642E-1,-2.5135567E-3,1.4365599E-1,-7.638686E-3,1.6966864E-1,-6.994258E-3,-1.0743147E-2,-9.112937E-3,-1.0089904E-2,-1.1511734E-2,-7.7879135E-3,-1.0141932E-2,-1.1521193E-2,-9.651887E-3,-5.623825E-3,-8.8441195E-3,-7.194513E-3,-8.738201E-3,-7.7566826E-3,-1.0847913E-2,-6.4920583E-3,-9.3277255E-3],"split_indices":[0,0,0,0,0,0,0,0,0,0,0,0,0,0,0,0,0,0,0,0,0,0,0,0,0,0,0,0,0,0,0,0,0,0,0,0,0,0,0,0,0,0,0,0,0,0,0,0,0,0,0,0,0,0,0,0,0],"split_type":[0,0,0,0,0,0,0,0,0,0,0,0,0,0,0,0,0,0,0,0,0,0,0,0,0,0,0,0,0,0,0,0,0,0,0,0,0,0,0,0,0,0,0,0,0,0,0,0,0,0,0,0,0,0,0,0,0],"sum_hessian":[8.75E3,7.485E3,1.265E3,1.299E3,6.186E3,9.55E2,3.1E2,2.06E2,1.093E3,4.884E3,1.302E3,5.11E2,4.44E2,1.37E2,1.73E2,3.5E1,1.71E2,6.15E2,4.78E2,8.89E2,3.995E3,7.1E1,1.231E3,2.38E2,2.73E2,3.5E1,4.09E2,8.55E2,3.4E1,2.834E3,1.161E3,3.6E1,3.5E1,5.81E2,6.5E2,2.05E2,3.3E1,1.04E2,1.69E2,6.8E1,3.41E2,6.8E1,7.87E2,1.778E3,1.056E3,1.04E2,1.057E3,3.5E1,5.46E2,3.5E1,6.15E2,1.01E2,1.04E2,6.9E1,3.5E1,3.4E1,3.4E1],"tree_param":{"num_deleted":"0","num_feature":"1","num_nodes":"57","size_leaf_vector":"0"}},{"base_weights":[-2.158712E-2,-2.2624394E-2,-1.720138E-2,-1.928047E-2,-2.380144E-2,-1.8417466E-2,-1.4411614E-2,-1.584357E-2,-2.0050954E-2,-2.451204E-2,-2.2626251E-2,-1.9527873E-2,-1.7399589E-2,-1.546735E-2,-1.225979E-2,-3.6687066E-3,-5.0176745E-3,-2.0298198E-2,-2.819466E-3,-2.3375064E-2,-2.6956357E-2,-1.5690136E-3,-2.2936126E-2,-1.8927295E-2,-8.268102E-3,-1.3197548E-2,-1.820621E-2,-4.101673E-3,-1.5856402E-2,-3.975552E-3,-1.0633972E-2,-1.882895E-2,-2.1333003E-2,-2.3828054E-2,-2.0065924E-2,-2.812113E-2,-2.3665477E-2,-1.1924785E-2,-2.262564E-2,-1.52531145E-2,-1.9799901E-2,-1.6534643E-2,-1.781668E-3,-7.362379E-3,-1.7678857E-2,-6.0408805E-3,-1.5166187E-2,-3.2099287E-3,-9.0430235E-4,-5.9635025E-3,-5.4771504E-3,-6.2673185E-3,-7.317228E-3,-6.940967E-3,-9.252511E-3,-4.7639543E-3,-7.2408277E-3,-7.880442E-3,-1.0892196E-2,-4.882404E-3,-7.822117E-3,-5.0105243E-3,-6.8849125E-3,-5.401084E-3,-2.8184704E-3,-8.100415E-3,-5.7115755E-3,-3.1797288E-3,-6.650208E-3,-3.2351906E-3,-5.4494515E-3,-3.2941708E-3,-4.741114E-3],"categories":[],"categories_nodes":[],"categories_segments":[],"categories_sizes":[],"default_left":[0,0,0,0,0,0,0,0,0,0,0,0,0,0,0,0,0,0,0,0,0,0,0,0,0,0,0,0,0,0,0,0,0,0,0,0,0,0,0,0,0,0,0,0,0,0,0,0,0,0,0,0,0,0,0,0,0,0,0,0,0,0,0,0,0,0,0,0,0,0,0,0,0],"id":8,"left_children":[1,3,5,7,9,11,13,15,17,19,21,23,25,27,29,-1,-1,31,-1,33,35,-1,37,39,-1,41,43,-1,45,-1,47,49,51,53,55,57,59,-1,61,63,65,67,-1,-1,69,-1,71,-1,-1,-1,-1,-1,-1,-1,-1,-1,-1,-1,-1,-1,-1,-1,-1,-1,-1,-1,-1,-1,-1,-1,-1,-1,-1],"loss_changes":[3.942108E-2,2.7384043E-2,5.4273903E-3,4.573345E-3,3.8113594E-3,9.769499E-4,9.780526E-4,8.889735E-4,3.7731528E-3,8.391023E-3,1.0569572E-2,2.126798E-3,1.8510371E-3,2.1360815E-5,1.397226E-4,0E0,0E0,1.8332601E-3,0E0,2.8539896E-3,3.2595992E-3,0E0,9.269834E-3,1.3459325E-3,0E0,2.396753E-3,1.2866706E-3,0E0,5.040169E-4,0E0,3.3397228E-6,6.6906214E-6,6.4587593E-4,8.743882E-3,4.285142E-3,1.0438204E-2,4.4525415E-3,0E0,3.2930374E-3,1.490498E-3,1.744777E-3,2.105372E-3,0E0,0E0,1.4091134E-3,0E0,4.668869E-4,0E0,0E0,0E0,0E0,0E0,0E0,0E0,0E0,0E0,0E0,0E0,0E0,0E0,0E0,0E0,0E0,0E0,0E0,0E0,0E0,0E0,0E0,0E0,0E0,0E0,0E0],"parents":[2147483647,0,0,1,1,2,2,3,3,4,4,5,5,6,6,7,7,8,8,9,9,10,10,11,11,12,12,13,13,14,14,17,17,19,19,20,20,22,22,23,23,25,25,26,26,28,28,30,30,31,31,32,32,33,33,34,34,35,35,36,36,38,38,39,39,40,40,41,41,44,44,46,46],"right_children":[2,4,6,8,10,12,14,16,18,20,22,24,26,28,30,-1,-1,32,-1,34,36,-1,38,40,-1,42,44,-1,46,-1,48,50,52,54,56,58,60,-1,62,64,66,68,-1,-1,70,-1,72,-1,-1,-1,-1,-1,-1,-1,-1,-1,-1,-1,-1,-1,-1,-1,-1,-1,-1,-1,-1,-1,-1,-1,-1,-1,-1],"split_conditions":[8.414585E-2,-8.4773265E-2,1.875811E-1,-1.6915081E-1,1.2447304E-2,1.2669116E-1,2.4124481E-1,-2.1474443E-1,-8.629885E-2,-4.7527533E-3,1.3617377E-2,1.2322642E-1,1.3649185E-1,1.9557041E-1,2.685919E-1,-3.6687066E-3,-5.0176745E-3,-1.23553224E-1,-2.819466E-3,-1.3121375E-2,5.44111E-3,-1.5690136E-3,1.4774188E-2,9.080875E-2,-8.268102E-3,1.3377117E-1,1.3983302E-1,-4.101673E-3,1.9961421E-1,-3.975552E-3,3.0591294E-1,-1.4893694E-1,-9.037633E-2,-1.8472198E-2,-8.67231E-3,2.2773338E-3,7.4238246E-3,-1.1924785E-2,1.8105045E-2,8.820364E-2,9.383358E-2,1.3041058E-1,-1.781668E-3,-7.362379E-3,1.4365599E-1,-6.0408805E-3,2.042347E-1,-3.2099287E-3,-9.0430235E-4,-5.9635025E-3,-5.4771504E-3,-6.2673185E-3,-7.317228E-3,-6.940967E-3,-9.252511E-3,-4.7639543E-3,-7.2408277E-3,-7.880442E-3,-1.0892196E-2,-4.882404E-3,-7.822117E-3,-5.0105243E-3,-6.8849125E-3,-5.401084E-3,-2.8184704E-3,-8.100415E-3,-5.7115755E-3,-3.1797288E-3,-6.650208E-3,-3.2351906E-3,-5.4494515E-3,-3.2941708E-3,-4.741114E-3],"split_indices":[0,0,0,0,0,0,0,0,0,0,0,0,0,0,0,0,0,0,0,0,0,0,0,0,0,0,0,0,0,0,0,0,0,0,0,0,0,0,0,0,0,0,0,0,0,0,0,0,0,0,0,0,0,0,0,0,0,0,0,0,0,0,0,0,0,0,0,0,0,0,0,0,0],"split_type":[0,0,0,0,0,0,0,0,0,0,0,0,0,0,0,0,0,0,0,0,0,0,0,0,0,0,0,0,0,0,0,0,0,0,0,0,0,0,0,0,0,0,0,0,0,0,0,0,0,0,0,0,0,0,0,0,0,0,0,0,0,0,0,0,0,0,0,0,0,0,0,0,0],"sum_hessian":[8.75E3,7.073E3,1.677E3,1.846E3,5.227E3,1.164E3,5.13E2,3.42E2,1.504E3,3.245E3,1.982E3,5.48E2,6.16E2,3.4E2,1.73E2,7E1,2.72E2,1.469E3,3.5E1,2.222E3,1.023E3,3.5E1,1.947E3,5.13E2,3.5E1,1.02E2,5.14E2,6.7E1,2.73E2,1.03E2,7E1,6.15E2,8.54E2,1.949E3,2.73E2,7.5E2,2.73E2,3.3E1,1.914E3,1.02E2,4.11E2,6.9E1,3.3E1,3.6E1,4.78E2,3.4E1,2.39E2,6.9E1,1E0,2.05E2,4.1E2,7.53E2,1.01E2,1.778E3,1.71E2,1.37E2,1.36E2,6.15E2,1.35E2,6.9E1,2.04E2,1.02E2,1.812E3,6.8E1,3.4E1,3.6E1,3.75E2,3.5E1,3.4E1,3.3E1,4.45E2,3.4E1,2.05E2],"tree_param":{"num_deleted":"0","num_feature":"1","num_nodes":"73","size_leaf_vector":"0"}},{"base_weights":[-1.5134504E-2,-1.5734252E-2,-1.1461418E-2,-1.2811466E-2,-1.6286084E-2,-1.2246302E-2,-9.391423E-3,-9.950941E-3,-1.3280853E-2,-1.6749106E-2,-1.4792977E-2,-2.9275096E-3,-1.2436987E-2,-2.9545438E-3,-2.2505212E-3,-2.3133722E-3,-3.138931E-3,-1.3517188E-2,-2.9570123E-3,-1.5102734E-2,-1.728737E-2,-3.7006597E-4,-1.5105545E-2,-5.8565717E-3,-1.2097527E-2,-1.3184144E-2,-6.5770024E-3,-1.5325322E-2,-1.1126552E-2,-2.4443315E-2,-1.7066905E-2,-1.886622E-2,-1.4714522E-2,-9.351015E-3,-1.2492269E-2,-3.752452E-3,-4.1350075E-3,-4.483878E-3,-5.66392E-3,-1.8966447E-3,-4.6811113E-3,-5.768363E-3,-1.0215103E-2,-5.0743055E-3,-7.2711552E-3,-4.926039E-3,-7.694883E-3,-2.6912685E-3,-4.5088655E-3,-3.514403E-3,-1.262887E-3,-4.6691895E-3,-3.5749902E-3],"categories":[],"categories_nodes":[],"categories_segments":[],"categories_sizes":[],"default_left":[0,0,0,0,0,0,0,0,0,0,0,0,0,0,0,0,0,0,0,0,0,0,0,0,0,0,0,0,0,0,0,0,0,0,0,0,0,0,0,0,0,0,0,0,0,0,0,0,0,0,0,0,0],"id":9,"left_children":[1,3,5,7,9,11,13,15,17,19,21,-1,23,-1,-1,-1,-1,25,-1,27,29,-1,31,-1,33,35,-1,37,39,41,43,45,47,49,51,-1,-1,-1,-1,-1,-1,-1,-1,-1,-1,-1,-1,-1,-1,-1,-1,-1,-1],"loss_changes":[1.9097567E-2,1.1920333E-2,1.886636E-3,1.4777184E-3,4.1229725E-3,3.0085444E-4,2.2236444E-4,1.17762014E-4,6.978512E-4,4.0084124E-3,6.359905E-3,0E0,1.7431825E-3,0E0,0E0,0E0,0E0,2.3930073E-3,0E0,8.8712573E-4,5.3002834E-3,0E0,1.8855035E-3,0E0,7.375032E-4,2.0185113E-4,0E0,1.238972E-3,1.3425229E-3,4.6564043E-3,3.439188E-3,1.8188618E-3,2.284348E-3,1.2023943E-3,1.0274947E-3,0E0,0E0,0E0,0E0,0E0,0E0,0E0,0E0,0E0,0E0,0E0,0E0,0E0,0E0,0E0,0E0,0E0,0E0],"parents":[2147483647,0,0,1,1,2,2,3,3,4,4,5,5,6,6,7,7,8,8,9,9,10,10,12,12,17,17,19,19,20,20,22,22,24,24,25,25,27,27,28,28,29,29,30,30,31,31,32,32,33,33,34,34],"right_children":[2,4,6,8,10,12,14,16,18,20,22,-1,24,-1,-1,-1,-1,26,-1,28,30,-1,32,-1,34,36,-1,38,40,42,44,46,48,50,52,-1,-1,-1,-1,-1,-1,-1,-1,-1,-1,-1,-1,-1,-1,-1,-1,-1,-1],"split_conditions":[1.1817056E-1,-1.1116959E-1,2.0972541E-1,-1.8917267E-1,4.250815E-2,1.2322642E-1,2.685919E-1,-2.3441447E-1,-1.1450955E-1,-6.312265E-2,4.3484222E-2,-2.9275096E-3,1.2669116E-1,-2.9545438E-3,-2.2505212E-3,-2.3133722E-3,-3.138931E-3,-1.1609301E-1,-2.9570123E-3,-6.6297725E-2,-5.898491E-2,-3.7006597E-4,4.8496377E-2,-5.8565717E-3,1.3649185E-1,-1.4405264E-1,-6.5770024E-3,-7.007406E-2,-6.471957E-2,-6.0138106E-2,3.9481085E-2,4.712661E-2,5.070835E-2,1.3377117E-1,1.477646E-1,-3.752452E-3,-4.1350075E-3,-4.483878E-3,-5.66392E-3,-1.8966447E-3,-4.6811113E-3,-5.768363E-3,-1.0215103E-2,-5.0743055E-3,-7.2711552E-3,-4.926039E-3,-7.694883E-3,-2.6912685E-3,-4.5088655E-3,-3.514403E-3,-1.262887E-3,-4.6691895E-3,-3.5749902E-3],"split_indices":[0,0,0,0,0,0,0,0,0,0,0,0,0,0,0,0,0,0,0,0,0,0,0,0,0,0,0,0,0,0,0,0,0,0,0,0,0,0,0,0,0,0,0,0,0,0,0,0,0,0,0,0,0],"split_type":[0,0,0,0,0,0,0,0,0,0,0,0,0,0,0,0,0,0,0,0,0,0,0,0,0,0,0,0,0,0,0,0,0,0,0,0,0,0,0,0,0,0,0,0,0,0,0,0,0,0,0,0,0],"sum_hessian":[8.75E3,7.519E3,1.231E3,1.198E3,6.321E3,8.89E2,3.42E2,1.72E2,1.026E3,4.817E3,1.504E3,6.7E1,8.22E2,2.72E2,7E1,3.5E1,1.37E2,9.57E2,6.9E1,1.194E3,3.623E3,3.4E1,1.47E3,3.5E1,7.87E2,9.23E2,3.4E1,1.128E3,6.6E1,1.05E2,3.518E3,1.34E2,1.336E3,1.02E2,6.85E2,4.44E2,4.79E2,1.024E3,1.04E2,3.3E1,3.3E1,7E1,3.5E1,3.448E3,7E1,1.01E2,3.3E1,7.1E1,1.265E3,6.9E1,3.3E1,1.04E2,5.81E2],"tree_param":{"num_deleted":"0","num_feature":"1","num_nodes":"53","size_leaf_vector":"0"}},{"base_weights":[-1.0607307E-2,-1.1155283E-2,-8.455005E-3,-9.64274E-3,-1.184504E-2,-8.894173E-3,-6.589172E-3,-8.000055E-3,-1.0098205E-2,-1.2276356E-2,-1.09847E-2,-9.272312E-3,-8.196368E-3,-6.8126535E-3,-1.3482395E-3,-1.8750963E-3,-8.45567E-3,-1.0198792E-2,-1.497886E-3,-1.2082965E-2,-1.7821198E-2,-2.8864576E-3,-1.1537381E-2,-8.958022E-3,-1.1667253E-2,-7.903598E-3,-3.527131E-3,-2.2420944E-3,-1.9362104E-3,-9.045812E-3,-8.078649E-3,-4.0302197E-3,-1.00536235E-2,-1.2217207E-2,4.465544E-4,-5.6596706E-3,-4.5580324E-3,-1.1555522E-3,-2.3835073E-3,-1.7168898E-2,-1.0951338E-2,-9.1985855E-3,-9.3362096E-4,-4.732667E-3,-9.354701E-3,-8.169261E-3,-1.2922992E-3,-2.4327661E-3,-3.4791406E-3,-2.0790207E-3,-2.5504755E-3,-1.4724917E-3,-3.0843362E-3,-3.4183785E-3,-4.0090512E-3,-4.105927E-4,-9.996492E-4,-4.24809E-3,-7.379194E-3,-1.8120449E-3,-3.3991854E-3,-2.7023084E-3,-3.850461E-3,-2.272252E-3,-3.2603855E-3,-1.5519151E-3,-2.521533E-3],"categories":[],"categories_nodes":[],"categories_segments":[],"categories_sizes":[],"default_left":[0,0,0,0,0,0,0,0,0,0,0,0,0,0,0,0,0,0,0,0,0,0,0,0,0,0,0,0,0,0,0,0,0,0,0,0,0,0,0,0,0,0,0,0,0,0,0,0,0,0,0,0,0,0,0,0,0,0,0,0,0,0,0,0,0,0,0],"id":10,"left_children":[1,3,5,7,9,11,13,15,17,19,21,23,25,27,-1,-1,29,31,-1,33,35,37,39,41,43,45,-1,-1,-1,47,49,-1,51,53,-1,-1,-1,-1,55,57,59,61,-1,-1,63,65,-1,-1,-1,-1,-1,-1,-1,-1,-1,-1,-1,-1,-1,-1,-1,-1,-1,-1,-1,-1,-1],"loss_changes":[1.0226786E-2,7.1595907E-3,1.3999641E-3,1.5569925E-3,1.6403794E-3,3.0343235E-4,1.2997631E-4,3.298074E-4,8.2722306E-4,3.1924844E-3,7.159218E-3,5.9174746E-4,4.429035E-4,2.4775043E-5,0E0,0E0,1.1028722E-5,6.520748E-4,0E0,5.618632E-3,1.5236437E-6,4.1315216E-5,4.7756582E-3,1.1273623E-3,8.4049255E-4,4.2144768E-4,0E0,0E0,0E0,2.3810286E-4,5.7667494E-5,0E0,1.8317997E-3,2.718091E-3,0E0,0E0,0E0,0E0,6.3795305E-5,2.7805716E-3,2.474174E-3,4.3205917E-4,0E0,0E0,1.0359613E-4,2.702754E-4,0E0,0E0,0E0,0E0,0E0,0E0,0E0,0E0,0E0,0E0,0E0,0E0,0E0,0E0,0E0,0E0,0E0,0E0,0E0,0E0,0E0],"parents":[2147483647,0,0,1,1,2,2,3,3,4,4,5,5,6,6,7,7,8,8,9,9,10,10,11,11,12,12,13,13,16,16,17,17,19,19,20,20,21,21,22,22,23,23,24,24,25,25,29,29,30,30,32,32,33,33,38,38,39,39,40,40,41,41,44,44,45,45],"right_children":[2,4,6,8,10,12,14,16,18,20,22,24,26,28,-1,-1,30,32,-1,34,36,38,40,42,44,46,-1,-1,-1,48,50,-1,52,54,-1,-1,-1,-1,56,58,60,62,-1,-1,64,66,-1,-1,-1,-1,-1,-1,-1,-1,-1,-1,-1,-1,-1,-1,-1,-1,-1,-1,-1,-1,-1],"split_conditions":[7.870314E-2,-7.1580395E-2,2.0972541E-1,-1.5481369E-1,2.1521095E-2,1.5331115E-1,2.8383702E-1,-2.0481834E-1,-7.296119E-2,1.8105045E-2,2.4821224E-2,1.4365599E-1,2.042347E-1,2.2677633E-1,-1.3482395E-3,-1.8750963E-3,-1.7895812E-1,-1.4893694E-1,-1.497886E-3,1.7239595E-2,2.034178E-2,2.26821E-2,2.865309E-2,1.3983302E-1,1.477646E-1,1.9961421E-1,-3.527131E-3,-2.2420944E-3,-1.9362104E-3,-1.8360241E-1,-1.7132553E-1,-4.0302197E-3,-1.4405264E-1,-7.5124046E-3,4.465544E-4,-5.6596706E-3,-4.5580324E-3,-1.1555522E-3,2.3716053E-2,2.7671294E-2,3.197165E-2,1.3649185E-1,-9.3362096E-4,-4.732667E-3,1.5041636E-1,1.564899E-1,-1.2922992E-3,-2.4327661E-3,-3.4791406E-3,-2.0790207E-3,-2.5504755E-3,-1.4724917E-3,-3.0843362E-3,-3.4183785E-3,-4.0090512E-3,-4.105927E-4,-9.996492E-4,-4.24809E-3,-7.379194E-3,-1.8120449E-3,-3.3991854E-3,-2.7023084E-3,-3.850461E-3,-2.272252E-3,-3.2603855E-3,-1.5519151E-3,-2.521533E-3],"split_indices":[0,0,0,0,0,0,0,0,0,0,0,0,0,0,0,0,0,0,0,0,0,0,0,0,0,0,0,0,0,0,0,0,0,0,0,0,0,0,0,0,0,0,0,0,0,0,0,0,0,0,0,0,0,0,0,0,0,0,0,0,0,0,0,0,0,0,0],"split_type":[0,0,0,0,0,0,0,0,0,0,0,0,0,0,0,0,0,0,0,0,0,0,0,0,0,0,0,0,0,0,0,0,0,0,0,0,0,0,0,0,0,0,0,0,0,0,0,0,0,0,0,0,0,0,0,0,0,0,0,0,0,0,0,0,0,0,0],"sum_hessian":[8.75E3,6.971E3,1.779E3,2.188E3,4.783E3,1.437E3,3.42E2,4.79E2,1.709E3,3.177E3,1.606E3,9.24E2,5.13E2,3.07E2,3.5E1,1.02E2,3.77E2,1.675E3,3.4E1,3.073E3,1.04E2,1.03E2,1.503E3,8.21E2,1.03E2,4.77E2,3.6E1,1.01E2,2.06E2,1.38E2,2.39E2,6.8E1,1.607E3,3.043E3,3E1,7E1,3.4E1,3.3E1,7E1,1.39E2,1.364E3,7.88E2,3.3E1,3.5E1,6.8E1,4.43E2,3.4E1,1.04E2,3.4E1,6.9E1,1.7E2,6.9E1,1.538E3,1.778E3,1.265E3,3.5E1,3.5E1,1.01E2,3.8E1,9.9E1,1.265E3,7.52E2,3.6E1,3.4E1,3.4E1,3.4E1,4.09E2],"tree_param":{"num_deleted":"0","num_feature":"1","num_nodes":"67","size_leaf_vector":"0"}},{"base_weights":[-7.435545E-3,-7.813432E-3,-5.9149773E-3,-6.5859803E-3,-8.251279E-3,-6.418987E-3,-5.0594467E-3,-6.727118E-3,2.1027258E-4,-8.625393E-3,-7.6962817E-3,-6.267919E-3,-3.2445302E-3,-5.4672263E-3,-4.345989E-3,-6.0428786E-3,-7.4859187E-3,-8.140343E-3,-1.2954961E-2,2.6660756E-4,-7.847402E-3,-6.479183E-3,-3.1844694E-3,-4.874785E-3,-6.0331277E-3,-4.527191E-3,-3.1833549E-3,-4.3934234E-3,-6.2342933E-3,-7.183068E-3,-9.6512465E-3,-8.936514E-3,-7.838232E-3,-1.6017582E-2,-8.8585885E-3,-4.0008207E-3,-7.7510383E-3,-4.902096E-3,-6.7993808E-3,-6.566648E-4,-1.235255E-3,-5.4269233E-3,-6.06642E-4,-2.503691E-3,-5.5274824E-3,-1.1119009E-3,-4.667091E-3,-9.6921547E-4,-2.2884608E-4,-1.0917328E-3,-1.4184471E-3,-1.9585867E-3,-1.6354945E-3,-2.3380946E-3,-1.3129025E-3,-3.4606385E-3,-1.714421E-3,-2.5140732E-3,-5.9394683E-3,3.1430854E-3,-2.4502329E-3,-4.058374E-3,-5.793296E-3,-1.5501182E-3,-6.000098E-3,-1.3624929E-3,-2.395262E-3,-1.8622879E-3,1.0445442E-4,-3.631083E-3,-1.9623123E-3,-1.2842887E-3,-1.7065319E-3,-9.156851E-4,-1.8345589E-3,-1.6878102E-3,-1.3176166E-3],"categories":[],"categories_nodes":[],"categories_segments":[],"categories_sizes":[],"default_left":[0,0,0,0,0,0,0,0,0,0,0,0,0,0,0,0,0,0,0,0,0,0,0,0,0,0,0,0,0,0,0,0,0,0,0,0,0,0,0,0,0,0,0,0,0,0,0,0,0,0,0,0,0,0,0,0,0,0,0,0,0,0,0,0,0,0,0,0,0,0,0,0,0,0,0,0,0],"id":11,"left_children":[1,3,5,7,9,11,13,15,-1,17,19,21,-1,23,25,27,29,31,33,-1,35,37,39,41,43,45,47,49,51,53,55,57,59,61,63,-1,65,67,69,-1,-1,71,-1,-1,73,-1,75,-1,-1,-1,-1,-1,-1,-1,-1,-1,-1,-1,-1,-1,-1,-1,-1,-1,-1,-1,-1,-1,-1,-1,-1,-1,-1,-1,-1,-1,-1],"loss_changes":[4.9821436E-3,3.7109256E-3,7.203892E-4,1.904279E-3,1.0049641E-3,6.5941364E-4,1.6592816E-4,8.9555234E-4,0E0,6.3501E-3,2.7145892E-3,6.7052245E-4,0E0,1.08382665E-4,3.657071E-5,2.750829E-4,4.9136207E-4,5.954951E-4,3.7221648E-3,0E0,9.814203E-4,4.676096E-4,5.60123E-5,3.134869E-4,1.94747E-4,6.473623E-6,1.6627309E-6,8.8007655E-6,1.6159192E-4,1.2580454E-3,6.906353E-4,4.389785E-3,1.22291E-2,1.1736751E-3,5.408081E-3,0E0,1.473859E-3,1.1742632E-3,1.0472126E-3,0E0,0E0,2.719462E-5,0E0,0E0,2.3154449E-4,0E0,2.0917505E-5,0E0,0E0,0E0,0E0,0E0,0E0,0E0,0E0,0E0,0E0,0E0,0E0,0E0,0E0,0E0,0E0,0E0,0E0,0E0,0E0,0E0,0E0,0E0,0E0,0E0,0E0,0E0,0E0,0E0,0E0],"parents":[2147483647,0,0,1,1,2,2,3,3,4,4,5,5,6,6,7,7,9,9,10,10,11,11,13,13,14,14,15,15,16,16,17,17,18,18,20,20,21,21,22,22,23,23,24,24,25,25,26,26,27,27,28,28,29,29,30,30,31,31,32,32,33,33,34,34,36,36,37,37,38,38,41,41,44,44,46,46],"right_children":[2,4,6,8,10,12,14,16,-1,18,20,22,-1,24,26,28,30,32,34,-1,36,38,40,42,44,46,48,50,52,54,56,58,60,62,64,-1,66,68,70,-1,-1,72,-1,-1,74,-1,76,-1,-1,-1,-1,-1,-1,-1,-1,-1,-1,-1,-1,-1,-1,-1,-1,-1,-1,-1,-1,-1,-1,-1,-1,-1,-1,-1,-1,-1,-1],"split_conditions":[8.0650665E-2,-8.4773265E-2,1.7354615E-1,-8.629885E-2,8.1813E-3,1.6966864E-1,2.2677633E-1,-1.23553224E-1,2.1027258E-4,8.4109313E-4,9.083926E-3,1.6294053E-1,-3.2445302E-3,1.9557041E-1,2.8383702E-1,-2.0481834E-1,-9.037633E-2,-5.5288658E-2,4.574951E-3,2.6660756E-4,9.8187225E-3,9.080875E-2,1.6625318E-1,1.9172728E-1,1.9961421E-1,2.3537266E-1,3.0591294E-1,-2.3441447E-1,-1.3700475E-1,-9.631869E-2,-8.7617725E-2,-5.671941E-2,-5.3567614E-2,3.0619162E-3,7.4238246E-3,-4.0008207E-3,1.3617377E-2,8.820364E-2,9.383358E-2,-6.566648E-4,-1.235255E-3,1.7612115E-1,-6.06642E-4,-2.503691E-3,2.042347E-1,-1.1119009E-3,2.4124481E-1,-9.6921547E-4,-2.2884608E-4,-1.0917328E-3,-1.4184471E-3,-1.9585867E-3,-1.6354945E-3,-2.3380946E-3,-1.3129025E-3,-3.4606385E-3,-1.714421E-3,-2.5140732E-3,-5.9394683E-3,3.1430854E-3,-2.4502329E-3,-4.058374E-3,-5.793296E-3,-1.5501182E-3,-6.000098E-3,-1.3624929E-3,-2.395262E-3,-1.8622879E-3,1.0445442E-4,-3.631083E-3,-1.9623123E-3,-1.2842887E-3,-1.7065319E-3,-9.156851E-4,-1.8345589E-3,-1.6878102E-3,-1.3176166E-3],"split_indices":[0,0,0,0,0,0,0,0,0,0,0,0,0,0,0,0,0,0,0,0,0,0,0,0,0,0,0,0,0,0,0,0,0,0,0,0,0,0,0,0,0,0,0,0,0,0,0,0,0,0,0,0,0,0,0,0,0,0,0,0,0,0,0,0,0,0,0,0,0,0,0,0,0,0,0,0,0],"split_type":[0,0,0,0,0,0,0,0,0,0,0,0,0,0,0,0,0,0,0,0,0,0,0,0,0,0,0,0,0,0,0,0,0,0,0,0,0,0,0,0,0,0,0,0,0,0,0,0,0,0,0,0,0,0,0,0,0,0,0,0,0,0,0,0,0,0,0,0,0,0,0,0,0,0,0,0,0],"sum_hessian":[8.75E3,7.005E3,1.745E3,1.846E3,5.159E3,1.094E3,6.51E2,1.811E3,3.5E1,3.073E3,2.086E3,1.06E3,3.4E1,4.1E2,2.41E2,9.57E2,8.54E2,2.766E3,3.07E2,3.6E1,2.05E3,9.91E2,6.9E1,2.05E2,2.05E2,2.06E2,3.5E1,1.02E2,8.55E2,7.53E2,1.01E2,7.53E2,2.013E3,1.74E2,1.33E2,3.3E1,2.017E3,1.7E2,8.21E2,3.5E1,3.4E1,1.71E2,3.4E1,3.4E1,1.71E2,3.4E1,1.72E2,3.4E1,1E0,3.5E1,6.7E1,6.16E2,2.39E2,6.17E2,1.36E2,6.7E1,3.4E1,7.18E2,3.5E1,3.5E1,1.978E3,1.02E2,7.2E1,1.01E2,3.2E1,1.38E2,1.879E3,1.36E2,3.4E1,3.6E1,7.85E2,3.5E1,1.36E2,3.4E1,1.37E2,3.4E1,1.38E2],"tree_param":{"num_deleted":"0","num_feature":"1","num_nodes":"77","size_leaf_vector":"0"}},{"base_weights":[-5.2133393E-3,-5.5203727E-3,-4.2710127E-3,-4.420544E-3,-5.8442918E-3,-4.0800915E-5,-4.406733E-3,-4.6064737E-3,-2.5453814E-3,-4.559296E-3,-5.7765646E-3,4.7049933E-4,-5.0881814E-4,-2.7132528E-3,-4.2461436E-3,-4.3546716E-3,-2.785145E-3,5.219061E-4,-4.018363E-3,-5.7219453E-3,-4.1760565E-3,1.4579539E-4,-4.3298267E-3,-3.8099953E-3,-4.667814E-3,-3.6244744E-3,-1.395226E-3,-5.787144E-3,8.2905305E-4,-4.978422E-3,-3.8346695E-3,-8.514418E-4,-1.1907E-3,-2.2596156E-3,-1.3197465E-3,-1.3372647E-3,-7.980887E-4,-1.7094831E-3,-3.611969E-3,-1.4349511E-3,-2.7878874E-3,1.3324532E-4,-1.1915524E-3],"categories":[],"categories_nodes":[],"categories_segments":[],"categories_sizes":[],"default_left":[0,0,0,0,0,0,0,0,0,0,0,0,0,0,0,0,0,0,0,0,0,0,0,0,0,0,0,0,0,0,0,0,0,0,0,0,0,0,0,0,0,0,0],"id":12,"left_children":[1,3,5,7,9,11,13,15,17,-1,19,-1,-1,-1,21,23,-1,-1,25,27,-1,-1,29,31,33,35,-1,37,-1,39,41,-1,-1,-1,-1,-1,-1,-1,-1,-1,-1,-1,-1],"loss_changes":[2.5083125E-3,2.3243874E-3,1.2370571E-3,5.1298924E-4,3.1385124E-3,1.8378008E-4,1.5165806E-3,1.5707556E-3,8.780227E-4,0E0,2.1701455E-3,0E0,0E0,0E0,8.020215E-4,2.0394288E-4,0E0,0E0,8.799951E-6,2.7965754E-3,0E0,0E0,6.1840564E-4,6.290991E-5,5.986281E-4,4.2761443E-5,0E0,2.7030557E-3,0E0,6.7666173E-4,6.6499785E-4,0E0,0E0,0E0,0E0,0E0,0E0,0E0,0E0,0E0,0E0,0E0,0E0],"parents":[2147483647,0,0,1,1,2,2,3,3,4,4,5,5,6,6,7,7,8,8,10,10,14,14,15,15,18,18,19,19,22,22,23,23,24,24,25,25,27,27,29,29,30,30],"right_children":[2,4,6,8,10,12,14,16,18,-1,20,-1,-1,-1,22,24,-1,-1,26,28,-1,-1,30,32,34,36,-1,38,-1,40,42,-1,-1,-1,-1,-1,-1,-1,-1,-1,-1,-1,-1],"split_conditions":[6.312929E-2,-9.918358E-2,6.554463E-2,-1.0466782E-1,-9.7977005E-2,6.454993E-2,6.756126E-2,-1.0711527E-1,-1.02900326E-1,-4.559296E-3,6.2253684E-2,4.7049933E-4,-5.0881814E-4,-2.7132528E-3,6.926164E-2,-1.5481369E-1,-2.785145E-3,5.219061E-4,-1.004929E-1,6.116002E-2,-4.1760565E-3,1.4579539E-4,1.2669116E-1,-2.1474443E-1,-1.4893694E-1,-1.0181002E-1,-1.395226E-3,5.8723513E-2,8.2905305E-4,1.2322642E-1,1.3041058E-1,-8.514418E-4,-1.1907E-3,-2.2596156E-3,-1.3197465E-3,-1.3372647E-3,-7.980887E-4,-1.7094831E-3,-3.611969E-3,-1.4349511E-3,-2.7878874E-3,1.3324532E-4,-1.1915524E-3],"split_indices":[0,0,0,0,0,0,0,0,0,0,0,0,0,0,0,0,0,0,0,0,0,0,0,0,0,0,0,0,0,0,0,0,0,0,0,0,0,0,0,0,0,0,0],"split_type":[0,0,0,0,0,0,0,0,0,0,0,0,0,0,0,0,0,0,0,0,0,0,0,0,0,0,0,0,0,0,0,0,0,0,0,0,0,0,0,0,0,0,0],"sum_hessian":[8.75E3,6.596E3,2.154E3,1.504E3,5.092E3,6.7E1,2.087E3,1.367E3,1.37E2,3.5E1,5.057E3,3.4E1,3.3E1,6.8E1,2.019E3,1.299E3,6.8E1,3.5E1,1.02E2,5.025E3,3.2E1,3.5E1,1.984E3,4.79E2,8.2E2,6.7E1,3.5E1,4.987E3,3.8E1,8.55E2,1.129E3,7E1,4.09E2,6.8E1,7.52E2,3.4E1,3.3E1,4.919E3,6.8E1,8.2E2,3.5E1,3.5E1,1.094E3],"tree_param":{"num_deleted":"0","num_feature":"1","num_nodes":"43","size_leaf_vector":"0"}},{"base_weights":[-3.6530532E-3,-3.941234E-3,-3.120632E-3,-3.8739606E-3,-4.2257314E-3,3.8535E-3,-3.2978768E-3,-3.4289083E-3,-4.673087E-3,-3.4997207E-3,-3.1995133E-3,-3.4982723E-3,1.1357425E-3,-1.0559135E-2,-4.3470617E-3,8.2932547E-4,-3.2705825E-3,-3.414718E-3,-6.239754E-3,-4.1933334E-3,-8.725169E-3,-1.499816E-3,-4.7514546E-3,-3.414042E-3,-3.1757827E-3,-1.1037538E-3,-6.24863E-4,-2.526673E-3,-1.4937008E-3,-1.2523597E-3,-3.910032E-3,-1.9867194E-3,1.6023322E-4,-1.7345753E-3,-1.1021182E-3,1.1322498E-3,-9.767681E-4],"categories":[],"categories_nodes":[],"categories_segments":[],"categories_sizes":[],"default_left":[0,0,0,0,0,0,0,0,0,0,0,0,0,0,0,0,0,0,0,0,0,0,0,0,0,0,0,0,0,0,0,0,0,0,0,0,0],"id":13,"left_children":[1,3,5,7,-1,-1,9,11,13,-1,15,17,-1,19,21,-1,23,25,27,-1,29,31,33,-1,35,-1,-1,-1,-1,-1,-1,-1,-1,-1,-1,-1,-1],"loss_changes":[1.3304055E-3,3.8177148E-3,8.752568E-3,1.989141E-3,0E0,0E0,2.468992E-3,1.827348E-3,3.8189664E-3,0E0,1.2852587E-3,8.012578E-4,0E0,5.3635705E-4,2.1920577E-3,0E0,2.2517592E-3,1.220528E-3,2.4698116E-4,0E0,1.3375729E-3,2.4936674E-3,1.8356144E-3,0E0,1.6508512E-3,0E0,0E0,0E0,0E0,0E0,0E0,0E0,0E0,0E0,0E0,0E0,0E0],"parents":[2147483647,0,0,1,1,2,2,3,3,6,6,7,7,8,8,10,10,11,11,13,13,14,14,16,16,17,17,18,18,20,20,21,21,22,22,24,24],"right_children":[2,4,6,8,-1,-1,10,12,14,-1,16,18,-1,20,22,-1,24,26,28,-1,30,32,34,-1,36,-1,-1,-1,-1,-1,-1,-1,-1,-1,-1,-1,-1],"split_conditions":[3.0950418E-2,2.9591845E-2,3.197165E-2,-1.8472198E-2,-4.2257314E-3,3.8535E-3,3.295737E-2,-1.946558E-2,-1.5253555E-2,-3.4997207E-3,3.4204908E-2,-2.2285981E-2,1.1357425E-3,-1.7454434E-2,-7.5124046E-3,8.2932547E-4,3.5251833E-2,-4.281378E-2,-2.1281445E-2,-4.1933334E-3,-1.6314432E-2,-1.3121375E-2,5.44111E-3,-3.414042E-3,3.6164075E-2,-1.1037538E-3,-6.24863E-4,-2.526673E-3,-1.4937008E-3,-1.2523597E-3,-3.910032E-3,-1.9867194E-3,1.6023322E-4,-1.7345753E-3,-1.1021182E-3,1.1322498E-3,-9.767681E-4],"split_indices":[0,0,0,0,0,0,0,0,0,0,0,0,0,0,0,0,0,0,0,0,0,0,0,0,0,0,0,0,0,0,0,0,0,0,0,0,0],"split_type":[0,0,0,0,0,0,0,0,0,0,0,0,0,0,0,0,0,0,0,0,0,0,0,0,0,0,0,0,0,0,0,0,0,0,0,0,0],"sum_hessian":[8.75E3,5.673E3,3.077E3,5.637E3,3.6E1,3.3E1,3.044E3,3.624E3,2.013E3,3.4E1,3.01E3,3.59E3,3.4E1,1.04E2,1.909E3,3.5E1,2.975E3,3.486E3,1.04E2,3.4E1,7E1,2.38E2,1.671E3,3.3E1,2.942E3,2.907E3,5.79E2,3.6E1,6.8E1,3.5E1,3.5E1,6.7E1,1.71E2,8.52E2,8.19E2,3.3E1,2.909E3],"tree_param":{"num_deleted":"0","num_feature":"1","num_nodes":"37","size_leaf_vector":"0"}},{"base_weights":[-2.5599843E-3,-2.7028238E-3,-1.76518E-3,-2.117483E-3,-2.947393E-3,1.071694E-3,-1.9115171E-3,-2.2774106E-3,-2.168305E-4,-4.661287E-3,-2.8387827E-3,-2.2844574E-3,-1.7478269E-3,-2.1356302E-3,-1.8941563E-3,2.5578404E-3,-2.448852E-3,-3.210234E-3,-4.6848725E-3,1.1357455E-4,-2.923389E-3,-2.0153902E-3,-1.0219488E-3,-1.5949981E-3,-2.3837097E-3,-3.8135506E-3,4.911685E-4,-3.67377E-3,-3.8783655E-5,-3.3975933E-3,3.0468784E-3,-5.4001394E-3,-2.7924762E-3,-1.9124869E-3,-1.3291795E-3,-1.1775746E-3,-4.091628E-4,-5.554395E-4,7.786565E-4,-1.5184459E-3,-6.7150244E-4,-9.546878E-4,-1.4847217E-3,-7.809055E-4,-2.9521054E-3,2.4899744E-4,-3.3865965E-3,-1.1517736E-3,-4.316469E-3,2.0019685E-4,-8.956672E-4,-2.3077303E-4,-6.174685E-4,-3.8041064E-4,-3.0551496E-4,-1.9602454E-4,-4.6063466E-5],"categories":[],"categories_nodes":[],"categories_segments":[],"categories_sizes":[],"default_left":[0,0,0,0,0,0,0,0,0,0,0,0,0,0,0,0,0,0,0,0,0,0,0,0,0,0,0,0,0,0,0,0,0,0,0,0,0,0,0,0,0,0,0,0,0,0,0,0,0,0,0,0,0,0,0,0,0],"id":14,"left_children":[1,3,5,7,9,-1,11,13,15,17,19,-1,21,23,-1,-1,25,27,-1,29,31,33,35,37,39,41,-1,43,-1,45,-1,47,49,51,-1,53,55,-1,-1,-1,-1,-1,-1,-1,-1,-1,-1,-1,-1,-1,-1,-1,-1,-1,-1,-1,-1],"loss_changes":[9.887218E-4,1.0554083E-3,1.0503428E-3,6.648898E-4,9.59944E-4,0E0,1.201279E-3,1.1419682E-3,3.3578563E-3,4.877697E-3,1.2290403E-3,0E0,2.4382072E-4,2.5799964E-4,0E0,0E0,7.701924E-4,3.922619E-4,0E0,4.9006017E-3,1.5354231E-3,2.2117049E-4,3.2228505E-5,6.679136E-4,5.087275E-4,5.8081583E-5,0E0,1.5524728E-3,0E0,3.4454623E-3,0E0,3.2978011E-3,3.0374788E-3,1.4637341E-4,0E0,2.6400085E-6,4.3325754E-6,0E0,0E0,0E0,0E0,0E0,0E0,0E0,0E0,0E0,0E0,0E0,0E0,0E0,0E0,0E0,0E0,0E0,0E0,0E0,0E0],"parents":[2147483647,0,0,1,1,2,2,3,3,4,4,6,6,7,7,8,8,9,9,10,10,12,12,13,13,16,16,17,17,19,19,20,20,21,21,22,22,23,23,24,24,25,25,27,27,29,29,31,31,32,32,33,33,35,35,36,36],"right_children":[2,4,6,8,10,-1,12,14,16,18,20,-1,22,24,-1,-1,26,28,-1,30,32,34,36,38,40,42,-1,44,-1,46,-1,48,50,52,-1,54,56,-1,-1,-1,-1,-1,-1,-1,-1,-1,-1,-1,-1,-1,-1,-1,-1,-1,-1,-1,-1],"split_conditions":[1.0940281E-1,-7.1580395E-2,1.1221731E-1,-7.839321E-2,-5.898491E-2,1.071694E-3,1.1528168E-1,-8.091845E-2,-7.742836E-2,-6.0138106E-2,-5.3567614E-2,-2.2844574E-3,2.0972541E-1,-1.4405264E-1,-1.8941563E-3,2.5578404E-3,-7.296119E-2,-6.1692733E-2,-4.6848725E-3,-5.5288658E-2,-4.41393E-2,2.042347E-1,2.685919E-1,-1.4633778E-1,-1.389592E-1,-7.431924E-2,4.911685E-4,-6.312265E-2,-3.8783655E-5,-5.671941E-2,3.0468784E-3,-4.5490243E-2,-3.453963E-2,1.2322642E-1,-1.3291795E-3,2.4124481E-1,2.8383702E-1,-5.554395E-4,7.786565E-4,-1.5184459E-3,-6.7150244E-4,-9.546878E-4,-1.4847217E-3,-7.809055E-4,-2.9521054E-3,2.4899744E-4,-3.3865965E-3,-1.1517736E-3,-4.316469E-3,2.0019685E-4,-8.956672E-4,-2.3077303E-4,-6.174685E-4,-3.8041064E-4,-3.0551496E-4,-1.9602454E-4,-4.6063466E-5],"split_indices":[0,0,0,0,0,0,0,0,0,0,0,0,0,0,0,0,0,0,0,0,0,0,0,0,0,0,0,0,0,0,0,0,0,0,0,0,0,0,0,0,0,0,0,0,0,0,0,0,0,0,0,0,0,0,0,0,0],"split_type":[0,0,0,0,0,0,0,0,0,0,0,0,0,0,0,0,0,0,0,0,0,0,0,0,0,0,0,0,0,0,0,0,0,0,0,0,0,0,0,0,0,0,0,0,0,0,0,0,0,0,0,0,0,0,0,0,0],"sum_hessian":[8.75E3,7.415E3,1.335E3,2.188E3,5.227E3,3.5E1,1.3E3,2.018E3,1.7E2,3.09E2,4.918E3,3.5E1,1.265E3,1.951E3,6.7E1,3.4E1,1.36E2,2.74E2,3.5E1,1.37E2,4.781E3,9.23E2,3.42E2,6.16E2,1.335E3,1.02E2,3.4E1,2.38E2,3.6E1,1.02E2,3.5E1,2.38E2,4.543E3,8.87E2,3.6E1,2.72E2,7E1,5.81E2,3.5E1,6.7E1,1.268E3,6.8E1,3.4E1,2.04E2,3.4E1,6.7E1,3.5E1,2.04E2,3.4E1,2.4E2,4.303E3,1.01E2,7.86E2,1.69E2,1.03E2,3.5E1,3.5E1],"tree_param":{"num_deleted":"0","num_feature":"1","num_nodes":"57","size_leaf_vector":"0"}},{"base_weights":[-1.7945358E-3,-1.9763825E-3,-1.4151582E-3,-1.9143622E-3,-6.98118E-3,3.4545448E-3,-1.571329E-3,-1.9459835E-3,1.0633623E-3,-1.5245088E-3,-2.6532046E-3,-3.999043E-3,-1.4222923E-3,-1.9147358E-3,-2.1591566E-3,2.17361E-3,-1.5632771E-3,-1.9812512E-3,1.7680068E-3,-7.212836E-4,4.5969184E-3,-5.62404E-3,-1.4029576E-3,-5.5869523E-4,-1.5387457E-3,2.9922468E-3,-6.729283E-4,2.470323E-3,2.48426E-4,-1.1439386E-3,-2.724135E-3,8.787412E-4,-4.58193E-4],"categories":[],"categories_nodes":[],"categories_segments":[],"categories_sizes":[],"default_left":[0,0,0,0,0,0,0,0,0,0,0,0,0,0,0,0,0,0,0,0,0,0,0,0,0,0,0,0,0,0,0,0,0],"id":15,"left_children":[1,3,5,7,9,-1,11,13,-1,-1,-1,-1,15,17,-1,19,21,23,25,-1,27,29,31,-1,-1,-1,-1,-1,-1,-1,-1,-1,-1],"loss_changes":[6.0092285E-4,1.8220227E-3,5.75099E-3,1.0153297E-3,2.0982418E-4,0E0,4.898541E-3,9.394083E-4,0E0,0E0,0E0,0E0,1.4087125E-3,1.4183838E-3,0E0,1.1758839E-3,1.7290288E-3,2.1147486E-3,3.412689E-3,0E0,9.3910855E-4,5.9755985E-4,1.3878718E-3,0E0,0E0,0E0,0E0,0E0,0E0,0E0,0E0,0E0,0E0],"parents":[2147483647,0,0,1,1,2,2,3,3,4,4,6,6,7,7,12,12,13,13,15,15,16,16,17,17,18,18,20,20,21,21,22,22],"right_children":[2,4,6,8,10,-1,12,14,-1,-1,-1,-1,16,18,-1,20,22,24,26,-1,28,30,32,-1,-1,-1,-1,-1,-1,-1,-1,-1,-1],"split_conditions":[3.832726E-2,3.6164075E-2,3.9481085E-2,3.5251833E-2,3.741187E-2,3.4545448E-3,4.0990982E-2,3.4204908E-2,1.0633623E-3,-1.5245088E-3,-2.6532046E-3,-3.999043E-3,4.4680893E-2,3.0950418E-2,-2.1591566E-3,4.250815E-2,4.8496377E-2,2.4821224E-2,3.197165E-2,-7.212836E-4,4.3484222E-2,4.712661E-2,5.070835E-2,-5.5869523E-4,-1.5387457E-3,2.9922468E-3,-6.729283E-4,2.470323E-3,2.48426E-4,-1.1439386E-3,-2.724135E-3,8.787412E-4,-4.58193E-4],"split_indices":[0,0,0,0,0,0,0,0,0,0,0,0,0,0,0,0,0,0,0,0,0,0,0,0,0,0,0,0,0,0,0,0,0],"split_type":[0,0,0,0,0,0,0,0,0,0,0,0,0,0,0,0,0,0,0,0,0,0,0,0,0,0,0,0,0,0,0,0,0],"sum_hessian":[8.75E3,5.912E3,2.838E3,5.841E3,7.1E1,3.3E1,2.805E3,5.808E3,3.3E1,3.7E1,3.4E1,3.4E1,2.771E3,5.775E3,3.3E1,1.04E2,2.667E3,5.673E3,1.02E2,3.6E1,6.8E1,1E2,2.567E3,5.468E3,2.05E2,3.3E1,6.9E1,3.4E1,3.4E1,6.7E1,3.3E1,7.1E1,2.496E3],"tree_param":{"num_deleted":"0","num_feature":"1","num_nodes":"33","size_leaf_vector":"0"}},{"base_weights":[-1.2569804E-3,-1.3273772E-3,-5.096683E-4,-7.314894E-4,-1.4322664E-3,4.8102837E-4,-6.146153E-4,-9.0033055E-4,6.013619E-4,-1.613825E-3,-1.1442085E-3,-2.170097E-3,-4.4905875E-4,-7.1374374E-4,-2.0152319E-3,-1.5007664E-3,-5.9743617E-3,4.5519895E-3,-1.3780006E-3,7.012904E-5,-1.3535864E-3,-5.7834864E-4,-9.055915E-5,-7.932245E-4,4.945671E-4,-1.5695832E-3,2.2508136E-3,-2.0154614E-3,-1.2884184E-3,1.1205114E-3,4.8790933E-3,-2.6958045E-3,-1.2707227E-3,-2.0156735E-4,-8.5951143E-4,-2.0056556E-4,1.01011E-4,-2.112047E-4,-9.940935E-4,-4.1243838E-4,-7.919881E-4,1.6520224E-3,1.2347745E-3,3.131744E-4,-4.0050733E-4,-1.7733089E-4,5.1554426E-4,-8.2864956E-4,-1.7353793E-4,8.7527005E-6,-8.434402E-5],"categories":[],"categories_nodes":[],"categories_segments":[],"categories_sizes":[],"default_left":[0,0,0,0,0,0,0,0,0,0,0,0,0,0,0,0,0,0,0,0,0,0,0,0,0,0,0,0,0,0,0,0,0,0,0,0,0,0,0,0,0,0,0,0,0,0,0,0,0,0,0],"id":16,"left_children":[1,3,5,7,9,-1,11,13,-1,15,17,19,21,23,-1,25,27,29,31,-1,-1,33,35,37,-1,39,-1,-1,-1,-1,41,-1,43,45,47,49,-1,-1,-1,-1,-1,-1,-1,-1,-1,-1,-1,-1,-1,-1,-1],"loss_changes":[4.596999E-4,4.9878284E-4,1.6841653E-4,5.556881E-4,3.5373773E-4,0E0,1.8444002E-4,1.2217027E-3,0E0,2.045842E-3,3.5113764E-3,3.894902E-4,3.016807E-5,2.0708988E-4,0E0,2.5297934E-3,1.0233233E-4,9.568175E-6,2.0526806E-3,0E0,0E0,5.057051E-5,8.245811E-6,2.362266E-4,0E0,8.37449E-4,0E0,0E0,0E0,0E0,1.1344207E-5,0E0,3.7273765E-4,1.5508875E-4,1.4492204E-4,2.5814838E-6,0E0,0E0,0E0,0E0,0E0,0E0,0E0,0E0,0E0,0E0,0E0,0E0,0E0,0E0,0E0],"parents":[2147483647,0,0,1,1,2,2,3,3,4,4,6,6,7,7,9,9,10,10,11,11,12,12,13,13,15,15,16,16,17,17,18,18,21,21,22,22,23,23,25,25,30,30,32,32,33,33,34,34,35,35],"right_children":[2,4,6,8,10,-1,12,14,-1,16,18,20,22,24,-1,26,28,30,32,-1,-1,34,36,38,-1,40,-1,-1,-1,-1,42,-1,44,46,48,50,-1,-1,-1,-1,-1,-1,-1,-1,-1,-1,-1,-1,-1,-1,-1],"split_conditions":[1.6294053E-1,-1.1116959E-1,1.6625318E-1,-1.1450955E-1,2.1521095E-2,4.8102837E-4,1.7354615E-1,-1.1609301E-1,6.013619E-4,1.8105045E-2,2.4821224E-2,1.6966864E-1,2.4124481E-1,-1.1785613E-1,-2.0152319E-3,1.7239595E-2,2.034178E-2,2.26821E-2,2.5825184E-2,7.012904E-5,-1.3535864E-3,1.9557041E-1,2.8383702E-1,-1.198864E-1,4.945671E-4,8.4109313E-4,2.2508136E-3,-2.0154614E-3,-1.2884184E-3,1.1205114E-3,2.3716053E-2,-2.6958045E-3,2.7671294E-2,1.9172728E-1,1.9961421E-1,2.4933548E-1,1.01011E-4,-2.112047E-4,-9.940935E-4,-4.1243838E-4,-7.919881E-4,1.6520224E-3,1.2347745E-3,3.131744E-4,-4.0050733E-4,-1.7733089E-4,5.1554426E-4,-8.2864956E-4,-1.7353793E-4,8.7527005E-6,-8.434402E-5],"split_indices":[0,0,0,0,0,0,0,0,0,0,0,0,0,0,0,0,0,0,0,0,0,0,0,0,0,0,0,0,0,0,0,0,0,0,0,0,0,0,0,0,0,0,0,0,0,0,0,0,0,0,0],"split_type":[0,0,0,0,0,0,0,0,0,0,0,0,0,0,0,0,0,0,0,0,0,0,0,0,0,0,0,0,0,0,0,0,0,0,0,0,0,0,0,0,0,0,0,0,0,0,0,0,0,0,0],"sum_hessian":[8.75E3,7.996E3,7.54E2,1.198E3,6.798E3,3.5E1,7.19E2,1.129E3,6.9E1,4.167E3,2.631E3,6.8E1,6.51E2,1.095E3,3.4E1,4.063E3,1.04E2,1.03E2,2.528E3,3.4E1,3.4E1,4.78E2,1.73E2,1.06E3,3.5E1,4.033E3,3E1,7E1,3.4E1,3.3E1,7E1,3.4E1,2.494E3,2.05E2,2.73E2,1.38E2,3.5E1,1.025E3,3.5E1,3.414E3,6.19E2,3.5E1,3.5E1,6.7E1,2.427E3,1.71E2,3.4E1,3.4E1,2.39E2,3.6E1,1.02E2],"tree_param":{"num_deleted":"0","num_feature":"1","num_nodes":"51","size_leaf_vector":"0"}},{"base_weights":[-8.804098E-4,-1.0385012E-3,-6.8648084E-4,-8.8048226E-4,-6.473221E-3,2.0265947E-3,-7.5118203E-4,-8.460677E-4,-3.0731738E-3,-7.313507E-3,-1.0886664E-3,-3.702421E-3,-6.978452E-4,-9.491082E-4,-3.6686493E-4,-1.023437E-3,-7.784269E-4,-1.6662187E-3,-2.3953756E-3,4.1096867E-4,-2.7832107E-3,1.6651637E-3,-7.5856503E-4,-7.7775813E-4,-4.5548924E-3,3.1045086E-3,-1.0697764E-3,-1.3631186E-3,-7.241632E-4,-2.4868277E-4,1.3487939E-3,-2.4272357E-3,-1.0875305E-3,5.8165344E-4,1.9060101E-3,-5.5376196E-4,-1.3059618E-4,5.4978445E-4,-2.466008E-4],"categories":[],"categories_nodes":[],"categories_segments":[],"categories_sizes":[],"default_left":[0,0,0,0,0,0,0,0,0,0,0,0,0,0,0,0,0,0,0,0,0,0,0,0,0,0,0,0,0,0,0,0,0,0,0,0,0,0,0],"id":17,"left_children":[1,3,5,7,9,-1,11,13,15,17,-1,19,21,23,25,-1,-1,-1,-1,-1,-1,-1,27,29,31,33,35,-1,37,-1,-1,-1,-1,-1,-1,-1,-1,-1,-1],"loss_changes":[2.675797E-4,4.1328003E-3,1.8987865E-3,3.5085692E-4,2.985075E-4,0E0,6.1131385E-4,2.2742897E-4,2.8006616E-6,7.844856E-5,0E0,1.9638843E-3,1.4580766E-3,2.3418216E-3,1.999297E-3,0E0,0E0,0E0,0E0,0E0,0E0,0E0,4.910119E-4,9.822336E-4,5.361447E-4,5.102984E-4,3.3452018E-4,0E0,9.4283465E-4,0E0,0E0,0E0,0E0,0E0,0E0,0E0,0E0,0E0,0E0],"parents":[2147483647,0,0,1,1,2,2,3,3,4,4,6,6,7,7,8,8,9,9,11,11,12,12,13,13,14,14,22,22,23,23,24,24,25,25,26,26,28,28],"right_children":[2,4,6,8,10,-1,12,14,16,18,-1,20,22,24,26,-1,-1,-1,-1,-1,-1,-1,28,30,32,34,36,-1,38,-1,-1,-1,-1,-1,-1,-1,-1,-1,-1],"split_conditions":[5.44111E-3,2.2773338E-3,6.3641644E-3,8.4109313E-4,4.574951E-3,2.0265947E-3,8.1813E-3,-1.3121375E-2,1.6730938E-3,3.0619162E-3,-1.0886664E-3,7.4238246E-3,9.083926E-3,-1.8472198E-2,-8.67231E-3,-1.023437E-3,-7.784269E-4,-1.6662187E-3,-2.3953756E-3,4.1096867E-4,-2.7832107E-3,1.6651637E-3,9.8187225E-3,-1.946558E-2,-1.7454434E-2,-9.8638935E-3,0E0,-1.3631186E-3,1.3617377E-2,-2.4868277E-4,1.3487939E-3,-2.4272357E-3,-1.0875305E-3,5.8165344E-4,1.9060101E-3,-5.5376196E-4,-1.3059618E-4,5.4978445E-4,-2.466008E-4],"split_indices":[0,0,0,0,0,0,0,0,0,0,0,0,0,0,0,0,0,0,0,0,0,0,0,0,0,0,0,0,0,0,0,0,0,0,0,0,0,0,0],"split_type":[0,0,0,0,0,0,0,0,0,0,0,0,0,0,0,0,0,0,0,0,0,0,0,0,0,0,0,0,0,0,0,0,0,0,0,0,0,0,0],"sum_hessian":[8.75E3,4.818E3,3.932E3,4.683E3,1.35E2,3.3E1,3.899E3,4.612E3,7.1E1,1.03E2,3.2E1,6.8E1,3.831E3,3.795E3,8.17E2,3.8E1,3.3E1,3.1E1,7.2E1,3.6E1,3.2E1,3.6E1,3.795E3,3.624E3,1.71E2,1.37E2,6.8E2,3.3E1,3.762E3,3.59E3,3.4E1,3.4E1,1.37E2,1.02E2,3.5E1,3.05E2,3.75E2,1.38E2,3.624E3],"tree_param":{"num_deleted":"0","num_feature":"1","num_nodes":"39","size_leaf_vector":"0"}},{"base_weights":[-6.171206E-4,-7.002599E-4,-2.9112943E-4,-6.6691084E-4,-2.2457442E-3,7.4880244E-4,-4.8083073E-4,-6.9828203E-4,1.401554E-3,-1.9614627E-5,1.8055526E-3,-2.5183356E-3,-3.033339E-4,-6.7220075E-4,-1.6418168E-3,2.3167273E-3,-1.9166039E-3,7.489284E-4,-1.2831686E-3,5.9485965E-4,-3.6194728E-4,-7.015415E-4,2.200174E-3,-1.0058087E-3,-1.9704802E-4,-3.0035904E-5,1.3599984E-3,-1.4851074E-3,-2.7508542E-4,-2.0193802E-4,-1.0306988E-3,9.7177917E-4,3.105751E-4,-1.3753398E-4,1.8297331E-4,1.4053173E-4,-1.6390305E-3,1.0814988E-3,-1.1467195E-4],"categories":[],"categories_nodes":[],"categories_segments":[],"categories_sizes":[],"default_left":[0,0,0,0,0,0,0,0,0,0,0,0,0,0,0,0,0,0,0,0,0,0,0,0,0,0,0,0,0,0,0,0,0,0,0,0,0,0,0],"id":18,"left_children":[1,3,5,7,-1,9,11,13,15,17,-1,-1,19,21,-1,-1,23,25,-1,-1,27,29,31,-1,-1,33,-1,35,37,-1,-1,-1,-1,-1,-1,-1,-1,-1,-1],"loss_changes":[2.3697154E-4,1.5727142E-3,3.515121E-4,4.5125186E-4,0E0,1.1136843E-3,2.1128452E-3,8.4756315E-4,2.1960598E-3,7.9179375E-4,0E0,0E0,1.9823645E-4,5.746307E-4,0E0,0E0,1.2262954E-4,6.0445804E-4,0E0,0E0,1.3988241E-4,5.20692E-4,8.0168305E-5,0E0,0E0,4.7160986E-5,0E0,8.0305955E-4,5.5684365E-4,0E0,0E0,0E0,0E0,0E0,0E0,0E0,0E0,0E0,0E0],"parents":[2147483647,0,0,1,1,2,2,3,3,5,5,6,6,7,7,8,8,9,9,12,12,13,13,16,16,17,17,20,20,21,21,22,22,25,25,27,27,28,28],"right_children":[2,4,6,8,-1,10,12,14,16,18,-1,-1,20,22,-1,-1,24,26,-1,-1,28,30,32,-1,-1,34,-1,36,38,-1,-1,-1,-1,-1,-1,-1,-1,-1,-1],"split_conditions":[7.870314E-2,7.668406E-2,9.635756E-2,7.240292E-2,-2.2457442E-3,9.383358E-2,9.823151E-2,7.112808E-2,7.3741436E-2,9.080875E-2,1.8055526E-3,-2.5183356E-3,1.0082138E-1,6.756126E-2,-1.6418168E-3,2.3167273E-3,7.515216E-2,8.820364E-2,-1.2831686E-3,5.9485965E-4,1.0940281E-1,6.554463E-2,6.926164E-2,-1.0058087E-3,-1.9704802E-4,8.414585E-2,1.3599984E-3,1.06916234E-1,1.1221731E-1,-2.0193802E-4,-1.0306988E-3,9.7177917E-4,3.105751E-4,-1.3753398E-4,1.8297331E-4,1.4053173E-4,-1.6390305E-3,1.0814988E-3,-1.1467195E-4],"split_indices":[0,0,0,0,0,0,0,0,0,0,0,0,0,0,0,0,0,0,0,0,0,0,0,0,0,0,0,0,0,0,0,0,0,0,0,0,0,0,0],"split_type":[0,0,0,0,0,0,0,0,0,0,0,0,0,0,0,0,0,0,0,0,0,0,0,0,0,0,0,0,0,0,0,0,0,0,0,0,0,0,0],"sum_hessian":[8.75E3,6.971E3,1.779E3,6.938E3,3.3E1,2.74E2,1.505E3,6.835E3,1.03E2,2.4E2,3.4E1,3.2E1,1.473E3,6.799E3,3.6E1,3.5E1,6.8E1,2.04E2,3.6E1,3.6E1,1.437E3,6.731E3,6.8E1,3.1E1,3.7E1,1.7E2,3.4E1,1.02E2,1.335E3,6.663E3,6.8E1,3.5E1,3.3E1,1.02E2,6.8E1,6.9E1,3.3E1,3.5E1,1.3E3],"tree_param":{"num_deleted":"0","num_feature":"1","num_nodes":"39","size_leaf_vector":"0"}},{"base_weights":[-4.32353E-4,7.139712E-5,-4.845157E-4,-1.7452048E-4,1.7708524E-3,-6.013574E-4,-2.086612E-4,8.2349085E-5,-2.5954996E-3,1.6160532E-3,-1.8732357E-5,-5.5538444E-4,-4.258482E-3,4.861301E-3,-3.6113337E-4,-1.3329725E-4,1.2178476E-3,-1.3331723E-3,-2.3330514E-4,-5.7778973E-4,9.1947237E-4,-1.872234E-3,-6.463537E-4,3.4557548E-4,2.5295368E-3,-2.9372314E-3,-2.1487466E-4,2.0247884E-4,-2.467199E-3,1.9461934E-3,-8.2091945E-5,-5.434927E-4,-1.7216076E-3,2.3404986E-3,-3.0007237E-4,1.6951749E-4,-5.5054954E-7,-5.7579903E-4,-8.748293E-4,2.3425304E-4,9.0753357E-4,-1.767723E-4,1.8997755E-3,-2.2494928E-4,1.5161575E-3,-2.0362064E-3,-6.0177576E-5],"categories":[],"categories_nodes":[],"categories_segments":[],"categories_sizes":[],"default_left":[0,0,0,0,0,0,0,0,0,0,0,0,0,0,0,0,0,0,0,0,0,0,0,0,0,0,0,0,0,0,0,0,0,0,0,0,0,0,0,0,0,0,0,0,0,0,0],"id":19,"left_children":[1,3,5,7,9,11,13,15,17,-1,-1,19,21,23,25,27,29,-1,-1,31,-1,-1,-1,-1,-1,-1,33,35,37,39,-1,41,-1,43,45,-1,-1,-1,-1,-1,-1,-1,-1,-1,-1,-1,-1],"loss_changes":[2.2998429E-4,3.4384418E-4,2.5546877E-4,4.4734246E-4,6.897703E-4,9.341114E-4,1.8268753E-3,1.5957016E-4,2.2838858E-4,0E0,0E0,4.4805836E-4,2.7433224E-4,9.041446E-4,3.1603256E-3,4.2994984E-4,1.1350968E-4,0E0,0E0,9.6491503E-4,0E0,0E0,0E0,0E0,0E0,0E0,4.925135E-4,3.5559457E-5,1.1372729E-5,8.565007E-5,0E0,1.7131001E-3,0E0,6.159073E-4,1.4100358E-3,0E0,0E0,0E0,0E0,0E0,0E0,0E0,0E0,0E0,0E0,0E0,0E0],"parents":[2147483647,0,0,1,1,2,2,3,3,4,4,5,5,6,6,7,7,8,8,11,11,12,12,13,13,14,14,15,15,16,16,19,19,26,26,27,27,28,28,29,29,31,31,33,33,34,34],"right_children":[2,4,6,8,10,12,14,16,18,-1,-1,20,22,24,26,28,30,-1,-1,32,-1,-1,-1,-1,-1,-1,34,36,38,40,-1,42,-1,44,46,-1,-1,-1,-1,-1,-1,-1,-1,-1,-1,-1,-1],"split_conditions":[-1.2981343E-1,-1.3700475E-1,5.6184594E-2,-1.4149883E-1,-1.3429873E-1,5.3794593E-2,5.8723513E-2,-1.4893694E-1,-1.389592E-1,1.6160532E-3,-1.8732357E-5,5.2412827E-2,5.5175055E-2,5.7472873E-2,5.9815988E-2,-1.5481369E-1,-1.4405264E-1,-1.3331723E-3,-2.3330514E-4,5.070835E-2,9.1947237E-4,-1.872234E-3,-6.463537E-4,3.4557548E-4,2.5295368E-3,-2.9372314E-3,6.2253684E-2,-1.8917267E-1,-1.51457E-1,-1.4633778E-1,-8.2091945E-5,4.9589112E-2,-1.7216076E-3,6.116002E-2,6.312929E-2,1.6951749E-4,-5.5054954E-7,-5.7579903E-4,-8.748293E-4,2.3425304E-4,9.0753357E-4,-1.767723E-4,1.8997755E-3,-2.2494928E-4,1.5161575E-3,-2.0362064E-3,-6.0177576E-5],"split_indices":[0,0,0,0,0,0,0,0,0,0,0,0,0,0,0,0,0,0,0,0,0,0,0,0,0,0,0,0,0,0,0,0,0,0,0,0,0,0,0,0,0,0,0,0,0,0,0],"split_type":[0,0,0,0,0,0,0,0,0,0,0,0,0,0,0,0,0,0,0,0,0,0,0,0,0,0,0,0,0,0,0,0,0,0,0,0,0,0,0,0,0,0,0,0,0,0,0],"sum_hessian":[8.75E3,8.21E2,7.929E3,7.18E2,1.03E2,5.569E3,2.36E3,6.5E2,6.8E1,3.4E1,6.9E1,5.501E3,6.8E1,6.8E1,2.292E3,5.47E2,1.03E2,3.3E1,3.5E1,5.468E3,3.3E1,3.4E1,3.4E1,3.4E1,3.4E1,3.4E1,2.258E3,4.79E2,6.8E1,6.9E1,3.4E1,5.433E3,3.5E1,7.2E1,2.186E3,1.72E2,3.07E2,3.3E1,3.5E1,3.4E1,3.5E1,5.398E3,3.5E1,3.4E1,3.8E1,3.2E1,2.154E3],"tree_param":{"num_deleted":"0","num_feature":"1","num_nodes":"47","size_leaf_vector":"0"}},{"base_weights":[-3.029518E-4,-6.684307E-5,-3.8165654E-4,-1.9451487E-4,1.4409709E-3,-1.2652136E-3,-2.727341E-4,-1.0112382E-4,-8.61758E-4,2.278271E-3,-1.4154917E-4,-4.35805E-4,-3.9052144E-3,2.2863743E-3,-3.1887463E-4,-1.4619828E-4,6.707205E-4,-1.1101519E-3,8.1388635E-4,-1.1205713E-3,2.9908046E-3,-2.7461585E-3,-5.5548935E-3,1.8709172E-3,-3.8599913E-4,-4.8911028E-5,-8.1333093E-4,-6.660713E-4,-5.8617187E-4,-7.425989E-4,-1.7566574E-3,-4.673619E-3,3.3964613E-4,-2.5926665E-3,-7.1970647E-4,3.8652067E-4,2.2527403E-3,-6.2818043E-3,-2.6496357E-4,-4.7371923E-5,1.6315643E-3,-4.41651E-4,4.7717396E-5,-4.4494818E-4,1.1265762E-3,-6.949036E-4,-2.031033E-3,-1.0352205E-3,5.0225644E-4,1.6948531E-3,-1.01902304E-4],"categories":[],"categories_nodes":[],"categories_segments":[],"categories_sizes":[],"default_left":[0,0,0,0,0,0,0,0,0,0,0,0,0,0,0,0,0,0,0,0,0,0,0,0,0,0,0,0,0,0,0,0,0,0,0,0,0,0,0,0,0,0,0,0,0,0,0,0,0,0,0],"id":20,"left_children":[1,3,5,7,9,11,13,15,-1,-1,17,19,21,-1,23,25,-1,27,-1,29,-1,31,33,35,37,39,-1,41,-1,43,-1,45,-1,-1,-1,47,-1,-1,49,-1,-1,-1,-1,-1,-1,-1,-1,-1,-1,-1,-1],"loss_changes":[1.625932E-4,4.216744E-4,6.3127273E-4,5.046661E-4,1.6662157E-3,1.5748384E-3,2.1310053E-3,2.0593611E-4,0E0,0E0,3.8180035E-4,3.92285E-3,3.136217E-4,0E0,8.548735E-4,4.7797168E-4,0E0,3.7292135E-5,0E0,9.191274E-4,0E0,7.7524653E-4,6.6129165E-4,1.4449949E-3,1.4022514E-2,1.1055635E-3,0E0,4.6128524E-5,0E0,1.6010887E-3,0E0,3.253162E-4,0E0,0E0,0E0,6.876501E-4,0E0,0E0,2.479511E-3,0E0,0E0,0E0,0E0,0E0,0E0,0E0,0E0,0E0,0E0,0E0,0E0],"parents":[2147483647,0,0,1,1,2,2,3,3,4,4,5,5,6,6,7,7,10,10,11,11,12,12,14,14,15,15,17,17,19,19,21,21,22,22,23,23,24,24,25,25,27,27,29,29,31,31,35,35,38,38],"right_children":[2,4,6,8,10,12,14,16,-1,-1,18,20,22,-1,24,26,-1,28,-1,30,-1,32,34,36,38,40,-1,42,-1,44,-1,46,-1,-1,-1,48,-1,-1,50,-1,-1,-1,-1,-1,-1,-1,-1,-1,-1,-1,-1],"split_conditions":[-7.1580395E-2,-7.839321E-2,-4.281378E-2,-8.091845E-2,-7.742836E-2,-4.9717564E-2,-4.106347E-2,-8.225952E-2,-8.61758E-4,2.278271E-3,-7.296119E-2,-5.0978985E-2,-4.5490243E-2,2.2863743E-3,-3.453963E-2,-8.4773265E-2,6.707205E-4,-7.431924E-2,8.1388635E-4,-5.227285E-2,2.9908046E-3,-4.7176518E-2,-4.41393E-2,-3.6086198E-2,-3.3398982E-2,-8.629885E-2,-8.1333093E-4,-7.590514E-2,-5.8617187E-4,-5.5288658E-2,-1.7566574E-3,-4.8481062E-2,3.3964613E-4,-2.5926665E-3,-7.1970647E-4,-4.0000618E-2,2.2527403E-3,-6.2818043E-3,-3.1288195E-2,-4.7371923E-5,1.6315643E-3,-4.41651E-4,4.7717396E-5,-4.4494818E-4,1.1265762E-3,-6.949036E-4,-2.031033E-3,-1.0352205E-3,5.0225644E-4,1.6948531E-3,-1.01902304E-4],"split_indices":[0,0,0,0,0,0,0,0,0,0,0,0,0,0,0,0,0,0,0,0,0,0,0,0,0,0,0,0,0,0,0,0,0,0,0,0,0,0,0,0,0,0,0,0,0,0,0,0,0,0,0],"split_type":[0,0,0,0,0,0,0,0,0,0,0,0,0,0,0,0,0,0,0,0,0,0,0,0,0,0,0,0,0,0,0,0,0,0,0,0,0,0,0,0,0,0,0,0,0,0,0,0,0,0,0],"sum_hessian":[8.75E3,2.188E3,6.562E3,2.018E3,1.7E2,7.19E2,5.843E3,1.951E3,6.7E1,3.4E1,1.36E2,5.48E2,1.71E2,3.3E1,5.81E3,1.915E3,3.6E1,1.02E2,3.4E1,5.15E2,3.3E1,1.02E2,6.9E1,1.72E2,5.638E3,1.846E3,6.9E1,6.8E1,3.4E1,4.78E2,3.7E1,6.8E1,3.4E1,3.4E1,3.5E1,1.37E2,3.5E1,3.2E1,5.606E3,1.811E3,3.5E1,3.4E1,3.4E1,4.11E2,6.7E1,3.3E1,3.5E1,3.4E1,1.03E2,6.9E1,5.537E3],"tree_param":{"num_deleted":"0","num_feature":"1","num_nodes":"51","size_leaf_vector":"0"}},{"base_weights":[-2.1226848E-4,-2.4406584E-4,2.3446127E-4,-2.38936E-5,-3.352095E-4,3.6278093E-4,1.7742255E-4,-1.2565068E-4,3.510623E-3,-4.066755E-3,-2.654265E-4,-2.3716775E-4,2.4864022E-4,-4.6042634E-5,-1.80987E-3,2.0245465E-3,5.08514E-5,-1.470196E-3,-2.7224347E-3,2.5980892E-3,-3.001132E-4,1.0477094E-3,1.2652537E-4,-1.3587422E-4,8.3891355E-4,-1.1805957E-3,-2.2098677E-4,-1.4962471E-3,5.6901283E-4,4.2253148E-4,1.1238947E-3,-1.8028228E-3,-2.6316565E-4,9.5575924E-5,5.178198E-4,-4.3463462E-4,2.597196E-4,-2.1014741E-5,-6.0703297E-4,1.6143185E-3,-2.870152E-5,2.2958599E-3,-9.4378556E-5,4.99663E-4,3.876269E-5],"categories":[],"categories_nodes":[],"categories_segments":[],"categories_sizes":[],"default_left":[0,0,0,0,0,0,0,0,0,0,0,0,0,0,0,0,0,0,0,0,0,0,0,0,0,0,0,0,0,0,0,0,0,0,0,0,0,0,0,0,0,0,0,0,0],"id":21,"left_children":[1,3,5,7,9,-1,11,13,15,17,19,-1,21,23,25,-1,-1,27,-1,29,31,33,35,37,39,-1,-1,-1,-1,-1,-1,-1,41,-1,-1,-1,43,-1,-1,-1,-1,-1,-1,-1,-1],"loss_changes":[1.2436367E-4,1.6394188E-4,3.214571E-5,8.6111244E-4,1.5035034E-3,0E0,3.8181068E-5,3.119148E-4,7.236681E-4,1.3650437E-3,5.6425564E-4,0E0,5.0022645E-5,1.7683585E-4,2.3662005E-4,0E0,0E0,8.5027004E-4,0E0,8.7610795E-5,1.1809734E-3,3.3083263E-5,9.416667E-5,2.5071777E-4,8.707447E-4,0E0,0E0,0E0,0E0,0E0,0E0,0E0,2.2704615E-3,0E0,0E0,0E0,7.5559954E-5,0E0,0E0,0E0,0E0,0E0,0E0,0E0,0E0],"parents":[2147483647,0,0,1,1,2,2,3,3,4,4,6,6,7,7,8,8,9,9,10,10,12,12,13,13,14,14,17,17,19,19,20,20,21,21,22,22,23,23,24,24,32,32,36,36],"right_children":[2,4,6,8,10,-1,12,14,16,18,20,-1,22,24,26,-1,-1,28,-1,30,32,34,36,38,40,-1,-1,-1,-1,-1,-1,-1,42,-1,-1,-1,44,-1,-1,-1,-1,-1,-1,-1,-1],"split_conditions":[1.7917189E-1,-6.312265E-2,1.8255456E-1,-6.6297725E-2,-5.898491E-2,3.6278093E-4,1.875811E-1,-7.007406E-2,-6.471957E-2,-6.0138106E-2,-5.671941E-2,-2.3716775E-4,1.9557041E-1,-7.839321E-2,-6.9211386E-2,2.0245465E-3,5.08514E-5,-6.1692733E-2,-2.7224347E-3,-5.790323E-2,-5.5288658E-2,1.9172728E-1,1.9961421E-1,-8.091845E-2,-7.742836E-2,-1.1805957E-3,-2.2098677E-4,-1.4962471E-3,5.6901283E-4,4.2253148E-4,1.1238947E-3,-1.8028228E-3,-5.3567614E-2,9.5575924E-5,5.178198E-4,-4.3463462E-4,2.042347E-1,-2.1014741E-5,-6.0703297E-4,1.6143185E-3,-2.870152E-5,2.2958599E-3,-9.4378556E-5,4.99663E-4,3.876269E-5],"split_indices":[0,0,0,0,0,0,0,0,0,0,0,0,0,0,0,0,0,0,0,0,0,0,0,0,0,0,0,0,0,0,0,0,0,0,0,0,0,0,0,0,0,0,0,0,0],"split_type":[0,0,0,0,0,0,0,0,0,0,0,0,0,0,0,0,0,0,0,0,0,0,0,0,0,0,0,0,0,0,0,0,0,0,0,0,0,0,0,0,0,0,0,0,0],"sum_hessian":[8.75E3,8.169E3,5.81E2,2.392E3,5.777E3,3.1E1,5.5E2,2.326E3,6.6E1,1.05E2,5.672E3,3.7E1,5.13E2,2.222E3,1.04E2,3.3E1,3.3E1,7E1,3.5E1,6.7E1,5.605E3,6.7E1,4.46E2,2.018E3,2.04E2,3.4E1,7E1,3.4E1,3.6E1,3.4E1,3.3E1,3.5E1,5.57E3,3.3E1,3.4E1,3.4E1,4.12E2,1.951E3,6.7E1,3.4E1,1.7E2,3.5E1,5.535E3,3.4E1,3.78E2],"tree_param":{"num_deleted":"0","num_feature":"1","num_nodes":"45","size_leaf_vector":"0"}},{"base_weights":[-1.4850093E-4,-2.4367627E-4,-3.1847376E-5,-1.3460695E-4,-3.99836E-3,1.6039218E-3,-7.8726545E-5,-1.11561574E-4,-1.609242E-3,-4.589046E-3,-6.046928E-4,-2.059417E-3,-4.3041164E-5,-2.0446203E-4,3.1968742E-4,-5.562038E-4,-3.8434356E-4,-1.0148672E-3,-5.054908E-3,4.588461E-4,-1.8062801E-3,1.346952E-3,-8.7212284E-5,-8.8975896E-5,-2.6372108E-3,4.851609E-3,-8.45126E-5,-1.7435502E-3,-1.2738009E-3,-1.7698285E-3,-2.4205281E-5,-3.7893704E-5,1.1232856E-3,-1.5523013E-3,-5.9238786E-4,3.8578673E-4,2.4823702E-3,-1.0219153E-3,2.617992E-5,-1.6391318E-4,-1.5959112E-3,3.4179105E-3,-4.1275085E-5],"categories":[],"categories_nodes":[],"categories_segments":[],"categories_sizes":[],"default_left":[0,0,0,0,0,0,0,0,0,0,0,0,0,0,0,0,0,0,0,0,0,0,0,0,0,0,0,0,0,0,0,0,0,0,0,0,0,0,0,0,0,0,0],"id":22,"left_children":[1,3,5,7,9,-1,11,13,15,17,-1,19,21,23,25,-1,-1,-1,27,-1,-1,-1,29,31,33,35,37,-1,-1,39,41,-1,-1,-1,-1,-1,-1,-1,-1,-1,-1,-1,-1],"loss_changes":[9.715058E-5,1.9729424E-3,9.920405E-4,1.5899929E-4,1.5002838E-4,0E0,2.7556997E-4,1.8487705E-4,3.4069526E-6,4.133745E-5,0E0,9.902166E-4,7.67644E-4,1.0662468E-3,1.4988247E-3,0E0,0E0,0E0,2.0019594E-5,0E0,0E0,0E0,4.0239617E-4,5.192842E-4,2.7892506E-4,8.071E-4,4.2940932E-4,0E0,0E0,5.920981E-4,4.739319E-3,0E0,0E0,0E0,0E0,0E0,0E0,0E0,0E0,0E0,0E0,0E0,0E0],"parents":[2147483647,0,0,1,1,2,2,3,3,4,4,6,6,7,7,8,8,9,9,11,11,12,12,13,13,14,14,18,18,22,22,23,23,24,24,25,25,26,26,29,29,30,30],"right_children":[2,4,6,8,10,-1,12,14,16,18,-1,20,22,24,26,-1,-1,-1,28,-1,-1,-1,30,32,34,36,38,-1,-1,40,42,-1,-1,-1,-1,-1,-1,-1,-1,-1,-1,-1,-1],"split_conditions":[5.44111E-3,2.2773338E-3,6.3641644E-3,8.4109313E-4,4.574951E-3,1.6039218E-3,8.1813E-3,-1.3121375E-2,1.6730938E-3,3.0619162E-3,-6.046928E-4,7.4238246E-3,9.083926E-3,-1.8472198E-2,-1.0980847E-2,-5.562038E-4,-3.8434356E-4,-1.0148672E-3,3.7971844E-3,4.588461E-4,-1.8062801E-3,1.346952E-3,1.2447304E-2,-1.946558E-2,-1.7454434E-2,-1.19923325E-2,-9.8638935E-3,-1.7435502E-3,-1.2738009E-3,1.1630965E-2,1.3617377E-2,-3.7893704E-5,1.1232856E-3,-1.5523013E-3,-5.9238786E-4,3.8578673E-4,2.4823702E-3,-1.0219153E-3,2.617992E-5,-1.6391318E-4,-1.5959112E-3,3.4179105E-3,-4.1275085E-5],"split_indices":[0,0,0,0,0,0,0,0,0,0,0,0,0,0,0,0,0,0,0,0,0,0,0,0,0,0,0,0,0,0,0,0,0,0,0,0,0,0,0,0,0,0,0],"split_type":[0,0,0,0,0,0,0,0,0,0,0,0,0,0,0,0,0,0,0,0,0,0,0,0,0,0,0,0,0,0,0,0,0,0,0,0,0,0,0,0,0,0,0],"sum_hessian":[8.75E3,4.818E3,3.932E3,4.683E3,1.35E2,3.3E1,3.899E3,4.612E3,7.1E1,1.03E2,3.2E1,6.8E1,3.831E3,3.795E3,8.17E2,3.8E1,3.3E1,3.1E1,7.2E1,3.6E1,3.2E1,3.6E1,3.795E3,3.624E3,1.71E2,6.6E1,7.51E2,3.4E1,3.8E1,1.36E2,3.659E3,3.59E3,3.4E1,3.4E1,1.37E2,3.3E1,3.3E1,3.6E1,7.15E2,1.02E2,3.4E1,3.5E1,3.624E3],"tree_param":{"num_deleted":"0","num_feature":"1","num_nodes":"43","size_leaf_vector":"0"}},{"base_weights":[-1.0412669E-4,-1.8330094E-4,9.638154E-6,-1.0962688E-4,-3.3862574E-3,3.3066447E-3,-8.7668814E-5,-1.674351E-4,2.4210203E-3,2.0498454E-3,1.8478616E-3,-3.3588673E-3,1.3797079E-5,-1.4247745E-4,-1.1308162E-3,3.2170332E-4,8.6235895E-4,-1.1641241E-3,-6.614716E-4,1.2238475E-3,-1.1500158E-4,-7.791695E-5,-8.099104E-4,-3.0443517E-3,1.5476793E-5,-5.3422005E-5,4.8085945E-5,-6.772859E-4,1.3263397E-4,-2.5205966E-4,-2.6192998E-3,2.0340837E-3,-1.556162E-5],"categories":[],"categories_nodes":[],"categories_segments":[],"categories_sizes":[],"default_left":[0,0,0,0,0,0,0,0,0,0,0,0,0,0,0,0,0,0,0,0,0,0,0,0,0,0,0,0,0,0,0,0,0],"id":23,"left_children":[1,3,5,7,-1,9,11,13,-1,15,-1,17,19,21,-1,-1,-1,-1,-1,-1,23,25,27,29,31,-1,-1,-1,-1,-1,-1,-1,-1],"loss_changes":[7.882418E-5,4.2201234E-3,1.1526814E-3,2.425671E-3,0E0,3.5668188E-4,1.15843E-3,4.572146E-4,0E0,5.5764976E-5,0E0,5.4637785E-5,1.7735682E-3,2.1788516E-4,0E0,0E0,0E0,0E0,0E0,0E0,1.254865E-3,1.1008362E-4,8.0940255E-4,1.7474578E-3,1.4327633E-3,0E0,0E0,0E0,0E0,0E0,0E0,0E0,0E0],"parents":[2147483647,0,0,1,1,2,2,3,3,5,5,6,6,7,7,9,9,11,11,12,12,13,13,20,20,21,21,22,22,23,23,24,24],"right_children":[2,4,6,8,-1,10,12,14,-1,16,-1,18,20,22,-1,-1,-1,-1,-1,-1,24,26,28,30,32,-1,-1,-1,-1,-1,-1,-1,-1],"split_conditions":[1.4774188E-2,1.3617377E-2,1.8105045E-2,1.2447304E-2,-3.3862574E-3,1.7239595E-2,2.1521095E-2,1.1630965E-2,2.4210203E-3,1.5890567E-2,1.8478616E-3,2.034178E-2,2.4821224E-2,8.4109313E-4,-1.1308162E-3,3.2170332E-4,8.6235895E-4,-1.1641241E-3,-6.614716E-4,1.2238475E-3,2.865309E-2,-3.0310232E-2,5.44111E-3,2.7671294E-2,2.9591845E-2,-5.3422005E-5,4.8085945E-5,-6.772859E-4,1.3263397E-4,-2.5205966E-4,-2.6192998E-3,2.0340837E-3,-1.556162E-5],"split_indices":[0,0,0,0,0,0,0,0,0,0,0,0,0,0,0,0,0,0,0,0,0,0,0,0,0,0,0,0,0,0,0,0,0],"split_type":[0,0,0,0,0,0,0,0,0,0,0,0,0,0,0,0,0,0,0,0,0,0,0,0,0,0,0,0,0,0,0,0,0],"sum_hessian":[8.75E3,5.159E3,3.591E3,5.126E3,3.3E1,1.02E2,3.489E3,5.091E3,3.5E1,7.2E1,3E1,1.04E2,3.385E3,5.057E3,3.4E1,3.4E1,3.8E1,7E1,3.4E1,1.03E2,3.282E3,4.612E3,4.45E2,1.39E2,3.143E3,3.247E3,1.365E3,2.06E2,2.39E2,1.01E2,3.8E1,3E1,3.113E3],"tree_param":{"num_deleted":"0","num_feature":"1","num_nodes":"33","size_leaf_vector":"0"}},{"base_weights":[-7.301199E-5,2.1818929E-4,-1.0173546E-4,3.4825112E-5,2.153787E-3,-1.90775E-4,3.9725237E-5,2.16757E-4,-1.6821675E-3,1.1916312E-3,6.5593165E-5,-1.4369097E-4,-1.9083788E-3,2.4933708E-3,-5.2646214E-5,6.3761334E-5,1.0208423E-3,-8.9848286E-4,-1.18679185E-4,-1.7551282E-4,1.4435429E-3,-1.6499495E-3,1.0689598E-5,3.0145468E-4,-1.5906817E-3,1.5360608E-3,-1.16285255E-5,-1.26546E-4,-1.8536592E-3,1.4179691E-3,-4.636086E-5,5.9567665E-5,2.7344344E-4,-3.616412E-4,-5.7309197E-4,2.1252688E-4,6.894122E-4,-4.998966E-5,1.6439429E-3,-5.8444304E-4,1.3829575E-5],"categories":[],"categories_nodes":[],"categories_segments":[],"categories_sizes":[],"default_left":[0,0,0,0,0,0,0,0,0,0,0,0,0,0,0,0,0,0,0,0,0,0,0,0,0,0,0,0,0,0,0,0,0,0,0,0,0,0,0,0,0],"id":24,"left_children":[1,3,5,7,9,11,13,15,17,-1,-1,19,-1,-1,21,23,25,-1,-1,27,-1,-1,29,31,33,35,-1,37,-1,-1,39,-1,-1,-1,-1,-1,-1,-1,-1,-1,-1],"loss_changes":[7.321829E-5,2.7889156E-4,1.00344085E-4,2.2496276E-4,2.3840333E-4,1.4194942E-3,2.3521879E-3,8.002196E-5,1.1535466E-4,0E0,0E0,7.6612976E-4,0E0,0E0,1.0505894E-3,2.1598057E-4,5.6836012E-5,0E0,0E0,1.4170111E-3,0E0,0E0,8.1030687E-4,2.9948067E-5,6.1926694E-6,4.251706E-5,0E0,1.0762815E-3,0E0,0E0,5.23383E-4,0E0,0E0,0E0,0E0,0E0,0E0,0E0,0E0,0E0,0E0],"parents":[2147483647,0,0,1,1,2,2,3,3,4,4,5,5,6,6,7,7,8,8,11,11,14,14,15,15,16,16,19,19,22,22,23,23,24,24,25,25,27,27,30,30],"right_children":[2,4,6,8,10,12,14,16,18,-1,-1,20,-1,-1,22,24,26,-1,-1,28,-1,-1,30,32,34,36,-1,38,-1,-1,40,-1,-1,-1,-1,-1,-1,-1,-1,-1,-1],"split_conditions":[-1.3214025E-1,-1.3700475E-1,3.0950418E-2,-1.4149883E-1,-1.3429873E-1,2.9591845E-2,3.197165E-2,-1.4893694E-1,-1.389592E-1,1.1916312E-3,6.5593165E-5,2.865309E-2,-1.9083788E-3,2.4933708E-3,3.295737E-2,-1.5481369E-1,-1.4405264E-1,-8.9848286E-4,-1.18679185E-4,2.7671294E-2,1.4435429E-3,-1.6499495E-3,3.4204908E-2,-1.6253974E-1,-1.51457E-1,-1.4633778E-1,-1.16285255E-5,2.6744202E-2,-1.8536592E-3,1.4179691E-3,3.832726E-2,5.9567665E-5,2.7344344E-4,-3.616412E-4,-5.7309197E-4,2.1252688E-4,6.894122E-4,-4.998966E-5,1.6439429E-3,-5.8444304E-4,1.3829575E-5],"split_indices":[0,0,0,0,0,0,0,0,0,0,0,0,0,0,0,0,0,0,0,0,0,0,0,0,0,0,0,0,0,0,0,0,0,0,0,0,0,0,0,0,0],"split_type":[0,0,0,0,0,0,0,0,0,0,0,0,0,0,0,0,0,0,0,0,0,0,0,0,0,0,0,0,0,0,0,0,0,0,0,0,0,0,0,0,0],"sum_hessian":[8.75E3,7.85E2,7.965E3,7.18E2,6.7E1,4.888E3,3.077E3,6.5E2,6.8E1,3.4E1,3.3E1,4.852E3,3.6E1,3.3E1,3.044E3,5.47E2,1.03E2,3.3E1,3.5E1,4.822E3,3E1,3.4E1,3.01E3,4.79E2,6.8E1,6.9E1,3.4E1,4.784E3,3.8E1,3.5E1,2.975E3,4.11E2,6.8E1,3.3E1,3.5E1,3.4E1,3.5E1,4.751E3,3.3E1,1.37E2,2.838E3],"tree_param":{"num_deleted":"0","num_feature":"1","num_nodes":"41","size_leaf_vector":"0"}},{"base_weights":[-5.0938594E-5,8.7520595E-5,-1.03035134E-4,1.4347795E-5,2.627604E-3,-2.741193E-3,-5.8304122E-5,6.8879555E-5,-1.140304E-3,1.4761895E-3,7.718832E-5,-9.028877E-4,-1.8871786E-3,1.980626E-3,-8.070414E-5,-8.615822E-5,4.4502073E-4,-7.95357E-4,-1.1383217E-4,-1.0190188E-3,4.4416622E-4,3.4057337E-4,8.377854E-4,-1.2357865E-3,-5.705822E-5,1.15253424E-4,-4.3543046E-3,2.7023156E-3,2.4055233E-5,1.6674468E-3,-9.009576E-5,-1.5040996E-5,5.2618125E-4,-2.1843216E-3,-3.9197525E-4,4.9831957E-4,9.4637583E-4,-5.088884E-4,1.2639056E-4,-1.0151936E-3,-1.5587168E-5],"categories":[],"categories_nodes":[],"categories_segments":[],"categories_sizes":[],"default_left":[0,0,0,0,0,0,0,0,0,0,0,0,0,0,0,0,0,0,0,0,0,0,0,0,0,0,0,0,0,0,0,0,0,0,0,0,0,0,0,0,0],"id":25,"left_children":[1,3,5,7,9,11,13,15,17,-1,-1,19,-1,21,23,25,27,-1,-1,-1,-1,-1,-1,-1,29,31,33,35,37,-1,39,-1,-1,-1,-1,-1,-1,-1,-1,-1,-1],"loss_changes":[6.3132116E-5,4.4473723E-4,7.5024966E-4,1.4659854E-4,3.6289133E-4,6.85958E-4,2.8579304E-4,1.2967503E-4,1.19699704E-4,0E0,0E0,4.2704778E-4,0E0,4.350781E-5,5.9059897E-4,1.3544575E-3,6.166429E-4,0E0,0E0,0E0,0E0,0E0,0E0,0E0,1.141776E-3,4.0797613E-4,6.238045E-4,4.2794505E-5,3.7521956E-4,0E0,7.6826545E-4,0E0,0E0,0E0,0E0,0E0,0E0,0E0,0E0,0E0,0E0],"parents":[2147483647,0,0,1,1,2,2,3,3,4,4,5,5,6,6,7,7,8,8,11,11,13,13,14,14,15,15,16,16,24,24,25,25,26,26,27,27,28,28,30,30],"right_children":[2,4,6,8,10,12,14,16,18,-1,-1,20,-1,22,24,26,28,-1,-1,-1,-1,-1,-1,-1,30,32,34,36,38,-1,40,-1,-1,-1,-1,-1,-1,-1,-1,-1,-1],"split_conditions":[-6.312265E-2,-6.6297725E-2,-5.898491E-2,-7.007406E-2,-6.471957E-2,-6.0138106E-2,-5.671941E-2,-9.631869E-2,-6.9211386E-2,1.4761895E-3,7.718832E-5,-6.1692733E-2,-1.8871786E-3,-5.790323E-2,-5.5288658E-2,-9.918358E-2,-9.165909E-2,-7.95357E-4,-1.1383217E-4,-1.0190188E-3,4.4416622E-4,3.4057337E-4,8.377854E-4,-1.2357865E-3,-5.3567614E-2,-1.0466782E-1,-9.7977005E-2,-9.458342E-2,-8.7617725E-2,1.6674468E-3,-5.0978985E-2,-1.5040996E-5,5.2618125E-4,-2.1843216E-3,-3.9197525E-4,4.9831957E-4,9.4637583E-4,-5.088884E-4,1.2639056E-4,-1.0151936E-3,-1.5587168E-5],"split_indices":[0,0,0,0,0,0,0,0,0,0,0,0,0,0,0,0,0,0,0,0,0,0,0,0,0,0,0,0,0,0,0,0,0,0,0,0,0,0,0,0,0],"split_type":[0,0,0,0,0,0,0,0,0,0,0,0,0,0,0,0,0,0,0,0,0,0,0,0,0,0,0,0,0,0,0,0,0,0,0,0,0,0,0,0,0],"sum_hessian":[8.75E3,2.392E3,6.358E3,2.326E3,6.6E1,1.05E2,6.253E3,2.222E3,1.04E2,3.3E1,3.3E1,7E1,3.5E1,6.7E1,6.186E3,1.574E3,6.48E2,3.4E1,7E1,3.4E1,3.6E1,3.4E1,3.3E1,3.5E1,6.151E3,1.504E3,7E1,1.01E2,5.47E2,3.5E1,6.116E3,1.367E3,1.37E2,3.5E1,3.5E1,3.2E1,6.9E1,1.02E2,4.45E2,6.9E1,6.047E3],"tree_param":{"num_deleted":"0","num_feature":"1","num_nodes":"41","size_leaf_vector":"0"}},{"base_weights":[-3.5914367E-5,-5.2864125E-5,3.797312E-4,-4.4279263E-5,-5.9824996E-4,2.978514E-4,2.0676495E-4,-4.9651968E-5,3.711213E-4,4.426849E-4,1.5295859E-4,5.9363774E-5,-1.1456804E-4,7.505693E-5,2.9730677E-4,-1.1076003E-4,3.272143E-4,-5.0284643E-6,1.6689755E-3,-4.381276E-3,-2.2503715E-5,1.6474418E-4,2.0164471E-4,-2.8748544E-5,4.617396E-4,1.8846699E-3,-1.920783E-5,2.1495603E-6,1.1229491E-4],"categories":[],"categories_nodes":[],"categories_segments":[],"categories_sizes":[],"default_left":[0,0,0,0,0,0,0,0,0,0,0,0,0,0,0,0,0,0,0,0,0,0,0,0,0,0,0,0,0],"id":26,"left_children":[1,3,5,7,-1,9,-1,11,-1,13,15,17,19,-1,-1,-1,21,23,-1,-1,25,-1,27,-1,-1,-1,-1,-1,-1],"loss_changes":[6.167167E-5,1.4005453E-4,8.486539E-6,5.7703794E-5,0E0,5.6612826E-6,0E0,5.902086E-5,0E0,1.4107172E-5,1.2677308E-5,1.103299E-3,6.972402E-3,0E0,0E0,0E0,2.787543E-6,4.317132E-4,0E0,0E0,1.3603892E-3,0E0,2.2808324E-6,0E0,0E0,0E0,0E0,0E0,0E0],"parents":[2147483647,0,0,1,1,2,2,3,3,5,5,7,7,9,9,10,10,11,11,12,12,16,16,17,17,20,20,22,22],"right_children":[2,4,6,8,-1,10,-1,12,-1,14,16,18,20,-1,-1,-1,22,24,-1,-1,26,-1,28,-1,-1,-1,-1,-1,-1],"split_conditions":[2.0972541E-1,2.042347E-1,2.685919E-1,1.9961421E-1,-5.9824996E-4,2.3537266E-1,2.0676495E-4,-3.453963E-2,3.711213E-4,2.2677633E-1,2.4124481E-1,-3.6086198E-2,-3.3398982E-2,7.505693E-5,2.9730677E-4,-1.1076003E-4,2.4933548E-1,-4.281378E-2,1.6689755E-3,-4.381276E-3,-3.2280196E-2,1.6474418E-4,2.577941E-1,-2.8748544E-5,4.617396E-4,1.8846699E-3,-1.920783E-5,2.1495603E-6,1.1229491E-4],"split_indices":[0,0,0,0,0,0,0,0,0,0,0,0,0,0,0,0,0,0,0,0,0,0,0,0,0,0,0,0,0],"split_type":[0,0,0,0,0,0,0,0,0,0,0,0,0,0,0,0,0,0,0,0,0,0,0,0,0,0,0,0,0],"sum_hessian":[8.75E3,8.408E3,3.42E2,8.372E3,3.6E1,2.72E2,7E1,8.338E3,3.4E1,1.35E2,1.37E2,3.112E3,5.226E3,1.01E2,3.4E1,3.4E1,1.03E2,3.077E3,3.5E1,3.2E1,5.194E3,3.6E1,6.7E1,2.907E3,1.7E2,3.3E1,5.161E3,3.2E1,3.5E1],"tree_param":{"num_deleted":"0","num_feature":"1","num_nodes":"29","size_leaf_vector":"0"}},{"base_weights":[-2.5128433E-5,5.3960626E-4,-3.6513673E-5,3.074913E-4,4.090792E-4,-1.0121517E-3,-2.8599736E-5,1.7486674E-4,3.4435844E-4,6.7477486E-5,-6.660929E-4,1.2045398E-3,-3.8821385E-5,6.9497175E-5,1.6173962E-4,4.953767E-4,2.2844678E-4,-8.1649254E-5,7.1520815E-5,-5.1051757E-5,-2.7473264E-3,3.7146918E-3,-3.813916E-5,-1.9558662E-5,7.315522E-4,-1.2467355E-3,-3.7811187E-4,3.2474173E-4,1.8722332E-3,-2.001361E-3,1.9394294E-5],"categories":[],"categories_nodes":[],"categories_segments":[],"categories_sizes":[],"default_left":[0,0,0,0,0,0,0,0,0,0,0,0,0,0,0,0,0,0,0,0,0,0,0,0,0,0,0,0,0,0,0],"id":27,"left_children":[1,3,5,-1,7,9,11,-1,13,-1,-1,15,17,-1,-1,-1,-1,19,21,23,25,27,29,-1,-1,-1,-1,-1,-1,-1,-1],"loss_changes":[5.6285488E-5,1.0540814E-5,6.621071E-5,0E0,1.3516565E-6,1.0362569E-4,1.0732554E-4,0E0,2.136081E-6,0E0,0E0,1.2596822E-5,3.9900384E-5,0E0,0E0,0E0,0E0,4.9592624E-4,9.433849E-4,2.1192261E-4,1.3926974E-4,4.5204017E-4,1.5637791E-3,0E0,0E0,0E0,0E0,0E0,0E0,0E0,0E0],"parents":[2147483647,0,0,1,1,2,2,4,4,5,5,6,6,8,8,11,11,12,12,17,17,18,18,19,19,20,20,21,21,22,22],"right_children":[2,4,6,-1,8,10,12,-1,14,-1,-1,16,18,-1,-1,-1,-1,20,22,24,26,28,30,-1,-1,-1,-1,-1,-1,-1,-1],"split_conditions":[-1.8917267E-1,-2.3441447E-1,-1.7895812E-1,3.074913E-4,-2.1474443E-1,-1.8360241E-1,-1.7132553E-1,1.7486674E-4,-1.9733149E-1,6.7477486E-5,-6.660929E-4,-1.7537986E-1,5.6184594E-2,6.9497175E-5,1.6173962E-4,4.953767E-4,2.2844678E-4,5.3794593E-2,5.8723513E-2,5.2412827E-2,5.5175055E-2,5.7472873E-2,5.9815988E-2,-1.9558662E-5,7.315522E-4,-1.2467355E-3,-3.7811187E-4,3.2474173E-4,1.8722332E-3,-2.001361E-3,1.9394294E-5],"split_indices":[0,0,0,0,0,0,0,0,0,0,0,0,0,0,0,0,0,0,0,0,0,0,0,0,0,0,0,0,0,0,0],"split_type":[0,0,0,0,0,0,0,0,0,0,0,0,0,0,0,0,0,0,0,0,0,0,0,0,0,0,0,0,0,0,0],"sum_hessian":[8.75E3,1.72E2,8.578E3,3.5E1,1.37E2,6.8E1,8.51E3,3.5E1,1.02E2,3.4E1,3.4E1,6.9E1,8.441E3,6.6E1,3.6E1,3.3E1,3.6E1,6.081E3,2.36E3,6.013E3,6.8E1,6.8E1,2.292E3,5.98E3,3.3E1,3.4E1,3.4E1,3.4E1,3.4E1,3.4E1,2.258E3],"tree_param":{"num_deleted":"0","num_feature":"1","num_nodes":"31","size_leaf_vector":"0"}},{"base_weights":[-1.7574786E-5,9.092826E-5,-6.694391E-5,-4.7209926E-7,2.2071814E-3,-2.4689515E-3,3.7631828E-6,6.1563645E-5,-2.335668E-3,-1.6488156E-3,-3.640452E-3,1.5650442E-3,-2.6738879E-5,7.229406E-6,1.1951979E-3,-4.9139047E-4,-8.6403015E-4,-3.0158083E-3,3.2796664E-4,-1.7497849E-3,-4.2241727E-4,-7.891673E-4,-1.09589955E-5,4.7620888E-5,-8.6125935E-4,-4.053363E-4,-1.3512723E-3,1.7645002E-3,-5.4721695E-5,2.8168274E-6,4.3540943E-4,2.9630217E-4,1.1878955E-3,-3.1010336E-3,1.7409329E-6],"categories":[],"categories_nodes":[],"categories_segments":[],"categories_sizes":[],"default_left":[0,0,0,0,0,0,0,0,0,0,0,0,0,0,0,0,0,0,0,0,0,0,0,0,0,0,0,0,0,0,0,0,0,0,0],"id":28,"left_children":[1,3,5,7,-1,9,11,13,15,17,19,-1,21,23,-1,-1,-1,25,-1,-1,-1,-1,27,29,-1,-1,-1,31,33,-1,-1,-1,-1,-1,-1],"loss_changes":[4.688257E-5,1.8177719E-3,1.0215907E-3,3.9186043E-4,0E0,1.5925337E-4,9.2938694E-4,5.615483E-4,2.1871994E-5,3.893766E-4,3.3435173E-4,0E0,2.3873331E-4,3.0238798E-4,0E0,0E0,0E0,1.6488065E-4,0E0,0E0,0E0,0E0,4.4896305E-4,1.3764268E-4,0E0,0E0,0E0,2.3311909E-4,3.5093194E-3,0E0,0E0,0E0,0E0,0E0,0E0],"parents":[2147483647,0,0,1,1,2,2,3,3,5,5,6,6,7,7,8,8,9,9,10,10,12,12,13,13,17,17,22,22,23,23,27,27,28,28],"right_children":[2,4,6,8,-1,10,12,14,16,18,20,-1,22,24,-1,-1,-1,26,-1,-1,-1,-1,28,30,-1,-1,-1,32,34,-1,-1,-1,-1,-1,-1],"split_conditions":[-4.9717564E-2,-5.0978985E-2,-4.281378E-2,-5.3567614E-2,2.2071814E-3,-4.5490243E-2,-4.106347E-2,-5.5288658E-2,-5.227285E-2,-4.7176518E-2,-4.41393E-2,1.5650442E-3,-4.0000618E-2,-5.671941E-2,1.1951979E-3,-4.9139047E-4,-8.6403015E-4,-4.8481062E-2,3.2796664E-4,-1.7497849E-3,-4.2241727E-4,-7.891673E-4,-3.453963E-2,-5.898491E-2,-8.6125935E-4,-4.053363E-4,-1.3512723E-3,-3.6086198E-2,-3.3398982E-2,2.8168274E-6,4.3540943E-4,2.9630217E-4,1.1878955E-3,-3.1010336E-3,1.7409329E-6],"split_indices":[0,0,0,0,0,0,0,0,0,0,0,0,0,0,0,0,0,0,0,0,0,0,0,0,0,0,0,0,0,0,0,0,0,0,0],"split_type":[0,0,0,0,0,0,0,0,0,0,0,0,0,0,0,0,0,0,0,0,0,0,0,0,0,0,0,0,0,0,0,0,0,0,0],"sum_hessian":[8.75E3,2.736E3,6.014E3,2.703E3,3.3E1,1.71E2,5.843E3,2.634E3,6.9E1,1.02E2,6.9E1,3.3E1,5.81E3,2.599E3,3.5E1,3.2E1,3.7E1,6.8E1,3.4E1,3.4E1,3.5E1,3.4E1,5.776E3,2.564E3,3.5E1,3.3E1,3.5E1,1.38E2,5.638E3,2.497E3,6.7E1,1.03E2,3.5E1,3.2E1,5.606E3],"tree_param":{"num_deleted":"0","num_feature":"1","num_nodes":"35","size_leaf_vector":"0"}},{"base_weights":[-1.2625248E-5,8.2991086E-5,-7.4929565E-5,-3.1413452E-5,3.767339E-3,-1.326581E-3,-5.890665E-6,8.053923E-5,-3.1911698E-3,1.3107728E-3,3.3987036E-3,-7.4908306E-4,-1.5515405E-3,1.4265483E-3,-6.682532E-5,-5.6095516E-5,6.5111057E-3,6.988853E-4,1.3112052E-3,-1.0676103E-3,3.309769E-4,6.430313E-4,1.5260591E-3,-4.5891825E-4,2.1619446E-5,3.1839612E-5,-2.4388353E-3,2.1869193E-3,1.632239E-3,-5.4638705E-4,-1.0840318E-3,1.4671666E-3,-7.077162E-4,-1.6896907E-4,-2.0587924E-3,1.1281499E-3,-1.0981463E-5,-1.2710866E-5,1.009649E-3,-4.0842406E-4,8.1181305E-4,-1.3709597E-5,1.7754344E-3,-2.0777159E-4,5.695454E-5,-7.43614E-4,-2.0190535E-4,-4.4721607E-4,4.6997907E-6],"categories":[],"categories_nodes":[],"categories_segments":[],"categories_sizes":[],"default_left":[0,0,0,0,0,0,0,0,0,0,0,0,0,0,0,0,0,0,0,0,0,0,0,0,0,0,0,0,0,0,0,0,0,0,0,0,0,0,0,0,0,0,0,0,0,0,0,0,0],"id":29,"left_children":[1,3,5,7,9,11,13,15,-1,-1,17,19,-1,21,23,25,27,-1,-1,29,-1,31,-1,33,35,37,-1,-1,-1,39,-1,41,-1,43,45,-1,47,-1,-1,-1,-1,-1,-1,-1,-1,-1,-1,-1,-1],"loss_changes":[5.213864E-5,1.4555791E-3,4.5789275E-4,3.9784783E-3,8.226023E-6,6.11234E-4,4.3852878E-4,2.9139316E-3,0E0,0E0,6.151805E-5,1.439628E-4,0E0,5.846523E-4,1.6712594E-4,2.3061163E-3,1.784088E-5,0E0,0E0,2.727033E-4,0E0,4.2406228E-4,0E0,4.1111564E-4,4.7943817E-4,7.952473E-4,0E0,0E0,0E0,4.6227532E-4,0E0,9.0258423E-4,0E0,1.4141564E-4,7.74723E-5,0E0,1.5380516E-4,0E0,0E0,0E0,0E0,0E0,0E0,0E0,0E0,0E0,0E0,0E0,0E0],"parents":[2147483647,0,0,1,1,2,2,3,3,4,4,5,5,6,6,7,7,10,10,11,11,13,13,14,14,15,15,16,16,19,19,21,21,23,23,24,24,25,25,29,29,31,31,33,33,34,34,36,36],"right_children":[2,4,6,8,10,12,14,16,-1,-1,18,20,-1,22,24,26,28,-1,-1,30,-1,32,-1,34,36,38,-1,-1,-1,40,-1,42,-1,44,46,-1,48,-1,-1,-1,-1,-1,-1,-1,-1,-1,-1,-1,-1],"split_conditions":[-2.3384923E-2,-2.6744796E-2,-1.5253555E-2,-2.7613979E-2,-2.5493922E-2,-1.6314432E-2,-8.67231E-3,-3.0310232E-2,-3.1911698E-3,1.3107728E-3,-2.4343546E-2,-1.7454434E-2,-1.5515405E-3,-9.8638935E-3,5.44111E-3,-3.1288195E-2,-2.9041776E-2,6.988853E-4,1.3112052E-3,-1.8472198E-2,3.309769E-4,-1.0980847E-2,1.5260591E-3,2.2773338E-3,6.3641644E-3,-3.3398982E-2,-2.4388353E-3,2.1869193E-3,1.632239E-3,-1.946558E-2,-1.0840318E-3,-1.19923325E-2,-7.077162E-4,0E0,4.574951E-3,1.1281499E-3,8.1813E-3,-1.2710866E-5,1.009649E-3,-4.0842406E-4,8.1181305E-4,-1.3709597E-5,1.7754344E-3,-2.0777159E-4,5.695454E-5,-7.43614E-4,-2.0190535E-4,-4.4721607E-4,4.6997907E-6],"split_indices":[0,0,0,0,0,0,0,0,0,0,0,0,0,0,0,0,0,0,0,0,0,0,0,0,0,0,0,0,0,0,0,0,0,0,0,0,0,0,0,0,0,0,0,0,0,0,0,0,0],"split_type":[0,0,0,0,0,0,0,0,0,0,0,0,0,0,0,0,0,0,0,0,0,0,0,0,0,0,0,0,0,0,0,0,0,0,0,0,0,0,0,0,0,0,0,0,0,0,0,0,0],"sum_hessian":[8.75E3,3.452E3,5.298E3,3.349E3,1.03E2,2.76E2,5.022E3,3.315E3,3.4E1,3.5E1,6.8E1,2.41E2,3.5E1,2.04E2,4.818E3,3.247E3,6.8E1,3.4E1,3.4E1,2.06E2,3.5E1,1.69E2,3.5E1,8.86E2,3.932E3,3.213E3,3.4E1,3.6E1,3.2E1,1.72E2,3.4E1,1.33E2,3.6E1,7.51E2,1.35E2,3.3E1,3.899E3,3.144E3,6.9E1,1.38E2,3.4E1,1E2,3.3E1,3.05E2,4.46E2,1.03E2,3.2E1,6.8E1,3.831E3],"tree_param":{"num_deleted":"0","num_feature":"1","num_nodes":"49","size_leaf_vector":"0"}},{"base_weights":[-8.519811E-6,1.0359724E-4,-5.0710027E-5,5.1258605E-5,1.9198421E-3,-1.8844072E-3,-1.9622305E-5,8.9045105E-5,-7.492237E-4,1.063305E-3,7.166061E-5,-5.827349E-4,-1.319775E-3,6.768735E-4,-4.7409398E-5,3.0244113E-5,6.677288E-4,-5.4660504E-4,-6.29489E-5,-7.0508604E-4,3.3150698E-4,-7.381636E-5,1.5682026E-3,-1.7365643E-3,2.3137463E-6,1.1818342E-4,-9.0879726E-4,1.1651672E-3,5.545236E-6,7.2207424E-4,-1.6418033E-3,-1.1554537E-3,-2.5668188E-3,1.1130405E-3,-1.938101E-5,1.2633658E-5,1.1831459E-3,-5.4498255E-4,-8.670963E-5,-2.0573985E-4,3.1124166E-4,-6.962416E-6,8.503056E-4,-3.447436E-4,-6.079298E-4,-6.3719915E-4,2.360919E-4,-1.2361438E-3,-2.955047E-4,-5.554776E-4,-2.4831572E-6],"categories":[],"categories_nodes":[],"categories_segments":[],"categories_sizes":[],"default_left":[0,0,0,0,0,0,0,0,0,0,0,0,0,0,0,0,0,0,0,0,0,0,0,0,0,0,0,0,0,0,0,0,0,0,0,0,0,0,0,0,0,0,0,0,0,0,0,0,0,0,0],"id":30,"left_children":[1,3,5,7,9,11,13,15,17,-1,-1,19,-1,21,23,25,27,-1,-1,-1,-1,29,-1,31,33,35,37,-1,39,41,43,45,47,-1,49,-1,-1,-1,-1,-1,-1,-1,-1,-1,-1,-1,-1,-1,-1,-1,-1],"loss_changes":[4.139961E-5,2.2737966E-4,3.6246082E-4,7.045247E-5,1.8211387E-4,3.4442754E-4,1.2106946E-4,7.562221E-5,6.0376795E-5,0E0,0E0,2.144043E-4,0E0,8.202235E-4,5.0520437E-4,1.6683368E-4,4.3656476E-4,0E0,0E0,0E0,0E0,2.5951033E-4,0E0,8.0019E-5,4.701649E-4,5.3734944E-4,9.680989E-5,0E0,1.2270585E-4,2.1731135E-4,1.09356915E-5,1.9544792E-4,1.6797218E-4,0E0,1.1820681E-4,0E0,0E0,0E0,0E0,0E0,0E0,0E0,0E0,0E0,0E0,0E0,0E0,0E0,0E0,0E0,0E0],"parents":[2147483647,0,0,1,1,2,2,3,3,4,4,5,5,6,6,7,7,8,8,11,11,13,13,14,14,15,15,16,16,21,21,23,23,24,24,25,25,26,26,28,28,29,29,30,30,31,31,32,32,34,34],"right_children":[2,4,6,8,10,12,14,16,18,-1,-1,20,-1,22,24,26,28,-1,-1,-1,-1,30,-1,32,34,36,38,-1,40,42,44,46,48,-1,50,-1,-1,-1,-1,-1,-1,-1,-1,-1,-1,-1,-1,-1,-1,-1,-1],"split_conditions":[-6.312265E-2,-6.6297725E-2,-5.898491E-2,-7.007406E-2,-6.471957E-2,-6.0138106E-2,-4.9717564E-2,-7.839321E-2,-6.9211386E-2,1.063305E-3,7.166061E-5,-6.1692733E-2,-1.319775E-3,-5.0978985E-2,-4.281378E-2,-8.4773265E-2,-7.742836E-2,-5.4660504E-4,-6.29489E-5,-7.0508604E-4,3.3150698E-4,-5.3567614E-2,1.5682026E-3,-4.5490243E-2,-4.106347E-2,-8.629885E-2,-8.225952E-2,1.1651672E-3,-7.296119E-2,-5.5288658E-2,-5.227285E-2,-4.7176518E-2,-4.41393E-2,1.1130405E-3,-4.0000618E-2,1.2633658E-5,1.1831459E-3,-5.4498255E-4,-8.670963E-5,-2.0573985E-4,3.1124166E-4,-6.962416E-6,8.503056E-4,-3.447436E-4,-6.079298E-4,-6.3719915E-4,2.360919E-4,-1.2361438E-3,-2.955047E-4,-5.554776E-4,-2.4831572E-6],"split_indices":[0,0,0,0,0,0,0,0,0,0,0,0,0,0,0,0,0,0,0,0,0,0,0,0,0,0,0,0,0,0,0,0,0,0,0,0,0,0,0,0,0,0,0,0,0,0,0,0,0,0,0],"split_type":[0,0,0,0,0,0,0,0,0,0,0,0,0,0,0,0,0,0,0,0,0,0,0,0,0,0,0,0,0,0,0,0,0,0,0,0,0,0,0,0,0,0,0,0,0,0,0,0,0,0,0],"sum_hessian":[8.75E3,2.392E3,6.358E3,2.326E3,6.6E1,1.05E2,6.253E3,2.222E3,1.04E2,3.3E1,3.3E1,7E1,3.5E1,2.39E2,6.014E3,2.018E3,2.04E2,3.4E1,7E1,3.4E1,3.6E1,2.06E2,3.3E1,1.71E2,5.843E3,1.846E3,1.72E2,3.4E1,1.7E2,1.37E2,6.9E1,1.02E2,6.9E1,3.3E1,5.81E3,1.811E3,3.5E1,6.9E1,1.03E2,1.02E2,6.8E1,1.02E2,3.5E1,3.2E1,3.7E1,6.8E1,3.4E1,3.4E1,3.5E1,3.4E1,5.776E3],"tree_param":{"num_deleted":"0","num_feature":"1","num_nodes":"51","size_leaf_vector":"0"}},{"base_weights":[-5.8790756E-6,1.4151381E-4,-3.078172E-5,7.0445176E-6,1.2577549E-3,-1.945315E-3,-3.8122962E-6,1.314154E-4,-1.1663226E-3,6.889893E-4,1.535895E-4,-9.3079696E-4,-1.2019956E-3,1.2746848E-3,-2.4644465E-5,6.6516484E-5,6.121441E-4,-9.8862525E-5,1.9840416E-4,9.027186E-6,-5.5974873E-4,-1.1130486E-3,1.5947113E-6,1.205195E-4,-4.4232517E-4,2.2561154E-4,-3.039372E-3,1.7635028E-3,-3.2687778E-5,9.493957E-6,9.8278404E-5,1.466109E-4,-8.328179E-5,-1.5339366E-3,-2.643586E-4,5.852718E-4,3.550623E-4,-7.092846E-4,-2.9846633E-6],"categories":[],"categories_nodes":[],"categories_segments":[],"categories_sizes":[],"default_left":[0,0,0,0,0,0,0,0,0,0,0,0,0,0,0,0,0,0,0,0,0,0,0,0,0,0,0,0,0,0,0,0,0,0,0,0,0,0,0],"id":31,"left_children":[1,3,5,7,9,11,13,15,-1,-1,17,19,-1,-1,21,23,-1,-1,-1,-1,-1,25,27,29,-1,31,33,35,37,-1,-1,-1,-1,-1,-1,-1,-1,-1,-1],"loss_changes":[3.2124666E-5,1.8986782E-4,3.8657532E-4,5.478807E-4,1.5565162E-4,2.1376202E-4,6.542846E-4,1.3565454E-4,0E0,0E0,1.6653952E-5,6.384685E-5,0E0,0E0,2.0988061E-4,8.8468885E-5,0E0,0E0,0E0,0E0,0E0,4.4679944E-4,4.335671E-4,1.887151E-5,0E0,1.37720635E-5,3.1325617E-4,1.258112E-5,3.7327546E-4,0E0,0E0,0E0,0E0,0E0,0E0,0E0,0E0,0E0,0E0],"parents":[2147483647,0,0,1,1,2,2,3,3,4,4,5,5,6,6,7,7,10,10,11,11,14,14,15,15,21,21,22,22,23,23,25,25,26,26,27,27,28,28],"right_children":[2,4,6,8,10,12,14,16,-1,-1,18,20,-1,-1,22,24,-1,-1,-1,-1,-1,26,28,30,-1,32,34,36,38,-1,-1,-1,-1,-1,-1,-1,-1,-1,-1],"split_conditions":[-1.08321406E-1,-1.1450955E-1,-1.0466782E-1,-1.1609301E-1,-1.1116959E-1,-1.0602862E-1,-1.02900326E-1,-1.1785613E-1,-1.1663226E-3,6.889893E-4,-1.0964732E-1,-1.0711527E-1,-1.2019956E-3,1.2746848E-3,-9.631869E-2,-1.198864E-1,6.121441E-4,-9.8862525E-5,1.9840416E-4,9.027186E-6,-5.5974873E-4,-9.918358E-2,-9.037633E-2,-1.3700475E-1,-4.4232517E-4,-1.004929E-1,-9.7977005E-2,-9.165909E-2,-8.7617725E-2,9.493957E-6,9.8278404E-5,1.466109E-4,-8.328179E-5,-1.5339366E-3,-2.643586E-4,5.852718E-4,3.550623E-4,-7.092846E-4,-2.9846633E-6],"split_indices":[0,0,0,0,0,0,0,0,0,0,0,0,0,0,0,0,0,0,0,0,0,0,0,0,0,0,0,0,0,0,0,0,0,0,0,0,0,0,0],"split_type":[0,0,0,0,0,0,0,0,0,0,0,0,0,0,0,0,0,0,0,0,0,0,0,0,0,0,0,0,0,0,0,0,0,0,0,0,0,0,0],"sum_hessian":[8.75E3,1.264E3,7.486E3,1.129E3,1.35E2,1.03E2,7.383E3,1.095E3,3.4E1,6.9E1,6.6E1,7E1,3.3E1,3.5E1,7.348E3,1.06E3,3.5E1,3.4E1,3.2E1,3.5E1,3.5E1,1.72E2,7.176E3,1.025E3,3.5E1,1.02E2,7E1,1.36E2,7.04E3,7.18E2,3.07E2,6.7E1,3.5E1,3.5E1,3.5E1,1.01E2,3.5E1,6.7E1,6.973E3],"tree_param":{"num_deleted":"0","num_feature":"1","num_nodes":"39","size_leaf_vector":"0"}},{"base_weights":[-4.3526434E-6,5.7066474E-5,-5.7718018E-5,-2.1900652E-5,1.1508699E-3,-1.5933343E-3,-1.7016646E-5,1.7393833E-5,-1.2379424E-3,2.6303022E-3,6.68789E-4,1.0729581E-3,-4.270337E-5,-1.2607623E-5,1.0221094E-3,2.949113E-4,1.2600616E-3,-4.9954344E-4,1.1669679E-3,-1.4031566E-3,-1.1651226E-5,2.2922512E-5,-1.0974132E-3,1.082554E-3,5.1687594E-4,-2.2997418E-4,-1.1996905E-3,-2.0662711E-4,3.8453003E-5,-1.132433E-5,1.3911443E-4,-2.639425E-5,6.8463455E-4,-5.61113E-4,4.1169263E-4,2.6258935E-5,-2.3701617E-3,7.339336E-4,-9.787451E-6],"categories":[],"categories_nodes":[],"categories_segments":[],"categories_sizes":[],"default_left":[0,0,0,0,0,0,0,0,0,0,0,0,0,0,0,0,0,0,0,0,0,0,0,0,0,0,0,0,0,0,0,0,0,0,0,0,0,0,0],"id":32,"left_children":[1,3,5,7,9,-1,11,13,-1,15,17,-1,19,21,-1,-1,-1,-1,23,25,27,29,-1,-1,31,33,-1,35,37,-1,-1,-1,-1,-1,-1,-1,-1,-1,-1],"loss_changes":[2.8686045E-5,3.5148312E-4,1.0012307E-3,6.1231764E-4,1.9365936E-4,0E0,4.291927E-4,3.8251432E-4,0E0,1.691361E-4,2.437882E-4,0E0,1.9498653E-4,4.8307455E-4,0E0,0E0,0E0,0E0,2.7113827E-4,3.127525E-4,4.410574E-5,9.880611E-5,0E0,0E0,1.4647799E-4,1.9181072E-4,0E0,2.0896408E-3,6.148681E-4,0E0,0E0,0E0,0E0,0E0,0E0,0E0,0E0,0E0,0E0],"parents":[2147483647,0,0,1,1,2,2,3,3,4,4,6,6,7,7,9,9,10,10,12,12,13,13,18,18,19,19,20,20,21,21,24,24,25,25,27,27,28,28],"right_children":[2,4,6,8,10,-1,12,14,-1,16,18,-1,20,22,-1,-1,-1,-1,24,26,28,30,-1,-1,32,34,-1,36,38,-1,-1,-1,-1,-1,-1,-1,-1,-1,-1],"split_conditions":[-4.7527533E-3,-1.3121375E-2,-3.649518E-3,-1.4150239E-2,-1.0980847E-2,-1.5933343E-3,-2.443838E-3,-1.5253555E-2,-1.2379424E-3,-1.19923325E-2,-9.8638935E-3,1.0729581E-3,0E0,-1.6314432E-2,1.0221094E-3,2.949113E-4,1.2600616E-3,-4.9954344E-4,-8.67231E-3,-5.001009E-4,1.4774188E-2,-3.0310232E-2,-1.0974132E-3,1.082554E-3,-5.9933844E-3,-1.4153293E-3,-1.1996905E-3,1.3617377E-2,1.8105045E-2,-1.132433E-5,1.3911443E-4,-2.639425E-5,6.8463455E-4,-5.61113E-4,4.1169263E-4,2.6258935E-5,-2.3701617E-3,7.339336E-4,-9.787451E-6],"split_indices":[0,0,0,0,0,0,0,0,0,0,0,0,0,0,0,0,0,0,0,0,0,0,0,0,0,0,0,0,0,0,0,0,0,0,0,0,0,0,0],"split_type":[0,0,0,0,0,0,0,0,0,0,0,0,0,0,0,0,0,0,0,0,0,0,0,0,0,0,0,0,0,0,0,0,0,0,0,0,0,0,0],"sum_hessian":[8.75E3,4.068E3,4.682E3,3.795E3,2.73E2,3.5E1,4.647E3,3.76E3,3.5E1,6.6E1,2.07E2,3.2E1,4.615E3,3.728E3,3.2E1,3.3E1,3.3E1,3.6E1,1.71E2,1.02E2,4.513E3,3.693E3,3.5E1,3.5E1,1.36E2,7.1E1,3.1E1,9.22E2,3.591E3,3.247E3,4.46E2,1.02E2,3.4E1,3.5E1,3.6E1,8.89E2,3.3E1,1.02E2,3.489E3],"tree_param":{"num_deleted":"0","num_feature":"1","num_nodes":"39","size_leaf_vector":"0"}},{"base_weights":[-3.260532E-6,6.7365734E-5,-4.6342473E-5,-2.642637E-5,4.481415E-3,-2.30012E-3,3.0413962E-6,3.584521E-5,-1.7231946E-3,1.509565E-3,1.1185269E-3,2.5367048E-3,-4.6685727E-5,-1.649321E-5,2.3868235E-3,8.8948297E-4,2.276512E-3,-9.123952E-4,1.0642649E-6,6.0734095E-5,-2.190331E-3,1.0519892E-3,3.8799105E-4,4.5626078E-4,8.9013355E-4,-6.588978E-4,-7.773351E-4,7.2476885E-4,-1.4902578E-5,8.485535E-6,8.5003057E-4,-4.954581E-4,-7.3595686E-5,-8.768754E-4,1.8672083E-6],"categories":[],"categories_nodes":[],"categories_segments":[],"categories_sizes":[],"default_left":[0,0,0,0,0,0,0,0,0,0,0,0,0,0,0,0,0,0,0,0,0,0,0,0,0,0,0,0,0,0,0,0,0,0,0],"id":33,"left_children":[1,3,5,7,9,-1,11,13,-1,-1,-1,15,17,19,21,-1,23,25,27,29,-1,-1,-1,-1,-1,31,-1,-1,33,-1,-1,-1,-1,-1,-1],"loss_changes":[2.6629938E-5,1.3729524E-3,2.045812E-3,1.1566278E-3,9.839307E-6,0E0,6.807261E-4,3.955108E-4,0E0,0E0,0E0,4.8383954E-6,2.1904902E-4,1.7697286E-3,8.118205E-5,0E0,3.1494797E-5,1.16170486E-4,1.9370903E-4,2.8000056E-4,0E0,0E0,0E0,0E0,0E0,9.894321E-5,0E0,0E0,3.0664774E-4,0E0,0E0,0E0,0E0,0E0,0E0],"parents":[2147483647,0,0,1,1,2,2,3,3,4,4,6,6,7,7,11,11,12,12,13,13,14,14,16,16,17,17,18,18,19,19,25,25,28,28],"right_children":[2,4,6,8,10,-1,12,14,-1,-1,-1,16,18,20,22,-1,24,26,28,30,-1,-1,-1,-1,-1,32,-1,-1,34,-1,-1,-1,-1,-1,-1],"split_conditions":[-2.7613979E-2,-3.0310232E-2,-2.6744796E-2,-3.1288195E-2,-2.9041776E-2,-2.30012E-3,-2.3384923E-2,-3.3398982E-2,-1.7231946E-3,1.509565E-3,1.1185269E-3,-2.5493922E-2,-1.5253555E-2,-3.453963E-2,-3.2280196E-2,8.8948297E-4,-2.4343546E-2,-1.6314432E-2,-1.4150239E-2,-3.6086198E-2,-2.190331E-3,1.0519892E-3,3.8799105E-4,4.5626078E-4,8.9013355E-4,-2.1281445E-2,-7.773351E-4,7.2476885E-4,-1.3121375E-2,8.485535E-6,8.5003057E-4,-4.954581E-4,-7.3595686E-5,-8.768754E-4,1.8672083E-6],"split_indices":[0,0,0,0,0,0,0,0,0,0,0,0,0,0,0,0,0,0,0,0,0,0,0,0,0,0,0,0,0,0,0,0,0,0,0],"split_type":[0,0,0,0,0,0,0,0,0,0,0,0,0,0,0,0,0,0,0,0,0,0,0,0,0,0,0,0,0,0,0,0,0,0,0],"sum_hessian":[8.75E3,3.315E3,5.435E3,3.247E3,6.8E1,3.4E1,5.401E3,3.213E3,3.4E1,3.6E1,3.2E1,1.03E2,5.298E3,3.144E3,6.9E1,3.5E1,6.8E1,2.76E2,5.022E3,3.112E3,3.2E1,3.3E1,3.6E1,3.4E1,3.4E1,2.41E2,3.5E1,3.2E1,4.99E3,3.077E3,3.5E1,7E1,1.71E2,3.5E1,4.955E3],"tree_param":{"num_deleted":"0","num_feature":"1","num_nodes":"35","size_leaf_vector":"0"}},{"base_weights":[-2.3441642E-6,3.7250802E-4,-9.90298E-6,2.1505692E-4,8.3993604E-5,-7.26429E-4,-4.0928285E-6,4.5078225E-5,-4.7470912E-4,8.442642E-4,-1.1126814E-5,3.484019E-4,1.5902396E-4,-2.2418108E-5,2.5555136E-4,-1.5983587E-5,-4.2725695E-4,1.9804997E-4,1.4191469E-4,6.378075E-7,-7.47691E-5,9.007644E-5,2.8767374E-5],"categories":[],"categories_nodes":[],"categories_segments":[],"categories_sizes":[],"default_left":[0,0,0,0,0,0,0,0,0,0,0,0,0,0,0,0,0,0,0,0,0,0,0],"id":34,"left_children":[1,3,5,-1,-1,7,9,-1,-1,11,13,-1,-1,15,17,19,-1,21,-1,-1,-1,-1,-1],"loss_changes":[2.4799112E-5,5.3114763E-6,3.5712477E-5,0E0,0E0,5.201462E-5,5.079735E-5,0E0,0E0,6.3578045E-6,2.5425787E-5,0E0,0E0,7.303703E-5,4.19601E-6,3.406293E-5,0E0,2.8216327E-6,0E0,0E0,0E0,0E0,0E0],"parents":[2147483647,0,0,1,1,2,2,5,5,6,6,9,9,10,10,13,13,14,14,15,15,17,17],"right_children":[2,4,6,-1,-1,8,10,-1,-1,12,14,-1,-1,16,18,20,-1,22,-1,-1,-1,-1,-1],"split_conditions":[-1.8917267E-1,-2.3441447E-1,-1.7895812E-1,2.1505692E-4,8.3993604E-5,-1.8360241E-1,-1.7132553E-1,4.5078225E-5,-4.7470912E-4,-1.7537986E-1,2.0972541E-1,3.484019E-4,1.5902396E-4,2.042347E-1,2.685919E-1,1.4365599E-1,-4.2725695E-4,2.3537266E-1,1.4191469E-4,6.378075E-7,-7.47691E-5,9.007644E-5,2.8767374E-5],"split_indices":[0,0,0,0,0,0,0,0,0,0,0,0,0,0,0,0,0,0,0,0,0,0,0],"split_type":[0,0,0,0,0,0,0,0,0,0,0,0,0,0,0,0,0,0,0,0,0,0,0],"sum_hessian":[8.75E3,1.72E2,8.578E3,3.5E1,1.37E2,6.8E1,8.51E3,3.4E1,3.4E1,6.9E1,8.441E3,3.3E1,3.6E1,8.099E3,3.42E2,8.063E3,3.6E1,2.72E2,7E1,7.483E3,5.8E2,1.35E2,1.37E2],"tree_param":{"num_deleted":"0","num_feature":"1","num_nodes":"23","size_leaf_vector":"0"}},{"base_weights":[-1.6273372E-6,-1.7968223E-5,1.7145835E-4,8.069659E-6,-1.0077012E-3,1.4139753E-3,4.442097E-5,-8.976632E-6,1.1695193E-3,-1.4959333E-3,-1.5921619E-4,5.6177593E-4,2.7055852E-4,-7.382454E-4,1.7883652E-4,5.2046303E-6,-8.9075055E-4,6.1692484E-4,-3.9975005E-4,3.0922669E-4,1.2883988E-4,-2.016257E-5,1.7229785E-3,-3.5601293E-4,7.552128E-4,-1.8359597E-4,1.7444283E-4,-1.1959316E-6,-1.0675386E-3,2.4480242E-4,-4.5535865E-4,1.667347E-4,1.7408947E-5],"categories":[],"categories_nodes":[],"categories_segments":[],"categories_sizes":[],"default_left":[0,0,0,0,0,0,0,0,0,0,0,0,0,0,0,0,0,0,0,0,0,0,0,0,0,0,0,0,0,0,0,0,0],"id":35,"left_children":[1,3,5,7,9,11,13,15,-1,-1,17,-1,-1,-1,19,21,-1,23,-1,-1,25,27,-1,29,-1,-1,31,-1,-1,-1,-1,-1,-1],"loss_changes":[2.4754176E-5,2.060952E-4,1.19110984E-4,5.16833E-4,6.9126626E-4,1.4751451E-5,2.314458E-4,3.2577448E-4,0E0,0E0,1.5562982E-4,0E0,0E0,0E0,2.7637885E-5,1.1244093E-3,0E0,1.9134533E-4,0E0,0E0,2.0951404E-5,4.4018787E-4,0E0,9.519668E-5,0E0,0E0,2.5804402E-5,0E0,0E0,0E0,0E0,0E0,0E0],"parents":[2147483647,0,0,1,1,2,2,3,3,4,4,5,5,6,6,7,7,10,10,14,14,15,15,17,17,20,20,21,21,23,23,26,26],"right_children":[2,4,6,8,10,12,14,16,-1,-1,18,-1,-1,-1,20,22,-1,24,-1,-1,26,28,-1,30,-1,-1,32,-1,-1,-1,-1,-1,-1],"split_conditions":[1.6294053E-1,1.4365599E-1,1.6966864E-1,1.3983302E-1,1.477646E-1,1.6625318E-1,1.7354615E-1,1.3649185E-1,1.1695193E-3,-1.4959333E-3,1.564899E-1,5.6177593E-4,2.7055852E-4,-7.382454E-4,1.7612115E-1,1.3377117E-1,-8.9075055E-4,1.5331115E-1,-3.9975005E-4,3.0922669E-4,1.7917189E-1,1.3041058E-1,1.7229785E-3,1.5041636E-1,7.552128E-4,-1.8359597E-4,1.9557041E-1,-1.1959316E-6,-1.0675386E-3,2.4480242E-4,-4.5535865E-4,1.667347E-4,1.7408947E-5],"split_indices":[0,0,0,0,0,0,0,0,0,0,0,0,0,0,0,0,0,0,0,0,0,0,0,0,0,0,0,0,0,0,0,0,0],"split_type":[0,0,0,0,0,0,0,0,0,0,0,0,0,0,0,0,0,0,0,0,0,0,0,0,0,0,0,0,0,0,0,0,0],"sum_hessian":[8.75E3,7.996E3,7.54E2,7.792E3,2.04E2,6.9E1,6.85E2,7.759E3,3.3E1,3.5E1,1.69E2,3.5E1,3.4E1,3.4E1,6.51E2,7.723E3,3.6E1,1.02E2,6.7E1,3.5E1,6.16E2,7.69E3,3.3E1,6.8E1,3.4E1,3.5E1,5.81E2,7.656E3,3.4E1,3.4E1,3.4E1,1.35E2,4.46E2],"tree_param":{"num_deleted":"0","num_feature":"1","num_nodes":"33","size_leaf_vector":"0"}},{"base_weights":[-1.1394399E-6,-3.6995476E-5,6.495812E-5,-8.065617E-6,-1.3332842E-3,1.7853699E-3,-7.8844636E-7,-2.7316233E-5,1.0424079E-3,-1.1510819E-3,4.3803408E-5,2.6924072E-6,-1.2937397E-3,1.0224346E-3,3.0913689E-6,-2.1511281E-5,1.1832766E-3,-9.698773E-4,4.047548E-5,6.57392E-6,-1.0389154E-3,1.3143199E-3,-3.075971E-6],"categories":[],"categories_nodes":[],"categories_segments":[],"categories_sizes":[],"default_left":[0,0,0,0,0,0,0,0,0,0,0,0,0,0,0,0,0,0,0,0,0,0,0],"id":36,"left_children":[1,3,5,7,-1,-1,9,11,-1,-1,13,15,-1,-1,17,19,-1,-1,21,-1,-1,-1,-1],"loss_changes":[2.0742242E-5,7.234112E-4,1.191198E-3,3.78096E-4,0E0,0E0,5.21049E-4,7.211527E-4,0E0,0E0,4.1240006E-4,5.314649E-4,0E0,0E0,3.6015414E-4,8.275618E-4,0E0,0E0,6.480718E-4,0E0,0E0,0E0,0E0],"parents":[2147483647,0,0,1,1,2,2,3,3,6,6,7,7,10,10,11,11,14,14,15,15,18,18],"right_children":[2,4,6,8,-1,-1,10,12,-1,-1,14,16,-1,-1,18,20,-1,-1,22,-1,-1,-1,-1],"split_conditions":[3.0950418E-2,2.9591845E-2,3.197165E-2,2.865309E-2,-1.3332842E-3,1.7853699E-3,3.295737E-2,2.7671294E-2,1.0424079E-3,-1.1510819E-3,3.4204908E-2,2.6744202E-2,-1.2937397E-3,1.0224346E-3,3.5251833E-2,2.4821224E-2,1.1832766E-3,-9.698773E-4,3.6164075E-2,6.57392E-6,-1.0389154E-3,1.3143199E-3,-3.075971E-6],"split_indices":[0,0,0,0,0,0,0,0,0,0,0,0,0,0,0,0,0,0,0,0,0,0,0],"split_type":[0,0,0,0,0,0,0,0,0,0,0,0,0,0,0,0,0,0,0,0,0,0,0],"sum_hessian":[8.75E3,5.673E3,3.077E3,5.637E3,3.6E1,3.3E1,3.044E3,5.607E3,3E1,3.4E1,